{"learner":{"attributes":{"scikit_learn":"{\"_estimator_type\": \"regressor\"}"},"feature_names":["Year","Avg Temperature (°C)","Rainfall (mm)","Population","Renewable Energy (%)","Extreme Weather Events","Forest Area (%)"],"feature_types":["float","float","float","float","float","float","float"],"gradient_booster":{"model":{"gbtree_model_param":{"num_parallel_tree":"1","num_trees":"300"},"iteration_indptr":[0,1,2,3,4,5,6,7,8,9,10,11,12,13,14,15,16,17,18,19,20,21,22,23,24,25,26,27,28,29,30,31,32,33,34,35,36,37,38,39,40,41,42,43,44,45,46,47,48,49,50,51,52,53,54,55,56,57,58,59,60,61,62,63,64,65,66,67,68,69,70,71,72,73,74,75,76,77,78,79,80,81,82,83,84,85,86,87,88,89,90,91,92,93,94,95,96,97,98,99,100,101,102,103,104,105,106,107,108,109,110,111,112,113,114,115,116,117,118,119,120,121,122,123,124,125,126,127,128,129,130,131,132,133,134,135,136,137,138,139,140,141,142,143,144,145,146,147,148,149,150,151,152,153,154,155,156,157,158,159,160,161,162,163,164,165,166,167,168,169,170,171,172,173,174,175,176,177,178,179,180,181,182,183,184,185,186,187,188,189,190,191,192,193,194,195,196,197,198,199,200,201,202,203,204,205,206,207,208,209,210,211,212,213,214,215,216,217,218,219,220,221,222,223,224,225,226,227,228,229,230,231,232,233,234,235,236,237,238,239,240,241,242,243,244,245,246,247,248,249,250,251,252,253,254,255,256,257,258,259,260,261,262,263,264,265,266,267,268,269,270,271,272,273,274,275,276,277,278,279,280,281,282,283,284,285,286,287,288,289,290,291,292,293,294,295,296,297,298,299,300],"tree_info":[0,0,0,0,0,0,0,0,0,0,0,0,0,0,0,0,0,0,0,0,0,0,0,0,0,0,0,0,0,0,0,0,0,0,0,0,0,0,0,0,0,0,0,0,0,0,0,0,0,0,0,0,0,0,0,0,0,0,0,0,0,0,0,0,0,0,0,0,0,0,0,0,0,0,0,0,0,0,0,0,0,0,0,0,0,0,0,0,0,0,0,0,0,0,0,0,0,0,0,0,0,0,0,0,0,0,0,0,0,0,0,0,0,0,0,0,0,0,0,0,0,0,0,0,0,0,0,0,0,0,0,0,0,0,0,0,0,0,0,0,0,0,0,0,0,0,0,0,0,0,0,0,0,0,0,0,0,0,0,0,0,0,0,0,0,0,0,0,0,0,0,0,0,0,0,0,0,0,0,0,0,0,0,0,0,0,0,0,0,0,0,0,0,0,0,0,0,0,0,0,0,0,0,0,0,0,0,0,0,0,0,0,0,0,0,0,0,0,0,0,0,0,0,0,0,0,0,0,0,0,0,0,0,0,0,0,0,0,0,0,0,0,0,0,0,0,0,0,0,0,0,0,0,0,0,0,0,0,0,0,0,0,0,0,0,0,0,0,0,0,0,0,0,0,0,0,0,0,0,0,0,0,0,0,0,0,0,0,0,0,0,0,0,0,0,0,0,0,0,0],"trees":[{"base_weights":[1.4421529E-2,5.573294E-1,-5.387849E-1,1.4328782E-1,3.5135606E-1,-2.610342E0,-1.3105288E-1,-6.281527E-2,3.9665934E-2,2.0176077E-2,-1.9195111E-1,3.8901277E-2,-4.140557E-2],"categories":[],"categories_nodes":[],"categories_segments":[],"categories_sizes":[],"default_left":[0,0,0,0,0,0,0,0,0,0,0,0,0],"id":0,"left_children":[1,3,5,-1,7,9,11,-1,-1,-1,-1,-1,-1],"loss_changes":[6.758575E1,5.1588627E1,9.204227E1,0E0,7.608093E1,6.992222E1,6.0235336E1,0E0,0E0,0E0,0E0,0E0,0E0],"parents":[2147483647,0,0,1,1,2,2,4,4,5,5,6,6],"right_children":[2,4,6,-1,8,10,12,-1,-1,-1,-1,-1,-1],"split_conditions":[6.0955934E-2,-1.3692148E0,2.488847E-1,1.4328782E-1,-4.934007E-1,-5.179964E-1,-1.8421501E-1,-6.281527E-2,3.9665934E-2,2.0176077E-2,-1.9195111E-1,3.8901277E-2,-4.140557E-2],"split_indices":[3,1,3,0,2,5,5,0,0,0,0,0,0],"split_type":[0,0,0,0,0,0,0,0,0,0,0,0,0],"sum_hessian":[2.23E2,1.13E2,1.1E2,8E0,1.05E2,1.7E1,9.3E1,2.2E1,8.3E1,5E0,1.2E1,4E1,5.3E1],"tree_param":{"num_deleted":"0","num_feature":"7","num_nodes":"13","size_leaf_vector":"1"}},{"base_weights":[-3.137165E-2,-3.1485316E-1,2.4009845E0,5.9025955E-1,-1.1862864E0,2.4030529E-1,-1.625518E-1,-8.144206E-2,4.7734834E-2,-1.411142E-1,-3.7337348E-2,1.1457624E-1,-1.5409414E-1],"categories":[],"categories_nodes":[],"categories_segments":[],"categories_sizes":[],"default_left":[0,0,0,0,0,0,0,0,0,0,0,0,0],"id":1,"left_children":[1,3,5,7,9,-1,11,-1,-1,-1,-1,-1,-1],"loss_changes":[1.5209859E2,1.5795857E2,1.4491217E2,8.047278E1,6.945465E1,0E0,9.342853E1,0E0,0E0,0E0,0E0,0E0,0E0],"parents":[2147483647,0,0,1,1,2,2,3,3,4,4,6,6],"right_children":[2,4,6,8,10,-1,12,-1,-1,-1,-1,-1,-1],"split_conditions":[1.284423E0,-1.46991415E-2,1.7183388E0,-1.2289507E0,-6.390606E-1,2.4030529E-1,-3.8946274E-1,-8.144206E-2,4.7734834E-2,-1.411142E-1,-3.7337348E-2,1.1457624E-1,-1.5409414E-1],"split_indices":[5,2,5,5,4,0,0,0,0,0,0,0,0],"split_type":[0,0,0,0,0,0,0,0,0,0,0,0,0],"sum_hessian":[2.2E2,1.98E2,2.2E1,9.7E1,1.01E2,1.1E1,1.1E1,1.3E1,8.4E1,2E1,8.1E1,6E0,5E0],"tree_param":{"num_deleted":"0","num_feature":"7","num_nodes":"13","size_leaf_vector":"1"}},{"base_weights":[3.412099E-1,-6.0387313E-2,1.8083372E0,-2.142877E0,2.0761059E-1,1.0521011E0,3.232594E-1,-2.1206363E-1,-2.6185352E-2,-1.3316251E-1,1.7662106E-2,8.2499914E-2,-1.2638246E-1],"categories":[],"categories_nodes":[],"categories_segments":[],"categories_sizes":[],"default_left":[0,0,0,0,0,0,0,0,0,0,0,0,0],"id":2,"left_children":[1,3,5,7,9,11,-1,-1,-1,-1,-1,-1,-1],"loss_changes":[1.2353557E2,9.294139E1,1.4791486E2,5.995186E1,6.0826607E1,8.9344666E1,0E0,0E0,0E0,0E0,0E0,0E0,0E0],"parents":[2147483647,0,0,1,1,2,2,3,3,4,4,5,5],"right_children":[2,4,6,8,10,12,-1,-1,-1,-1,-1,-1,-1],"split_conditions":[8.838854E-1,-1.2285545E0,1.2487221E0,2.6921916E-1,-1.8176618E0,2.1088629E0,3.232594E-1,-2.1206363E-1,-2.6185352E-2,-1.3316251E-1,1.7662106E-2,8.2499914E-2,-1.2638246E-1],"split_indices":[5,1,1,4,4,5,0,0,0,0,0,0,0],"split_type":[0,0,0,0,0,0,0,0,0,0,0,0,0],"sum_hessian":[2.07E2,1.63E2,4.4E1,1.8E1,1.45E2,3.9E1,5E0,7E0,1.1E1,6E0,1.39E2,3.4E1,5E0],"tree_param":{"num_deleted":"0","num_feature":"7","num_nodes":"13","size_leaf_vector":"1"}},{"base_weights":[1.9622594E-1,2.3688803E0,-5.5892196E-2,-3.8654838E-2,3.5527012E0,3.0501835E0,-2.7655756E-1,7.8827575E-2,2.1015255E-1,5.8094542E-2,2.4881049E-1,-2.0487447E-1,-6.1398665E-3],"categories":[],"categories_nodes":[],"categories_segments":[],"categories_sizes":[],"default_left":[0,0,0,0,0,0,0,0,0,0,0,0,0],"id":3,"left_children":[1,3,5,-1,7,9,11,-1,-1,-1,-1,-1,-1],"loss_changes":[1.2124956E2,8.9685776E1,1.3448119E2,0E0,1.2332077E1,3.8428864E1,1.0607556E2,0E0,0E0,0E0,0E0,0E0,0E0],"parents":[2147483647,0,0,1,1,2,2,4,4,5,5,6,6],"right_children":[2,4,6,-1,8,10,12,-1,-1,-1,-1,-1,-1],"split_conditions":[-1.2975903E0,-1.3691388E0,-1.651798E0,-3.8654838E-2,1.06174774E-1,-1.9420888E0,-1.806849E0,7.8827575E-2,2.1015255E-1,5.8094542E-2,2.4881049E-1,-2.0487447E-1,-6.1398665E-3],"split_indices":[2,5,3,0,5,3,4,0,0,0,0,0,0],"split_type":[0,0,0,0,0,0,0,0,0,0,0,0,0],"sum_hessian":[2.18E2,2.2E1,1.96E2,6E0,1.6E1,1.2E1,1.84E2,5E0,1.1E1,7E0,5E0,6E0,1.78E2],"tree_param":{"num_deleted":"0","num_feature":"7","num_nodes":"13","size_leaf_vector":"1"}},{"base_weights":[-1.6967727E-2,1.0629815E-1,-1.4255399E-1,-1.6401672E-1,4.2470675E0,-2.6259065E-2,4.9185287E-2,1.38242E-1,2.839615E-1],"categories":[],"categories_nodes":[],"categories_segments":[],"categories_sizes":[],"default_left":[0,0,0,0,0,0,0,0,0],"id":4,"left_children":[1,3,-1,5,7,-1,-1,-1,-1],"loss_changes":[8.377254E1,2.557025E2,0E0,8.8579414E1,9.794891E0,0E0,0E0,0E0,0E0],"parents":[2147483647,0,0,1,1,3,3,4,4],"right_children":[2,4,-1,6,8,-1,-1,-1,-1],"split_conditions":[1.8852295E0,1.3278146E0,-1.4255399E-1,6.9308305E-1,8.56818E-1,-2.6259065E-2,4.9185287E-2,1.38242E-1,2.839615E-1],"split_indices":[5,5,0,4,0,0,0,0,0],"split_type":[0,0,0,0,0,0,0,0,0],"sum_hessian":[2.34E2,2.25E2,9E0,2.12E2,1.3E1,1.62E2,5E1,8E0,5E0],"tree_param":{"num_deleted":"0","num_feature":"7","num_nodes":"9","size_leaf_vector":"1"}},{"base_weights":[-1.5346667E-2,1.7711821E-1,-2.624211E-1,-5.436555E-2,2.905833E0,-1.3056087E-2,1.005706E-1,2.1844862E-1,6.0033184E-3],"categories":[],"categories_nodes":[],"categories_segments":[],"categories_sizes":[],"default_left":[0,0,0,0,0,0,0,0,0],"id":5,"left_children":[1,3,-1,5,7,-1,-1,-1,-1],"loss_changes":[2.2705992E2,1.3738914E2,0E0,8.464543E1,6.652232E1,0E0,0E0,0E0,0E0],"parents":[2147483647,0,0,1,1,3,3,4,4],"right_children":[2,4,-1,6,8,-1,-1,-1,-1],"split_conditions":[1.9723375E0,1.6424516E0,-2.624211E-1,1.2730787E0,7.0103294E-1,-1.3056087E-2,1.005706E-1,2.1844862E-1,6.0033184E-3],"split_indices":[6,4,0,6,0,0,0,0,0],"split_type":[0,0,0,0,0,0,0,0,0],"sum_hessian":[2.21E2,2.14E2,7E0,1.98E2,1.6E1,1.81E2,1.7E1,1E1,6E0],"tree_param":{"num_deleted":"0","num_feature":"7","num_nodes":"9","size_leaf_vector":"1"}},{"base_weights":[7.246126E-2,1.9898802E-1,-2.1634474E-1,-1.7039973E-1,2.650336E0,1.7352082E-1,-1.895685E-2,1.8753727E-1,2.8163612E-2],"categories":[],"categories_nodes":[],"categories_segments":[],"categories_sizes":[],"default_left":[0,0,0,0,0,0,0,0,0],"id":6,"left_children":[1,3,-1,5,7,-1,-1,-1,-1],"loss_changes":[1.1958711E2,1.9365717E2,0E0,1.4036531E2,6.003575E1,0E0,0E0,0E0,0E0],"parents":[2147483647,0,0,1,1,3,3,4,4],"right_children":[2,4,-1,6,8,-1,-1,-1,-1],"split_conditions":[1.9723375E0,9.9036586E-1,-2.1634474E-1,-1.651798E0,3.591973E-1,1.7352082E-1,-1.895685E-2,1.8753727E-1,2.8163612E-2],"split_indices":[6,6,0,3,3,0,0,0,0],"split_type":[0,0,0,0,0,0,0,0,0],"sum_hessian":[2.16E2,2.11E2,5E0,1.84E2,2.7E1,9E0,1.75E2,1.7E1,1E1],"tree_param":{"num_deleted":"0","num_feature":"7","num_nodes":"9","size_leaf_vector":"1"}},{"base_weights":[-2.5585988E-1,-1.20820016E-1,-2.1381207E-1,-3.0645958E-1,2.5173495E0,-8.651112E-3,-1.3939053E-1,-5.053733E-2,2.3226319E-1],"categories":[],"categories_nodes":[],"categories_segments":[],"categories_sizes":[],"default_left":[0,0,0,0,0,0,0,0,0],"id":7,"left_children":[1,3,-1,5,7,-1,-1,-1,-1],"loss_changes":[1.16725395E2,1.0447223E2,0E0,6.458932E1,1.1161724E2,0E0,0E0,0E0,0E0],"parents":[2147483647,0,0,1,1,3,3,4,4],"right_children":[2,4,-1,6,8,-1,-1,-1,-1],"split_conditions":[1.9723375E0,1.3704839E0,-2.1381207E-1,1.8852295E0,2.7306545E-1,-8.651112E-3,-1.3939053E-1,-5.053733E-2,2.3226319E-1],"split_indices":[6,6,0,5,5,0,0,0,0],"split_type":[0,0,0,0,0,0,0,0,0],"sum_hessian":[2.19E2,2.13E2,6E0,2E2,1.3E1,1.91E2,9E0,5E0,8E0],"tree_param":{"num_deleted":"0","num_feature":"7","num_nodes":"9","size_leaf_vector":"1"}},{"base_weights":[1.6254468E-2,-4.8851663E-1,8.4917754E-1,-2.4444592E-1,-2.794256E-1,4.128955E-1,2.4126048E-1,3.267155E-2,-3.904801E-2,1.4899258E-3,1.6029866E-1],"categories":[],"categories_nodes":[],"categories_segments":[],"categories_sizes":[],"default_left":[0,0,0,0,0,0,0,0,0,0,0],"id":8,"left_children":[1,3,5,-1,7,9,-1,-1,-1,-1,-1],"loss_changes":[9.2250114E1,1.21181244E2,1.3936636E2,0E0,6.186371E1,7.960806E1,0E0,0E0,0E0,0E0,0E0],"parents":[2147483647,0,0,1,1,2,2,4,4,5,5],"right_children":[2,4,6,-1,8,10,-1,-1,-1,-1,-1],"split_conditions":[3.498352E-1,-1.6731039E0,1.4370074E0,-2.4444592E-1,-6.581846E-1,1.4799584E0,2.4126048E-1,3.267155E-2,-3.904801E-2,1.4899258E-3,1.6029866E-1],"split_indices":[5,3,4,0,5,0,0,0,0,0,0],"split_type":[0,0,0,0,0,0,0,0,0,0,0],"sum_hessian":[2.17E2,1.35E2,8.2E1,5E0,1.3E2,7.5E1,7E0,4.5E1,8.5E1,6.7E1,8E0],"tree_param":{"num_deleted":"0","num_feature":"7","num_nodes":"11","size_leaf_vector":"1"}},{"base_weights":[-7.759114E-2,-3.1196126E-1,1.6148765E0,2.1137893E-1,-8.4227574E-1,2.3818703E-1,5.168344E-1,-3.468232E-2,5.1146097E-2,6.1197188E-2,-5.9529137E-2,1.344512E-1,-5.776879E-2],"categories":[],"categories_nodes":[],"categories_segments":[],"categories_sizes":[],"default_left":[0,0,0,0,0,0,0,0,0,0,0,0,0],"id":9,"left_children":[1,3,5,7,9,-1,11,-1,-1,-1,-1,-1,-1],"loss_changes":[9.148167E1,5.71106E1,9.171003E1,7.652427E1,7.484776E1,0E0,8.3785515E1,0E0,0E0,0E0,0E0,0E0,0E0],"parents":[2147483647,0,0,1,1,2,2,3,3,4,4,6,6],"right_children":[2,4,6,8,10,-1,12,-1,-1,-1,-1,-1,-1],"split_conditions":[1.3148222E0,-4.5832604E-2,-1.2031411E0,-6.268859E-1,-8.951693E-1,2.3818703E-1,-3.1672907E-1,-3.468232E-2,5.1146097E-2,6.1197188E-2,-5.9529137E-2,1.344512E-1,-5.776879E-2],"split_indices":[4,2,3,2,5,0,2,0,0,0,0,0,0],"split_type":[0,0,0,0,0,0,0,0,0,0,0,0,0],"sum_hessian":[2.3E2,2.03E2,2.7E1,1.02E2,1.01E2,6E0,2.1E1,4.8E1,5.4E1,1.4E1,8.7E1,9E0,1.2E1],"tree_param":{"num_deleted":"0","num_feature":"7","num_nodes":"13","size_leaf_vector":"1"}},{"base_weights":[6.3422896E-2,2.0369832E-1,-2.667278E-1,-1.867054E-1,1.456887E0,2.2986433E-2,-3.6539804E-2,1.477207E-1,1.9314934E-2],"categories":[],"categories_nodes":[],"categories_segments":[],"categories_sizes":[],"default_left":[0,0,0,0,0,0,0,0,0],"id":10,"left_children":[1,3,-1,5,7,-1,-1,-1,-1],"loss_changes":[1.7949294E2,1.153915E2,0E0,6.3429153E1,8.6969505E1,0E0,0E0,0E0,0E0],"parents":[2147483647,0,0,1,1,3,3,4,4],"right_children":[2,4,-1,6,8,-1,-1,-1,-1],"split_conditions":[1.9723375E0,5.4689485E-1,-2.667278E-1,-3.0837077E-1,-3.574617E-1,2.2986433E-2,-3.6539804E-2,1.477207E-1,1.9314934E-2],"split_indices":[6,6,0,6,2,0,0,0,0],"split_type":[0,0,0,0,0,0,0,0,0],"sum_hessian":[2.38E2,2.33E2,5E0,1.78E2,5.5E1,8.1E1,9.7E1,2.2E1,3.3E1],"tree_param":{"num_deleted":"0","num_feature":"7","num_nodes":"9","size_leaf_vector":"1"}},{"base_weights":[-6.6525035E-2,6.1643027E-2,-1.750571E-1,-1.7363213E-1,2.4746149E0,1.5001617E-1,-1.5595051E-2,1.7331812E-1,1.0392646E-2],"categories":[],"categories_nodes":[],"categories_segments":[],"categories_sizes":[],"default_left":[0,0,0,0,0,0,0,0,0],"id":11,"left_children":[1,3,-1,5,7,-1,-1,-1,-1],"loss_changes":[9.7900955E1,1.2136746E2,0E0,8.429144E1,4.015544E1,0E0,0E0,0E0,0E0],"parents":[2147483647,0,0,1,1,3,3,4,4],"right_children":[2,4,-1,6,8,-1,-1,-1,-1],"split_conditions":[1.7981167E0,1.2730787E0,-1.750571E-1,-1.9119937E0,-1.749549E-1,1.5001617E-1,-1.5595051E-2,1.7331812E-1,1.0392646E-2],"split_indices":[6,6,0,6,3,0,0,0,0],"split_type":[0,0,0,0,0,0,0,0,0],"sum_hessian":[2.17E2,2.1E2,7E0,1.92E2,1.8E1,7E0,1.85E2,1.2E1,6E0],"tree_param":{"num_deleted":"0","num_feature":"7","num_nodes":"9","size_leaf_vector":"1"}},{"base_weights":[-1.8455832E-1,-5.0859474E-2,-1.9915652E-1,8.4071684E-1,-5.579266E-1,-0E0,1.4149822E-1,-2.4668562E-1,-1.705798E-2],"categories":[],"categories_nodes":[],"categories_segments":[],"categories_sizes":[],"default_left":[0,0,0,0,0,0,0,0,0],"id":12,"left_children":[1,3,-1,5,7,-1,-1,-1,-1],"loss_changes":[1.04432014E2,9.2553825E1,0E0,1.238878E2,1.1993628E2,0E0,0E0,0E0,0E0],"parents":[2147483647,0,0,1,1,3,3,4,4],"right_children":[2,4,-1,6,8,-1,-1,-1,-1],"split_conditions":[1.9723375E0,-3.4617433E-1,-1.9915652E-1,3.766336E-1,-1.5264235E0,-0E0,1.4149822E-1,-2.4668562E-1,-1.705798E-2],"split_indices":[6,2,0,6,1,0,0,0,0],"split_type":[0,0,0,0,0,0,0,0,0],"sum_hessian":[2.09E2,2.03E2,6E0,7.3E1,1.3E2,5.2E1,2.1E1,5E0,1.25E2],"tree_param":{"num_deleted":"0","num_feature":"7","num_nodes":"9","size_leaf_vector":"1"}},{"base_weights":[-6.75924E-2,7.1679324E-2,-1.6981302E-1,-1.5239073E-1,2.6802707E0,-2.398158E-2,3.6507897E-2,3.9622836E-2,1.7962456E-1],"categories":[],"categories_nodes":[],"categories_segments":[],"categories_sizes":[],"default_left":[0,0,0,0,0,0,0,0,0],"id":13,"left_children":[1,3,-1,5,7,-1,-1,-1,-1],"loss_changes":[1.0389539E2,1.2558791E2,0E0,5.6830917E1,2.423639E1,0E0,0E0,0E0,0E0],"parents":[2147483647,0,0,1,1,3,3,4,4],"right_children":[2,4,-1,6,8,-1,-1,-1,-1],"split_conditions":[1.7981167E0,1.2730787E0,-1.6981302E-1,4.3454698E-1,-1.0382494E0,-2.398158E-2,3.6507897E-2,3.9622836E-2,1.7962456E-1],"split_indices":[6,6,0,1,1,0,0,0,0],"split_type":[0,0,0,0,0,0,0,0,0],"sum_hessian":[2.19E2,2.11E2,8E0,1.95E2,1.6E1,1.43E2,5.2E1,6E0,1E1],"tree_param":{"num_deleted":"0","num_feature":"7","num_nodes":"9","size_leaf_vector":"1"}},{"base_weights":[1.23651855E-1,2.1951622E-1,-1.6004156E-1,-1.4583053E-2,2.1655748E0,-2.055212E-2,4.9112987E-2,5.466879E-2,1.828199E-1],"categories":[],"categories_nodes":[],"categories_segments":[],"categories_sizes":[],"default_left":[0,0,0,0,0,0,0,0,0],"id":14,"left_children":[1,3,-1,5,7,-1,-1,-1,-1],"loss_changes":[6.836975E1,9.76881E1,0E0,7.520759E1,3.0391861E1,0E0,0E0,0E0,0E0],"parents":[2147483647,0,0,1,1,3,3,4,4],"right_children":[2,4,-1,6,8,-1,-1,-1,-1],"split_conditions":[1.9723375E0,1.2619606E0,-1.6004156E-1,5.7448107E-1,5.128426E-1,-2.055212E-2,4.9112987E-2,5.466879E-2,1.828199E-1],"split_indices":[6,1,0,2,6,0,0,0,0],"split_type":[0,0,0,0,0,0,0,0,0],"sum_hessian":[2.16E2,2.11E2,5E0,1.89E2,2.2E1,1.36E2,5.3E1,1.4E1,8E0],"tree_param":{"num_deleted":"0","num_feature":"7","num_nodes":"9","size_leaf_vector":"1"}},{"base_weights":[-5.6145146E-2,1.5486151E-1,-1.6761783E-1,-6.946423E-1,3.8266665E-1,-1.3051362E-1,-1.9340103E-2,7.482648E-2,-1.6377589E-2],"categories":[],"categories_nodes":[],"categories_segments":[],"categories_sizes":[],"default_left":[0,0,0,0,0,0,0,0,0],"id":15,"left_children":[1,-1,3,5,7,-1,-1,-1,-1],"loss_changes":[7.216952E1,0E0,5.900451E1,5.882143E1,7.93922E1,0E0,0E0,0E0,0E0],"parents":[2147483647,0,0,2,2,3,3,4,4],"right_children":[2,-1,4,6,8,-1,-1,-1,-1],"split_conditions":[-1.8491148E0,1.5486151E-1,3.242394E-2,-9.880812E-1,-2.3157933E-1,-1.3051362E-1,-1.9340103E-2,7.482648E-2,-1.6377589E-2],"split_indices":[1,0,1,2,3,0,0,0,0],"split_type":[0,0,0,0,0,0,0,0,0],"sum_hessian":[2.07E2,6E0,2.01E2,1.03E2,9.8E1,1.3E1,9E1,3.8E1,6E1],"tree_param":{"num_deleted":"0","num_feature":"7","num_nodes":"9","size_leaf_vector":"1"}},{"base_weights":[-2.4765314E-1,-1.0351602E-1,-1.887821E-1,1.2126707E0,-4.309478E-1,1.1640739E-1,3.4377952E-3,-6.3526E-2,-7.5173783E-3],"categories":[],"categories_nodes":[],"categories_segments":[],"categories_sizes":[],"default_left":[0,0,0,0,0,0,0,0,0],"id":16,"left_children":[1,3,-1,5,7,-1,-1,-1,-1],"loss_changes":[1.0344054E2,8.675497E1,0E0,4.968189E1,3.726318E1,0E0,0E0,0E0,0E0],"parents":[2147483647,0,0,1,1,3,3,4,4],"right_children":[2,4,-1,6,8,-1,-1,-1,-1],"split_conditions":[1.9723375E0,-9.39124E-1,-1.887821E-1,-4.87343E-1,-4.754643E-1,1.1640739E-1,3.4377952E-3,-6.3526E-2,-7.5173783E-3],"split_indices":[6,3,0,6,6,0,0,0,0],"split_type":[0,0,0,0,0,0,0,0,0],"sum_hessian":[2.07E2,2E2,7E0,3.9E1,1.61E2,1.9E1,2E1,3.9E1,1.22E2],"tree_param":{"num_deleted":"0","num_feature":"7","num_nodes":"9","size_leaf_vector":"1"}},{"base_weights":[-1.9059868E-1,-3.6951905E-1,1.8258159E-1,-7.12213E-1,5.292227E-1,-1.5133579E-2,-9.70653E-2,7.53636E-2,-3.7863E-3],"categories":[],"categories_nodes":[],"categories_segments":[],"categories_sizes":[],"default_left":[0,0,0,0,0,0,0,0,0],"id":17,"left_children":[1,3,-1,5,7,-1,-1,-1,-1],"loss_changes":[1.392613E2,6.0527115E1,0E0,6.976818E1,3.278007E1,0E0,0E0,0E0,0E0],"parents":[2147483647,0,0,1,1,3,3,4,4],"right_children":[2,4,-1,6,8,-1,-1,-1,-1],"split_conditions":[2.0857787E0,5.4689485E-1,1.8258159E-1,1.802393E-1,-7.789254E-2,-1.5133579E-2,-9.70653E-2,7.53636E-2,-3.7863E-3],"split_indices":[4,6,0,6,0,0,0,0,0],"split_type":[0,0,0,0,0,0,0,0,0],"sum_hessian":[2.02E2,1.94E2,8E0,1.41E2,5.3E1,1.07E2,3.4E1,2E1,3.3E1],"tree_param":{"num_deleted":"0","num_feature":"7","num_nodes":"9","size_leaf_vector":"1"}},{"base_weights":[-2.8935525E-1,-1.21857435E-1,-2.2937517E-1,-4.5630085E-1,8.6802787E-1,-1.3284914E-2,-1.3557453E-1,4.1187294E-3,8.307498E-2],"categories":[],"categories_nodes":[],"categories_segments":[],"categories_sizes":[],"default_left":[0,0,0,0,0,0,0,0,0],"id":18,"left_children":[1,3,-1,5,7,-1,-1,-1,-1],"loss_changes":[1.533112E2,6.971295E1,0E0,6.570648E1,3.2031055E1,0E0,0E0,0E0,0E0],"parents":[2147483647,0,0,1,1,3,3,4,4],"right_children":[2,4,-1,6,8,-1,-1,-1,-1],"split_conditions":[1.7981167E0,5.4689485E-1,-2.2937517E-1,4.5186532E-1,3.498352E-1,-1.3284914E-2,-1.3557453E-1,4.1187294E-3,8.307498E-2],"split_indices":[6,6,0,6,5,0,0,0,0],"split_type":[0,0,0,0,0,0,0,0,0],"sum_hessian":[2.16E2,2.09E2,7E0,1.57E2,5.2E1,1.46E2,1.1E1,2.7E1,2.5E1],"tree_param":{"num_deleted":"0","num_feature":"7","num_nodes":"9","size_leaf_vector":"1"}},{"base_weights":[2.4921317E-1,1.2754141E-1,1.7051406E-1,-1.8472412E0,2.3585056E-1,-1.2991408E-1,-3.5249706E-2,1.4493294E-1,6.199047E-3],"categories":[],"categories_nodes":[],"categories_segments":[],"categories_sizes":[],"default_left":[0,0,0,0,0,0,0,0,0],"id":19,"left_children":[1,3,-1,5,7,-1,-1,-1,-1],"loss_changes":[8.279554E1,4.54018E1,0E0,5.9531975E0,5.8898327E1,0E0,0E0,0E0,0E0],"parents":[2147483647,0,0,1,1,3,3,4,4],"right_children":[2,4,-1,6,8,-1,-1,-1,-1],"split_conditions":[2.147412E0,-1.7127771E0,1.7051406E-1,-1.0006446E0,-1.3743348E0,-1.2991408E-1,-3.5249706E-2,1.4493294E-1,6.199047E-3],"split_indices":[4,4,0,2,4,0,0,0,0],"split_type":[0,0,0,0,0,0,0,0,0],"sum_hessian":[2.2E2,2.13E2,7E0,1E1,2.03E2,5E0,5E0,7E0,1.96E2],"tree_param":{"num_deleted":"0","num_feature":"7","num_nodes":"9","size_leaf_vector":"1"}},{"base_weights":[-1.3068654E-1,-1.4674348E-2,-1.2345351E-1,-1.6456425E-1,1.3127987E-1,-2.345816E-2,4.6280395E-2],"categories":[],"categories_nodes":[],"categories_segments":[],"categories_sizes":[],"default_left":[0,0,0,0,0,0,0],"id":20,"left_children":[1,3,-1,5,-1,-1,-1],"loss_changes":[5.73186E1,8.112183E1,0E0,6.562291E1,0E0,0E0,0E0],"parents":[2147483647,0,0,1,1,3,3],"right_children":[2,4,-1,6,-1,-1,-1],"split_conditions":[1.8852295E0,1.3278146E0,-1.2345351E-1,6.9308305E-1,1.3127987E-1,-2.345816E-2,4.6280395E-2],"split_indices":[5,5,0,4,0,0,0],"split_type":[0,0,0,0,0,0,0],"sum_hessian":[2.15E2,2.06E2,9E0,1.96E2,1E1,1.54E2,4.2E1],"tree_param":{"num_deleted":"0","num_feature":"7","num_nodes":"7","size_leaf_vector":"1"}},{"base_weights":[-1.6798803E-1,5.828137E-2,-1.9551225E-1,-1.14406876E-1,2.5497463E0,3.926128E-2,-3.5612486E-2,1.8990539E-1,4.3285344E-2],"categories":[],"categories_nodes":[],"categories_segments":[],"categories_sizes":[],"default_left":[0,0,0,0,0,0,0,0,0],"id":21,"left_children":[1,3,-1,5,7,-1,-1,-1,-1],"loss_changes":[1.7827959E2,8.626798E1,0E0,1.0002297E2,2.1709816E1,0E0,0E0,0E0,0E0],"parents":[2147483647,0,0,1,1,3,3,4,4],"right_children":[2,4,-1,6,8,-1,-1,-1,-1],"split_conditions":[1.6397343E0,1.2730787E0,-1.9551225E-1,-3.0837077E-1,-2.1268913E-1,3.926128E-2,-3.5612486E-2,1.8990539E-1,4.3285344E-2],"split_indices":[6,6,0,6,2,0,0,0,0],"split_type":[0,0,0,0,0,0,0,0,0],"sum_hessian":[2.07E2,1.96E2,1.1E1,1.84E2,1.2E1,7.3E1,1.11E2,6E0,6E0],"tree_param":{"num_deleted":"0","num_feature":"7","num_nodes":"9","size_leaf_vector":"1"}},{"base_weights":[9.4964206E-2,-1.310483E-1,2.1558754E-1,-1.4741299E-1,1.2239602E0,6.1957925E-3,-1.1693921E-1,1.32917045E-2,1.3131694E-1],"categories":[],"categories_nodes":[],"categories_segments":[],"categories_sizes":[],"default_left":[0,0,0,0,0,0,0,0,0],"id":22,"left_children":[1,-1,3,5,7,-1,-1,-1,-1],"loss_changes":[6.9469734E1,0E0,7.61229E1,9.1773735E1,7.175679E1,0E0,0E0,0E0,0E0],"parents":[2147483647,0,0,2,2,3,3,4,4],"right_children":[2,-1,4,6,8,-1,-1,-1,-1],"split_conditions":[-1.7863656E0,-1.310483E-1,6.0982406E-1,3.773477E-1,1.0342378E-1,6.1957925E-3,-1.1693921E-1,1.32917045E-2,1.3131694E-1],"split_indices":[5,0,4,4,6,0,0,0,0],"split_type":[0,0,0,0,0,0,0,0,0],"sum_hessian":[2.13E2,8E0,2.05E2,1.51E2,5.4E1,1.35E2,1.6E1,3.3E1,2.1E1],"tree_param":{"num_deleted":"0","num_feature":"7","num_nodes":"9","size_leaf_vector":"1"}},{"base_weights":[1.7282504E-1,4.5820218E-1,-6.425202E-1,6.478977E-1,-2.1937351E0,5.988602E-1,-1.9674805E0,1.5534296E-2,8.107267E-2,-1.7033744E-1,-2.6588282E-2,-5.9787948E-2,9.447409E-2,-6.3882925E-2,-1.8914978E-1],"categories":[],"categories_nodes":[],"categories_segments":[],"categories_sizes":[],"default_left":[0,0,0,0,0,0,0,0,0,0,0,0,0,0,0],"id":23,"left_children":[1,3,5,7,9,11,13,-1,-1,-1,-1,-1,-1,-1,-1],"loss_changes":[5.1392044E1,8.3150345E1,9.5615005E1,4.9087517E1,1.8395058E1,7.209145E1,2.7703018E1,0E0,0E0,0E0,0E0,0E0,0E0,0E0,0E0],"parents":[2147483647,0,0,1,1,2,2,3,3,4,4,5,5,6,6],"right_children":[2,4,6,8,10,12,14,-1,-1,-1,-1,-1,-1,-1,-1],"split_conditions":[6.781095E-1,1.6634916E0,-3.8543472E-1,5.4689485E-1,1.8852271E0,1.308825E0,4.3995616E-1,1.5534296E-2,8.107267E-2,-1.7033744E-1,-2.6588282E-2,-5.9787948E-2,9.447409E-2,-6.3882925E-2,-1.8914978E-1],"split_indices":[3,6,2,6,6,3,5,0,0,0,0,0,0,0,0],"split_type":[0,0,0,0,0,0,0,0,0,0,0,0,0,0,0],"sum_hessian":[2.19E2,1.63E2,5.6E1,1.53E2,1E1,2.9E1,2.7E1,1.15E2,3.8E1,5E0,5E0,1.2E1,1.7E1,2.1E1,6E0],"tree_param":{"num_deleted":"0","num_feature":"7","num_nodes":"15","size_leaf_vector":"1"}},{"base_weights":[-8.025176E-2,4.393838E-1,-5.31832E-1,-1.20519005E-1,1.9761773E0,2.6631428E-2,-1.424666E0,-2.7615026E-2,7.906541E-2,1.5835315E-1,2.058017E-2,-7.7590756E-2,3.3659212E-2,-1.1102169E-1,-0E0],"categories":[],"categories_nodes":[],"categories_segments":[],"categories_sizes":[],"default_left":[0,0,0,0,0,0,0,0,0,0,0,0,0,0,0],"id":24,"left_children":[1,3,5,7,9,11,13,-1,-1,-1,-1,-1,-1,-1,-1],"loss_changes":[5.0731194E1,8.7211494E1,5.8576324E1,5.473535E1,4.7214264E1,7.408487E1,5.164415E1,0E0,0E0,0E0,0E0,0E0,0E0,0E0,0E0],"parents":[2147483647,0,0,1,1,2,2,3,3,4,4,5,5,6,6],"right_children":[2,4,6,8,10,12,14,-1,-1,-1,-1,-1,-1,-1,-1],"split_conditions":[-6.5872826E-2,7.6661044E-1,6.1612345E-2,1.1683881E0,1.4424139E0,2.577128E-1,4.0641493E-1,-2.7615026E-2,7.906541E-2,1.5835315E-1,2.058017E-2,-7.7590756E-2,3.3659212E-2,-1.1102169E-1,-0E0],"split_indices":[3,4,4,0,4,3,1,0,0,0,0,0,0,0,0],"split_type":[0,0,0,0,0,0,0,0,0,0,0,0,0,0,0],"sum_hessian":[2.14E2,9.9E1,1.15E2,7.3E1,2.6E1,7.1E1,4.4E1,5.9E1,1.4E1,1.4E1,1.2E1,2E1,5.1E1,2.8E1,1.6E1],"tree_param":{"num_deleted":"0","num_feature":"7","num_nodes":"15","size_leaf_vector":"1"}},{"base_weights":[-1.1163192E-1,-3.8568105E-5,-1.9949281E-1,-3.321682E-1,1.058183E0,-2.3519539E-3,-8.48772E-2,7.353648E-2,-4.874466E-2],"categories":[],"categories_nodes":[],"categories_segments":[],"categories_sizes":[],"default_left":[0,0,0,0,0,0,0,0,0],"id":25,"left_children":[1,3,-1,5,7,-1,-1,-1,-1],"loss_changes":[9.27846E1,7.520237E1,0E0,6.289444E1,4.4457394E1,0E0,0E0,0E0,0E0],"parents":[2147483647,0,0,1,1,3,3,4,4],"right_children":[2,4,-1,6,8,-1,-1,-1,-1],"split_conditions":[1.9723375E0,5.199698E-1,-1.9949281E-1,1.802393E-1,1.1084219E0,-2.3519539E-3,-8.48772E-2,7.353648E-2,-4.874466E-2],"split_indices":[6,6,0,6,2,0,0,0,0],"split_type":[0,0,0,0,0,0,0,0,0],"sum_hessian":[2.18E2,2.13E2,5E0,1.63E2,5E1,1.36E2,2.7E1,4.2E1,8E0],"tree_param":{"num_deleted":"0","num_feature":"7","num_nodes":"9","size_leaf_vector":"1"}},{"base_weights":[1.1196486E-1,2.4401902E-1,-1.6199628E-1,-1.3019036E-1,1.1870524E0,2.23637E-2,-2.9072015E-2,2.1061948E-2,1.3754025E-1],"categories":[],"categories_nodes":[],"categories_segments":[],"categories_sizes":[],"default_left":[0,0,0,0,0,0,0,0,0],"id":26,"left_children":[1,3,-1,5,7,-1,-1,-1,-1],"loss_changes":[9.357306E1,7.3378716E1,0E0,3.8893097E1,6.791024E1,0E0,0E0,0E0,0E0],"parents":[2147483647,0,0,1,1,3,3,4,4],"right_children":[2,4,-1,6,8,-1,-1,-1,-1],"split_conditions":[1.7981167E0,4.3454698E-1,-1.6199628E-1,-1.98948E-1,6.4187145E-1,2.23637E-2,-2.9072015E-2,2.1061948E-2,1.3754025E-1],"split_indices":[6,1,0,2,2,0,0,0,0],"split_type":[0,0,0,0,0,0,0,0,0],"sum_hessian":[2.12E2,2.05E2,7E0,1.47E2,5.8E1,6.4E1,8.3E1,4E1,1.8E1],"tree_param":{"num_deleted":"0","num_feature":"7","num_nodes":"9","size_leaf_vector":"1"}},{"base_weights":[-2.8989163E-1,3.2893738E-1,-6.449375E-1,-2.4617258E-1,1.5058063E0,-4.494269E-1,-2.1863418E0,7.841993E-2,-4.425327E-2,2.7594898E-2,1.2627773E-1,-3.8172834E-2,5.663487E-2,-3.3260927E-2,-1.9878058E-1],"categories":[],"categories_nodes":[],"categories_segments":[],"categories_sizes":[],"default_left":[0,0,0,0,0,0,0,0,0,0,0,0,0,0,0],"id":27,"left_children":[1,3,5,7,9,11,13,-1,-1,-1,-1,-1,-1,-1,-1],"loss_changes":[5.090406E1,5.785415E1,4.199957E1,6.712751E1,2.4304329E1,6.626225E1,3.858213E1,0E0,0E0,0E0,0E0,0E0,0E0,0E0,0E0],"parents":[2147483647,0,0,1,1,2,2,3,3,4,4,5,5,6,6],"right_children":[2,4,6,8,10,12,14,-1,-1,-1,-1,-1,-1,-1,-1],"split_conditions":[-3.4617433E-1,-6.494606E-1,1.4424139E0,-1.0234678E0,8.56818E-1,6.0982406E-1,3.8946274E-1,7.841993E-2,-4.425327E-2,2.7594898E-2,1.2627773E-1,-3.8172834E-2,5.663487E-2,-3.3260927E-2,-1.9878058E-1],"split_indices":[2,2,4,6,0,4,0,0,0,0,0,0,0,0,0],"split_type":[0,0,0,0,0,0,0,0,0,0,0,0,0,0,0],"sum_hessian":[2.29E2,8.3E1,1.46E2,5.6E1,2.7E1,1.31E2,1.5E1,1.4E1,4.2E1,1.5E1,1.2E1,1.1E2,2.1E1,9E0,6E0],"tree_param":{"num_deleted":"0","num_feature":"7","num_nodes":"15","size_leaf_vector":"1"}},{"base_weights":[4.974532E-1,2.6276866E-1,2.6626954E0,-4.9415022E-2,1.4353893E0,3.811932E0,4.836711E-2,6.4374204E-3,-1.5245374E-1,-8.838701E-3,1.4658774E-1,1.1808246E-1,2.3926368E-1],"categories":[],"categories_nodes":[],"categories_segments":[],"categories_sizes":[],"default_left":[0,0,0,0,0,0,0,0,0,0,0,0,0],"id":28,"left_children":[1,3,5,7,9,11,-1,-1,-1,-1,-1,-1,-1],"loss_changes":[1.08614044E2,7.3246376E1,3.4838547E1,8.575818E1,1.03215935E2,2.0648346E0,0E0,0E0,0E0,0E0,0E0,0E0,0E0],"parents":[2147483647,0,0,1,1,2,2,3,3,4,4,5,5],"right_children":[2,4,6,8,10,12,-1,-1,-1,-1,-1,-1,-1],"split_conditions":[1.3278146E0,8.08226E-1,1.7183388E0,1.050776E0,-5.0702468E-2,8.56818E-1,4.836711E-2,6.4374204E-3,-1.5245374E-1,-8.838701E-3,1.4658774E-1,1.1808246E-1,2.3926368E-1],"split_indices":[5,6,5,5,5,0,0,0,0,0,0,0,0],"split_type":[0,0,0,0,0,0,0,0,0,0,0,0,0],"sum_hessian":[2.17E2,1.97E2,2E1,1.56E2,4.1E1,1.1E1,9E0,1.48E2,8E0,2E1,2.1E1,6E0,5E0],"tree_param":{"num_deleted":"0","num_feature":"7","num_nodes":"13","size_leaf_vector":"1"}},{"base_weights":[-1.6996472E-1,-1.6208503E-1,-6.872218E-2,4.5132628E-1,-7.086933E-1,1.3119108E-2,1.5124321E-1,-8.3106674E-2,2.0754967E-2],"categories":[],"categories_nodes":[],"categories_segments":[],"categories_sizes":[],"default_left":[0,0,0,0,0,0,0,0,0],"id":29,"left_children":[1,-1,3,5,7,-1,-1,-1,-1],"loss_changes":[6.8094826E1,0E0,7.333524E1,5.639954E1,1.0738891E2,0E0,0E0,0E0,0E0],"parents":[2147483647,0,0,2,2,3,3,4,4],"right_children":[2,-1,4,6,8,-1,-1,-1,-1],"split_conditions":[-1.806849E0,-1.6208503E-1,2.0523496E-2,-9.084891E-2,7.774233E-1,1.3119108E-2,1.5124321E-1,-8.3106674E-2,2.0754967E-2],"split_indices":[4,0,4,4,4,0,0,0,0],"split_type":[0,0,0,0,0,0,0,0,0],"sum_hessian":[2.24E2,6E0,2.18E2,1.2E2,9.8E1,1.13E2,7E0,5.3E1,4.5E1],"tree_param":{"num_deleted":"0","num_feature":"7","num_nodes":"9","size_leaf_vector":"1"}},{"base_weights":[-1.00766994E-1,8.141115E-1,-2.964798E-1,2.94155E-1,1.464523E-1,-1.9356552E-1,-9.626042E-2,3.47741E-2,-7.053105E-2,-1.856218E-2,1.0379534E-1],"categories":[],"categories_nodes":[],"categories_segments":[],"categories_sizes":[],"default_left":[0,0,0,0,0,0,0,0,0,0,0],"id":30,"left_children":[1,3,5,7,-1,9,-1,-1,-1,-1,-1],"loss_changes":[3.7762825E1,3.821473E1,2.7901356E1,2.183284E1,0E0,6.685542E1,0E0,0E0,0E0,0E0,0E0],"parents":[2147483647,0,0,1,1,2,2,3,3,5,5],"right_children":[2,4,6,8,-1,10,-1,-1,-1,-1,-1],"split_conditions":[-1.012603E0,1.284423E0,1.7183388E0,5.6829655E-1,1.464523E-1,1.284423E0,-9.626042E-2,3.47741E-2,-7.053105E-2,-1.856218E-2,1.0379534E-1],"split_indices":[0,5,5,3,0,5,0,0,0,0,0],"split_type":[0,0,0,0,0,0,0,0,0,0,0],"sum_hessian":[2.1E2,3.6E1,1.74E2,3E1,6E0,1.65E2,9E0,2.5E1,5E0,1.54E2,1.1E1],"tree_param":{"num_deleted":"0","num_feature":"7","num_nodes":"11","size_leaf_vector":"1"}},{"base_weights":[-1.00847185E-1,1.2356514E0,-2.3177421E-1,-1.5676847E-2,2.2071393E0,-3.5048568E-1,1.5859011E0,-0E0,1.8989418E-1,1.4259033E-3,-4.8590448E-2,1.7536353E-1,-4.1834008E-2],"categories":[],"categories_nodes":[],"categories_segments":[],"categories_sizes":[],"default_left":[0,0,0,0,0,0,0,0,0,0,0,0,0],"id":31,"left_children":[1,3,5,-1,7,9,11,-1,-1,-1,-1,-1,-1],"loss_changes":[3.7405964E1,3.0234158E1,4.2446568E1,0E0,4.2509865E1,4.4299343E1,6.0125847E1,0E0,0E0,0E0,0E0,0E0,0E0],"parents":[2147483647,0,0,1,1,2,2,4,4,5,5,6,6],"right_children":[2,4,6,-1,8,10,12,-1,-1,-1,-1,-1,-1],"split_conditions":[-1.6102178E0,-5.452478E-1,1.7938317E0,-1.5676847E-2,-1.9420888E0,6.9181345E-2,7.0103294E-1,-0E0,1.8989418E-1,1.4259033E-3,-4.8590448E-2,1.7536353E-1,-4.1834008E-2],"split_indices":[3,0,4,0,3,4,0,0,0,0,0,0,0],"split_type":[0,0,0,0,0,0,0,0,0,0,0,0,0],"sum_hessian":[2.14E2,1.8E1,1.96E2,7E0,1.1E1,1.85E2,1.1E1,5E0,6E0,1.15E2,7E1,6E0,5E0],"tree_param":{"num_deleted":"0","num_feature":"7","num_nodes":"13","size_leaf_vector":"1"}},{"base_weights":[7.5968206E-2,-1.2087896E-1,1.9730556E-1,-2.7281058E-1,6.886174E-1,-5.2138157E-3,-1.5045457E-1,1.3785506E-2,1.4426595E-1],"categories":[],"categories_nodes":[],"categories_segments":[],"categories_sizes":[],"default_left":[0,0,0,0,0,0,0,0,0],"id":32,"left_children":[1,-1,3,5,7,-1,-1,-1,-1],"loss_changes":[6.5325035E1,0E0,4.8669254E1,4.747334E1,9.104848E1,0E0,0E0,0E0,0E0],"parents":[2147483647,0,0,2,2,3,3,4,4],"right_children":[2,-1,4,6,8,-1,-1,-1,-1],"split_conditions":[-1.806849E0,-1.2087896E-1,3.0769112E-2,1.6857032E0,1.4370074E0,-5.2138157E-3,-1.5045457E-1,1.3785506E-2,1.4426595E-1],"split_indices":[4,0,1,4,4,0,0,0,0],"split_type":[0,0,0,0,0,0,0,0,0],"sum_hessian":[2.17E2,9E0,2.08E2,1.06E2,1.02E2,1.01E2,5E0,8.7E1,1.5E1],"tree_param":{"num_deleted":"0","num_feature":"7","num_nodes":"9","size_leaf_vector":"1"}},{"base_weights":[3.83577E-1,1.01401806E-1,1.1941689E0,5.020263E-1,-9.263312E-1,2.1150672E0,3.1014424E-2,-9.39427E-2,3.4752622E-2,-8.973142E-2,1.8785156E-2,2.1210921E-1,7.07436E-2,1.097963E-1,-3.516277E-2],"categories":[],"categories_nodes":[],"categories_segments":[],"categories_sizes":[],"default_left":[0,0,0,0,0,0,0,0,0,0,0,0,0,0,0],"id":33,"left_children":[1,3,5,7,9,11,13,-1,-1,-1,-1,-1,-1,-1,-1],"loss_changes":[4.932276E1,6.7777435E1,5.8845596E1,5.540307E1,5.3389133E1,3.7340637E1,4.3620987E1,0E0,0E0,0E0,0E0,0E0,0E0,0E0,0E0],"parents":[2147483647,0,0,1,1,2,2,3,3,4,4,5,5,6,6],"right_children":[2,4,6,8,10,12,14,-1,-1,-1,-1,-1,-1,-1,-1],"split_conditions":[6.9308305E-1,3.890535E-2,5.452478E-1,-1.7127771E0,5.452478E-1,-9.852903E-1,9.2880327E-1,-9.39427E-2,3.4752622E-2,-8.973142E-2,1.8785156E-2,2.1210921E-1,7.07436E-2,1.097963E-1,-3.516277E-2],"split_indices":[4,4,0,4,0,5,4,0,0,0,0,0,0,0,0],"split_type":[0,0,0,0,0,0,0,0,0,0,0,0,0,0,0],"sum_hessian":[2.18E2,1.63E2,5.5E1,1.18E2,4.5E1,3E1,2.5E1,8E0,1.1E2,2.7E1,1.8E1,6E0,2.4E1,6E0,1.9E1],"tree_param":{"num_deleted":"0","num_feature":"7","num_nodes":"15","size_leaf_vector":"1"}},{"base_weights":[-7.945398E-2,2.467216E-2,-1.4001273E-1,-6.1834384E-2,1.4937225E-1,-3.6900215E-2,1.013867E-2],"categories":[],"categories_nodes":[],"categories_segments":[],"categories_sizes":[],"default_left":[0,0,0,0,0,0,0],"id":34,"left_children":[1,3,-1,5,-1,-1,-1],"loss_changes":[6.1517857E1,5.4188873E1,0E0,3.620122E1,0E0,0E0,0E0],"parents":[2147483647,0,0,1,1,3,3],"right_children":[2,4,-1,6,-1,-1,-1],"split_conditions":[1.9723375E0,1.7030872E0,-1.4001273E-1,-5.5481505E-1,1.4937225E-1,-3.6900215E-2,1.013867E-2],"split_indices":[6,6,0,3,0,0,0],"split_type":[0,0,0,0,0,0,0],"sum_hessian":[2.11E2,2.04E2,7E0,1.99E2,5E0,5.6E1,1.43E2],"tree_param":{"num_deleted":"0","num_feature":"7","num_nodes":"7","size_leaf_vector":"1"}},{"base_weights":[1.2543823E-1,-4.1040186E-2,1.8712703E0,8.1268233E-1,-3.3256105E-1,1.7447142E-1,7.9926726E-4,-9.4858825E-2,6.183449E-2,-1.1306723E-2,-1.3651507E-1],"categories":[],"categories_nodes":[],"categories_segments":[],"categories_sizes":[],"default_left":[0,0,0,0,0,0,0,0,0,0,0],"id":35,"left_children":[1,3,5,7,9,-1,-1,-1,-1,-1,-1],"loss_changes":[6.3480232E1,4.9059155E1,5.5232254E1,5.946599E1,3.5671497E1,0E0,0E0,0E0,0E0,0E0,0E0],"parents":[2147483647,0,0,1,1,2,2,3,3,4,4],"right_children":[2,4,6,8,10,-1,-1,-1,-1,-1,-1],"split_conditions":[1.3278146E0,-7.015761E-1,-3.352958E-1,-1.4527713E0,1.7981167E0,1.7447142E-1,7.9926726E-4,-9.4858825E-2,6.183449E-2,-1.1306723E-2,-1.3651507E-1],"split_indices":[5,5,6,3,6,0,0,0,0,0,0],"split_type":[0,0,0,0,0,0,0,0,0,0,0],"sum_hessian":[2.14E2,1.96E2,1.8E1,4.9E1,1.47E2,9E0,9E0,6E0,4.3E1,1.42E2,5E0],"tree_param":{"num_deleted":"0","num_feature":"7","num_nodes":"11","size_leaf_vector":"1"}},{"base_weights":[-7.3696956E-2,3.1997964E-2,-1.6678219E-1,1.1991609E0,-2.1876884E-1,-2.9446205E-2,1.08626105E-1,-3.1493728E-3,-1.7001657E-1],"categories":[],"categories_nodes":[],"categories_segments":[],"categories_sizes":[],"default_left":[0,0,0,0,0,0,0,0,0],"id":36,"left_children":[1,3,-1,5,7,-1,-1,-1,-1],"loss_changes":[7.691867E1,6.2801903E1,0E0,6.820845E1,8.47891E1,0E0,0E0,0E0,0E0],"parents":[2147483647,0,0,1,1,3,3,4,4],"right_children":[2,4,-1,6,8,-1,-1,-1,-1],"split_conditions":[1.8852271E0,-9.339817E-1,-1.6678219E-1,-8.7910604E-1,1.7749572E0,-2.9446205E-2,1.08626105E-1,-3.1493728E-3,-1.7001657E-1],"split_indices":[6,6,0,4,1,0,0,0,0],"split_type":[0,0,0,0,0,0,0,0,0],"sum_hessian":[2.17E2,2.11E2,6E0,3.7E1,1.74E2,1.3E1,2.4E1,1.67E2,7E0],"tree_param":{"num_deleted":"0","num_feature":"7","num_nodes":"9","size_leaf_vector":"1"}},{"base_weights":[-2.2708231E-1,-3.585454E-1,1.19401686E-1,-1.401162E-1,-2.2679366E-1,-2.4099624E-2,3.8695455E-2],"categories":[],"categories_nodes":[],"categories_segments":[],"categories_sizes":[],"default_left":[0,0,0,0,0,0,0],"id":37,"left_children":[1,3,-1,-1,5,-1,-1],"loss_changes":[7.203762E1,6.256627E1,0E0,0E0,4.925966E1,0E0,0E0],"parents":[2147483647,0,0,1,1,4,4],"right_children":[2,4,-1,-1,6,-1,-1],"split_conditions":[1.7938317E0,-1.7026197E0,1.19401686E-1,-1.401162E-1,6.9308305E-1,-2.4099624E-2,3.8695455E-2],"split_indices":[4,2,0,0,4,0,0],"split_type":[0,0,0,0,0,0,0],"sum_hessian":[2.09E2,2E2,9E0,9E0,1.91E2,1.53E2,3.8E1],"tree_param":{"num_deleted":"0","num_feature":"7","num_nodes":"7","size_leaf_vector":"1"}},{"base_weights":[1.5305942E-1,-1.7099932E0,2.5816855E-1,-4.6669287E-3,-1.3899921E-1,1.6860081E0,9.3190916E-2,2.000325E-3,1.3920043E-1,3.781369E-2,-1.572244E-2],"categories":[],"categories_nodes":[],"categories_segments":[],"categories_sizes":[],"default_left":[0,0,0,0,0,0,0,0,0,0,0],"id":38,"left_children":[1,3,5,-1,-1,7,9,-1,-1,-1,-1],"loss_changes":[4.4167572E1,1.9061523E1,4.9834583E1,0E0,0E0,3.8237453E1,5.316701E1,0E0,0E0,0E0,0E0],"parents":[2147483647,0,0,1,1,2,2,5,5,6,6],"right_children":[2,4,6,-1,-1,8,10,-1,-1,-1,-1],"split_conditions":[-1.7746475E0,-1.2975903E0,-1.3378571E0,-4.6669287E-3,-1.3899921E-1,3.9648595E-1,4.291875E-3,2.000325E-3,1.3920043E-1,3.781369E-2,-1.572244E-2],"split_indices":[1,2,6,0,0,1,1,0,0,0,0],"split_type":[0,0,0,0,0,0,0,0,0,0,0],"sum_hessian":[2.26E2,1.1E1,2.15E2,5E0,6E0,2.1E1,1.94E2,9E0,1.2E1,7.4E1,1.2E2],"tree_param":{"num_deleted":"0","num_feature":"7","num_nodes":"11","size_leaf_vector":"1"}},{"base_weights":[-2.5199058E-2,-1.0856632E-1,7.2419316E-2,1.6057353E-1,-7.7980034E-2,2.5360417E-3,-1.1926587E-1],"categories":[],"categories_nodes":[],"categories_segments":[],"categories_sizes":[],"default_left":[0,0,0,0,0,0,0],"id":39,"left_children":[1,-1,3,-1,5,-1,-1],"loss_changes":[4.3316494E1,0E0,9.293464E1,0E0,5.62252E1,0E0,0E0],"parents":[2147483647,0,0,2,2,4,4],"right_children":[2,-1,4,-1,6,-1,-1],"split_conditions":[-1.7026197E0,-1.0856632E-1,-1.4003149E0,1.6057353E-1,1.7749572E0,2.5360417E-3,-1.1926587E-1],"split_indices":[2,0,2,0,1,0,0],"split_type":[0,0,0,0,0,0,0],"sum_hessian":[2E2,8E0,1.92E2,8E0,1.84E2,1.75E2,9E0],"tree_param":{"num_deleted":"0","num_feature":"7","num_nodes":"7","size_leaf_vector":"1"}},{"base_weights":[-8.598326E-2,-1.7125207E-1,1.1577429E-1,-1.1467735E-1,-8.074125E-2,5.478914E-4,-1.01631425E-1],"categories":[],"categories_nodes":[],"categories_segments":[],"categories_sizes":[],"default_left":[0,0,0,0,0,0,0],"id":40,"left_children":[1,3,-1,-1,5,-1,-1],"loss_changes":[4.1916664E1,3.742998E1,0E0,0E0,3.5935432E1,0E0,0E0],"parents":[2147483647,0,0,1,1,4,4],"right_children":[2,4,-1,-1,6,-1,-1],"split_conditions":[2.1224709E0,-1.806849E0,1.1577429E-1,-1.1467735E-1,1.7749572E0,5.478914E-4,-1.01631425E-1],"split_indices":[1,4,0,0,1,0,0],"split_type":[0,0,0,0,0,0,0],"sum_hessian":[2.07E2,2.01E2,6E0,7E0,1.94E2,1.86E2,8E0],"tree_param":{"num_deleted":"0","num_feature":"7","num_nodes":"7","size_leaf_vector":"1"}},{"base_weights":[3.841124E-2,-2.458801E-2,1.181158E-1,5.1538296E-2,-1.0268914E-1,-1.5571266E-3,1.2448627E-1],"categories":[],"categories_nodes":[],"categories_segments":[],"categories_sizes":[],"default_left":[0,0,0,0,0,0,0],"id":41,"left_children":[1,3,-1,5,-1,-1,-1],"loss_changes":[3.3289482E1,3.416464E1,0E0,4.3036232E1,0E0,0E0,0E0],"parents":[2147483647,0,0,1,1,3,3],"right_children":[2,4,-1,6,-1,-1,-1],"split_conditions":[2.0860646E0,1.7749572E0,1.181158E-1,1.2619606E0,-1.0268914E-1,-1.5571266E-3,1.2448627E-1],"split_indices":[1,1,0,1,0,0,0],"split_type":[0,0,0,0,0,0,0],"sum_hessian":[2.18E2,2.13E2,5E0,2.06E2,7E0,2E2,6E0],"tree_param":{"num_deleted":"0","num_feature":"7","num_nodes":"7","size_leaf_vector":"1"}},{"base_weights":[-7.780462E-3,-8.570748E-2,1.1799524E-1,-9.161738E-2,-8.430376E-3,6.1547842E-2,-8.837628E-3],"categories":[],"categories_nodes":[],"categories_segments":[],"categories_sizes":[],"default_left":[0,0,0,0,0,0,0],"id":42,"left_children":[1,3,-1,-1,5,-1,-1],"loss_changes":[4.057916E1,2.8623749E1,0E0,0E0,4.3708523E1,0E0,0E0],"parents":[2147483647,0,0,1,1,4,4],"right_children":[2,4,-1,-1,6,-1,-1],"split_conditions":[1.6997598E0,-1.7746475E0,1.1799524E-1,-9.161738E-2,-9.93569E-1,6.1547842E-2,-8.837628E-3],"split_indices":[4,1,0,0,1,0,0],"split_type":[0,0,0,0,0,0,0],"sum_hessian":[2.24E2,2.18E2,6E0,8E0,2.1E2,2.4E1,1.86E2],"tree_param":{"num_deleted":"0","num_feature":"7","num_nodes":"7","size_leaf_vector":"1"}},{"base_weights":[-1.5601908E-1,-3.189034E-1,9.333525E-1,-1.8374924E-1,-1.6277106E0,1.9508501E0,-5.860398E-1,2.015062E-3,-7.757717E-2,-1.1945206E-1,-0E0,5.538832E-2,1.2964816E-1,-0E0,-5.6231886E-2],"categories":[],"categories_nodes":[],"categories_segments":[],"categories_sizes":[],"default_left":[0,0,0,0,0,0,0,0,0,0,0,0,0,0,0],"id":43,"left_children":[1,3,5,7,9,11,13,-1,-1,-1,-1,-1,-1,-1,-1],"loss_changes":[3.5656178E1,2.9927948E1,4.202111E1,5.01574E1,2.0391632E1,3.938919E0,3.810991E0,0E0,0E0,0E0,0E0,0E0,0E0,0E0,0E0],"parents":[2147483647,0,0,1,1,2,2,3,3,4,4,5,5,6,6],"right_children":[2,4,6,8,10,12,14,-1,-1,-1,-1,-1,-1,-1,-1],"split_conditions":[1.0915134E0,7.241418E-1,1.9404398E0,1.253189E0,2.584063E-1,3.1336352E-2,-2.6601717E-1,2.015062E-3,-7.757717E-2,-1.1945206E-1,-0E0,5.538832E-2,1.2964816E-1,-0E0,-5.6231886E-2],"split_indices":[1,1,1,4,4,4,4,0,0,0,0,0,0,0,0],"split_type":[0,0,0,0,0,0,0,0,0,0,0,0,0,0,0],"sum_hessian":[2E2,1.75E2,2.5E1,1.6E2,1.5E1,1.5E1,1E1,1.38E2,2.2E1,1E1,5E0,8E0,7E0,5E0,5E0],"tree_param":{"num_deleted":"0","num_feature":"7","num_nodes":"15","size_leaf_vector":"1"}},{"base_weights":[1.1542747E-1,6.838778E-1,-3.1003004E-1,-1.4083095E0,1.0489393E0,-1.2296273E-1,-1.1990692E-1,-1.5984549E-1,2.333972E-3,1.5541613E-1,3.723228E-2,-4.4000298E-2,2.5784621E-2],"categories":[],"categories_nodes":[],"categories_segments":[],"categories_sizes":[],"default_left":[0,0,0,0,0,0,0,0,0,0,0,0,0],"id":44,"left_children":[1,3,5,7,9,-1,11,-1,-1,-1,-1,-1,-1],"loss_changes":[4.852739E1,6.698239E1,4.4997906E1,3.5555466E1,4.213157E1,0E0,5.1846523E1,0E0,0E0,0E0,0E0,0E0,0E0],"parents":[2147483647,0,0,1,1,2,2,3,3,4,4,6,6],"right_children":[2,4,6,8,10,-1,12,-1,-1,-1,-1,-1,-1],"split_conditions":[-2.1268913E-1,-1.3691388E0,-1.2285545E0,-3.8946274E-1,-1.3692148E0,-1.2296273E-1,3.776885E-1,-1.5984549E-1,2.333972E-3,1.5541613E-1,3.723228E-2,-4.4000298E-2,2.5784621E-2],"split_indices":[2,5,1,0,1,0,2,0,0,0,0,0,0],"split_type":[0,0,0,0,0,0,0,0,0,0,0,0,0],"sum_hessian":[1.98E2,8.5E1,1.13E2,1.2E1,7.3E1,8E0,1.05E2,5E0,7E0,8E0,6.5E1,4.8E1,5.7E1],"tree_param":{"num_deleted":"0","num_feature":"7","num_nodes":"13","size_leaf_vector":"1"}},{"base_weights":[-1.7663845E-1,3.9575738E-1,-5.9302E-1,-4.6603402E-1,1.6791116E0,-5.695503E-2,-1.6783596E0,-1.9050324E-1,-9.2912884E-4,5.417117E-2,2.1471837E-1,-4.443244E-2,4.0262364E-2,-1.0460447E-2,-1.1525243E-1],"categories":[],"categories_nodes":[],"categories_segments":[],"categories_sizes":[],"default_left":[0,0,0,0,0,0,0,0,0,0,0,0,0,0,0],"id":45,"left_children":[1,3,5,7,9,11,13,-1,-1,-1,-1,-1,-1,-1,-1],"loss_changes":[4.895368E1,9.6503654E1,6.8272446E1,7.582202E1,4.7184174E1,5.8841427E1,3.416794E1,0E0,0E0,0E0,0E0,0E0,0E0,0E0,0E0],"parents":[2147483647,0,0,1,1,2,2,3,3,4,4,5,5,6,6],"right_children":[2,4,6,8,10,12,14,-1,-1,-1,-1,-1,-1,-1,-1],"split_conditions":[-2.1268913E-1,-6.36701E-1,7.0103294E-1,-1.6731039E0,9.5297265E-1,6.1350584E-1,-4.215332E-1,-1.9050324E-1,-9.2912884E-4,5.417117E-2,2.1471837E-1,-4.443244E-2,4.0262364E-2,-1.0460447E-2,-1.1525243E-1],"split_indices":[2,2,0,3,3,2,3,0,0,0,0,0,0,0,0],"split_type":[0,0,0,0,0,0,0,0,0,0,0,0,0,0,0],"sum_hessian":[2.03E2,8.5E1,1.18E2,5.1E1,3.4E1,8E1,3.8E1,5E0,4.6E1,2.9E1,5E0,4.1E1,3.9E1,1.2E1,2.6E1],"tree_param":{"num_deleted":"0","num_feature":"7","num_nodes":"15","size_leaf_vector":"1"}},{"base_weights":[6.503527E-3,-1.3040227E-1,1.202174E0,2.3158194E-1,-4.787985E-1,1.7331057E0,-2.980696E-2,-1.2466507E-2,8.6176395E-2,-8.637931E-2,1.5148222E-3,1.0335372E-1,3.9693166E-2],"categories":[],"categories_nodes":[],"categories_segments":[],"categories_sizes":[],"default_left":[0,0,0,0,0,0,0,0,0,0,0,0,0],"id":46,"left_children":[1,3,5,7,9,11,-1,-1,-1,-1,-1,-1,-1],"loss_changes":[3.8178623E1,2.6213959E1,2.451641E1,7.36338E1,6.829065E1,2.8884315E0,0E0,0E0,0E0,0E0,0E0,0E0,0E0],"parents":[2147483647,0,0,1,1,2,2,3,3,4,4,5,5],"right_children":[2,4,6,8,10,12,-1,-1,-1,-1,-1,-1,-1],"split_conditions":[1.3942136E0,-4.2878754E-2,1.9847882E0,-3.7430477E-1,2.6128438E-1,9.7236586E-1,-2.980696E-2,-1.2466507E-2,8.6176395E-2,-8.637931E-2,1.5148222E-3,1.0335372E-1,3.9693166E-2],"split_indices":[3,3,3,3,3,1,0,0,0,0,0,0,0],"split_type":[0,0,0,0,0,0,0,0,0,0,0,0,0],"sum_hessian":[2.28E2,2.05E2,2.3E1,1E2,1.05E2,1.8E1,5E0,7.6E1,2.4E1,3E1,7.5E1,1.2E1,6E0],"tree_param":{"num_deleted":"0","num_feature":"7","num_nodes":"13","size_leaf_vector":"1"}},{"base_weights":[1.5105174E-1,9.61354E-1,-3.4914345E-1,4.5513776E-1,2.139989E-1,-5.061377E-1,1.0915785E-1,1.2301765E-1,8.576237E-3,-1.5789777E-2,-1.3543324E-1],"categories":[],"categories_nodes":[],"categories_segments":[],"categories_sizes":[],"default_left":[0,0,0,0,0,0,0,0,0,0,0],"id":47,"left_children":[1,3,5,7,-1,9,-1,-1,-1,-1,-1],"loss_changes":[9.021511E1,1.3847946E2,5.473175E1,4.0914932E1,0E0,5.2132793E1,0E0,0E0,0E0,0E0,0E0],"parents":[2147483647,0,0,1,1,2,2,3,3,5,5],"right_children":[2,4,6,8,-1,10,-1,-1,-1,-1,-1],"split_conditions":[-2.1857817E-1,1.124991E0,1.284423E0,-1.6829895E0,2.139989E-1,1.6397343E0,1.0915785E-1,1.2301765E-1,8.576237E-3,-1.5789777E-2,-1.3543324E-1],"split_indices":[2,6,5,2,0,6,0,0,0,0,0],"split_type":[0,0,0,0,0,0,0,0,0,0,0],"sum_hessian":[2.2E2,8.4E1,1.36E2,7.4E1,1E1,1.29E2,7E0,8E0,6.6E1,1.2E2,9E0],"tree_param":{"num_deleted":"0","num_feature":"7","num_nodes":"11","size_leaf_vector":"1"}},{"base_weights":[-1.06105596E-1,4.36136E-2,-1.141472E0,2.5344765E-1,-6.1246E-1,-1.9402392E0,1.0136904E-1,-5.0851837E-4,4.591815E-2,1.8982345E-2,-8.2140625E-2,-6.1433366E-3,-1.5320298E-1],"categories":[],"categories_nodes":[],"categories_segments":[],"categories_sizes":[],"default_left":[0,0,0,0,0,0,0,0,0,0,0,0,0],"id":48,"left_children":[1,3,5,7,9,11,-1,-1,-1,-1,-1,-1,-1],"loss_changes":[3.439182E1,2.627004E1,7.4762955E1,2.6054852E1,4.827738E1,4.5005264E1,0E0,0E0,0E0,0E0,0E0,0E0,0E0],"parents":[2147483647,0,0,1,1,2,2,3,3,4,4,5,5],"right_children":[2,4,6,8,10,12,-1,-1,-1,-1,-1,-1,-1],"split_conditions":[1.050776E0,1.012603E0,9.8991024E-1,2.3367764E-1,2.009262E-1,-1.0380274E0,1.0136904E-1,-5.0851837E-4,4.591815E-2,1.8982345E-2,-8.2140625E-2,-6.1433366E-3,-1.5320298E-1],"split_indices":[5,0,3,0,3,3,0,0,0,0,0,0,0],"split_type":[0,0,0,0,0,0,0,0,0,0,0,0,0],"sum_hessian":[2.17E2,1.9E2,2.7E1,1.45E2,4.5E1,2.2E1,5E0,1.04E2,4.1E1,2.3E1,2.2E1,9E0,1.3E1],"tree_param":{"num_deleted":"0","num_feature":"7","num_nodes":"13","size_leaf_vector":"1"}},{"base_weights":[-5.497904E-2,3.5038468E-1,-3.103804E-1,-1.1387167E-1,6.085818E-1,-4.6522647E-1,8.727975E-2,-1.455857E-1,4.407402E-2,-1.7152462E-2,-1.2807176E-1],"categories":[],"categories_nodes":[],"categories_segments":[],"categories_sizes":[],"default_left":[0,0,0,0,0,0,0,0,0,0,0],"id":49,"left_children":[1,3,5,-1,7,9,-1,-1,-1,-1,-1],"loss_changes":[2.4004284E1,6.0937626E1,4.5697353E1,0E0,8.0327576E1,3.198766E1,0E0,0E0,0E0,0E0,0E0],"parents":[2147483647,0,0,1,1,2,2,4,4,5,5],"right_children":[2,4,6,-1,8,10,-1,-1,-1,-1,-1],"split_conditions":[-2.509713E-1,-1.1876612E0,1.6424516E0,-1.1387167E-1,-1.5264235E0,1.253189E0,8.727975E-2,-1.455857E-1,4.407402E-2,-1.7152462E-2,-1.2807176E-1],"split_indices":[5,2,4,0,1,4,0,0,0,0,0],"split_type":[0,0,0,0,0,0,0,0,0,0,0],"sum_hessian":[2.3E2,8.8E1,1.42E2,7E0,8.1E1,1.33E2,9E0,5E0,7.6E1,1.27E2,6E0],"tree_param":{"num_deleted":"0","num_feature":"7","num_nodes":"11","size_leaf_vector":"1"}},{"base_weights":[-6.4300336E-2,7.242583E-2,-1.4417057E-1,-3.9343126E-2,1.2707974E-1,-1.2788273E-1,4.678666E-3],"categories":[],"categories_nodes":[],"categories_segments":[],"categories_sizes":[],"default_left":[0,0,0,0,0,0,0],"id":50,"left_children":[1,3,-1,5,-1,-1,-1],"loss_changes":[8.332893E1,5.7374336E1,0E0,6.674275E1,0E0,0E0,0E0],"parents":[2147483647,0,0,1,1,3,3],"right_children":[2,4,-1,6,-1,-1,-1],"split_conditions":[1.7183388E0,1.3278146E0,-1.4417057E-1,-1.677159E0,1.2707974E-1,-1.2788273E-1,4.678666E-3],"split_indices":[5,5,0,3,0,0,0],"split_type":[0,0,0,0,0,0,0],"sum_hessian":[2.11E2,2.02E2,9E0,1.94E2,8E0,9E0,1.85E2],"tree_param":{"num_deleted":"0","num_feature":"7","num_nodes":"7","size_leaf_vector":"1"}},{"base_weights":[6.9594555E-2,4.9521416E-1,-4.310875E-1,2.8150335E-1,1.3946271E-1,-1.4896325E0,2.6780656E-1,-6.791986E-2,2.3024874E-2,-2.9956019E-2,-1.1043755E-1,-1.9822823E-2,5.8104515E-2],"categories":[],"categories_nodes":[],"categories_segments":[],"categories_sizes":[],"default_left":[0,0,0,0,0,0,0,0,0,0,0,0,0],"id":51,"left_children":[1,3,5,7,-1,9,11,-1,-1,-1,-1,-1,-1],"loss_changes":[4.755377E1,5.700104E1,7.647055E1,3.305224E1,0E0,2.3528488E1,3.767399E1,0E0,0E0,0E0,0E0,0E0,0E0],"parents":[2147483647,0,0,1,1,2,2,3,3,5,5,6,6],"right_children":[2,4,6,8,-1,10,12,-1,-1,-1,-1,-1,-1],"split_conditions":[6.1612345E-2,-9.084891E-2,6.0982406E-1,-1.7127771E0,1.3946271E-1,2.285973E-1,1.697746E-1,-6.791986E-2,2.3024874E-2,-2.9956019E-2,-1.1043755E-1,-1.9822823E-2,5.8104515E-2],"split_indices":[4,4,4,4,0,2,1,0,0,0,0,0,0],"split_type":[0,0,0,0,0,0,0,0,0,0,0,0,0],"sum_hessian":[2.21E2,1.2E2,1.01E2,1.11E2,9E0,4E1,6.1E1,1E1,1.01E2,1.9E1,2.1E1,3.5E1,2.6E1],"tree_param":{"num_deleted":"0","num_feature":"7","num_nodes":"13","size_leaf_vector":"1"}},{"base_weights":[2.5052652E-2,1.2091659E-1,-1.2100121E-1,-7.2533764E-2,1.8800213E0,-1.1288124E-2,6.420133E-2,1.4580756E-1,1.9933162E-2],"categories":[],"categories_nodes":[],"categories_segments":[],"categories_sizes":[],"default_left":[0,0,0,0,0,0,0,0,0],"id":52,"left_children":[1,3,-1,5,7,-1,-1,-1,-1],"loss_changes":[4.977232E1,7.216269E1,0E0,3.904705E1,2.9412506E1,0E0,0E0,0E0,0E0],"parents":[2147483647,0,0,1,1,3,3,4,4],"right_children":[2,4,-1,6,8,-1,-1,-1,-1],"split_conditions":[1.9723375E0,1.2714949E0,-1.2100121E-1,1.284423E0,-1.749549E-1,-1.1288124E-2,6.420133E-2,1.4580756E-1,1.9933162E-2],"split_indices":[6,6,0,5,3,0,0,0,0],"split_type":[0,0,0,0,0,0,0,0,0],"sum_hessian":[2.15E2,2.08E2,7E0,1.88E2,2E1,1.7E2,1.8E1,1.1E1,9E0],"tree_param":{"num_deleted":"0","num_feature":"7","num_nodes":"9","size_leaf_vector":"1"}},{"base_weights":[3.6305647E-2,-1.858849E0,1.478708E-1,2.4959298E-2,-1.8429504E-1,6.8664896E-1,-2.9802215E-1,-5.6506384E-2,4.7198325E-2,8.8197134E-2,-2.9291943E-2],"categories":[],"categories_nodes":[],"categories_segments":[],"categories_sizes":[],"default_left":[0,0,0,0,0,0,0,0,0,0,0],"id":53,"left_children":[1,3,5,-1,-1,7,9,-1,-1,-1,-1],"loss_changes":[4.5723255E1,5.5132328E1,5.0368332E1,0E0,0E0,4.5385128E1,6.809968E1,0E0,0E0,0E0,0E0],"parents":[2147483647,0,0,1,1,2,2,5,5,6,6],"right_children":[2,4,6,-1,-1,8,10,-1,-1,-1,-1],"split_conditions":[-1.6731039E0,-1.4408058E0,1.9827867E-2,2.4959298E-2,-1.8429504E-1,-1.2013291E0,-1.0542743E0,-5.6506384E-2,4.7198325E-2,8.8197134E-2,-2.9291943E-2],"split_indices":[3,6,3,0,0,4,4,0,0,0,0],"split_type":[0,0,0,0,0,0,0,0,0,0,0],"sum_hessian":[2.18E2,1.1E1,2.07E2,5E0,6E0,9.4E1,1.13E2,1.1E1,8.3E1,1.3E1,1E2],"tree_param":{"num_deleted":"0","num_feature":"7","num_nodes":"11","size_leaf_vector":"1"}},{"base_weights":[-4.9879327E-2,5.9303623E-2,-2.1553497E0,-9.04271E-2,1.3972601E-1,3.2072578E-2,-2.3381297E-1,-2.163189E-2,4.1044366E-2],"categories":[],"categories_nodes":[],"categories_segments":[],"categories_sizes":[],"default_left":[0,0,0,0,0,0,0,0,0],"id":54,"left_children":[1,3,5,7,-1,-1,-1,-1,-1],"loss_changes":[5.129E1,8.67903E1,8.257233E1,6.1909607E1,0E0,0E0,0E0,0E0,0E0],"parents":[2147483647,0,0,1,1,2,2,3,3],"right_children":[2,4,6,8,-1,-1,-1,-1,-1],"split_conditions":[1.7183388E0,1.3278146E0,-7.0103294E-1,5.4689485E-1,1.3972601E-1,3.2072578E-2,-2.3381297E-1,-2.163189E-2,4.1044366E-2],"split_indices":[5,5,0,6,0,0,0,0,0],"split_type":[0,0,0,0,0,0,0,0,0],"sum_hessian":[2.17E2,2.07E2,1E1,1.97E2,1E1,5E0,5E0,1.44E2,5.3E1],"tree_param":{"num_deleted":"0","num_feature":"7","num_nodes":"9","size_leaf_vector":"1"}},{"base_weights":[-1.0583028E-1,-1.6452129E0,9.281653E-2,3.2451844E-1,-2.0240168E-1,-3.0210844E-1,1.6835214E0,6.982694E-2,-6.271325E-2,7.23028E-2,-1.948396E-2,4.4791248E-2,1.709228E-1],"categories":[],"categories_nodes":[],"categories_segments":[],"categories_sizes":[],"default_left":[0,0,0,0,0,0,0,0,0,0,0,0,0],"id":55,"left_children":[1,3,5,7,-1,9,11,-1,-1,-1,-1,-1,-1],"loss_changes":[6.422815E1,1.1676528E2,1.1678977E2,2.5517595E1,0E0,2.2692335E1,4.5344795E1,0E0,0E0,0E0,0E0,0E0,0E0],"parents":[2147483647,0,0,1,1,2,2,3,3,5,5,6,6],"right_children":[2,4,6,8,-1,10,12,-1,-1,-1,-1,-1,-1],"split_conditions":[-1.4061254E0,-5.3327394E-1,8.2168853E-1,-1.7538196E0,-2.0240168E-1,-1.2354649E0,3.8059157E-1,6.982694E-2,-6.271325E-2,7.23028E-2,-1.948396E-2,4.4791248E-2,1.709228E-1],"split_indices":[3,6,6,3,0,3,4,0,0,0,0,0,0],"split_type":[0,0,0,0,0,0,0,0,0,0,0,0,0],"sum_hessian":[2.06E2,2.3E1,1.83E2,1.3E1,1E1,1.47E2,3.6E1,8E0,5E0,6E0,1.41E2,2.6E1,1E1],"tree_param":{"num_deleted":"0","num_feature":"7","num_nodes":"13","size_leaf_vector":"1"}},{"base_weights":[1.1835209E-1,-5.270704E-2,1.2109544E0,1.07042074E-1,-1.6483185E0,-1.0355209E-1,1.437618E-1,1.5413302E-2,-6.052458E-2,-1.0978319E-1,-3.477986E-2,1.0355432E-1,-9.414538E-2],"categories":[],"categories_nodes":[],"categories_segments":[],"categories_sizes":[],"default_left":[0,0,0,0,0,0,0,0,0,0,0,0,0],"id":56,"left_children":[1,3,5,7,9,11,-1,-1,-1,-1,-1,-1,-1],"loss_changes":[4.007877E1,4.759332E1,6.512712E1,4.4196968E1,5.892021E0,6.958631E1,0E0,0E0,0E0,0E0,0E0,0E0,0E0],"parents":[2147483647,0,0,1,1,2,2,3,3,4,4,5,5],"right_children":[2,4,6,8,10,12,-1,-1,-1,-1,-1,-1,-1],"split_conditions":[1.1333517E0,8.188114E-1,-5.0702468E-2,1.1509105E0,9.472083E-1,1.5657955E0,1.437618E-1,1.5413302E-2,-6.052458E-2,-1.0978319E-1,-3.477986E-2,1.0355432E-1,-9.414538E-2],"split_indices":[3,3,5,5,3,3,0,0,0,0,0,0,0],"split_type":[0,0,0,0,0,0,0,0,0,0,0,0,0],"sum_hessian":[2.1E2,1.82E2,2.8E1,1.66E2,1.6E1,1.6E1,1.2E1,1.45E2,2.1E1,9E0,7E0,7E0,9E0],"tree_param":{"num_deleted":"0","num_feature":"7","num_nodes":"13","size_leaf_vector":"1"}},{"base_weights":[-6.8995263E-3,1.0019355E-1,-2.21306E0,-5.230824E-2,2.0981734E0,-4.539377E-2,-1.533034E-1,2.5596857E-2,-1.8036747E-2,6.158365E-2,1.3741075E-1],"categories":[],"categories_nodes":[],"categories_segments":[],"categories_sizes":[],"default_left":[0,0,0,0,0,0,0,0,0,0,0],"id":57,"left_children":[1,3,5,7,9,-1,-1,-1,-1,-1,-1],"loss_changes":[5.6091537E1,6.877509E1,7.4760857E0,3.6132942E1,3.637329E0,0E0,0E0,0E0,0E0,0E0,0E0],"parents":[2147483647,0,0,1,1,2,2,3,3,4,4],"right_children":[2,4,6,8,10,-1,-1,-1,-1,-1,-1],"split_conditions":[1.7981167E0,1.2714949E0,-2.3367764E-1,-3.2024944E-1,-3.745413E-1,-4.539377E-2,-1.533034E-1,2.5596857E-2,-1.8036747E-2,6.158365E-2,1.3741075E-1],"split_indices":[6,6,0,6,3,0,0,0,0,0,0],"split_type":[0,0,0,0,0,0,0,0,0,0,0],"sum_hessian":[2.31E2,2.21E2,1E1,2.06E2,1.5E1,5E0,5E0,7.2E1,1.34E2,8E0,7E0],"tree_param":{"num_deleted":"0","num_feature":"7","num_nodes":"11","size_leaf_vector":"1"}},{"base_weights":[5.809165E-2,6.4448595E-1,-4.1022667E-1,2.7002978E-1,2.0229497E0,3.798404E-2,-1.6131706E0,6.839018E-2,-3.2866437E-2,1.712381E-1,1.8442137E-2,-2.1283614E-2,7.254769E-2,-2.2863628E-2,-1.3911553E-1],"categories":[],"categories_nodes":[],"categories_segments":[],"categories_sizes":[],"default_left":[0,0,0,0,0,0,0,0,0,0,0,0,0,0,0],"id":58,"left_children":[1,3,5,7,9,11,13,-1,-1,-1,-1,-1,-1,-1,-1],"loss_changes":[5.612921E1,4.527911E1,6.1775345E1,7.557052E1,4.0896194E1,5.5506256E1,3.9001534E1,0E0,0E0,0E0,0E0,0E0,0E0,0E0,0E0],"parents":[2147483647,0,0,1,1,2,2,3,3,4,4,5,5,6,6],"right_children":[2,4,6,8,10,12,14,-1,-1,-1,-1,-1,-1,-1,-1],"split_conditions":[-1.98948E-1,9.8991024E-1,7.0103294E-1,-1.8688272E-1,1.5657955E0,5.308902E-1,3.773477E-1,6.839018E-2,-3.2866437E-2,1.712381E-1,1.8442137E-2,-2.1283614E-2,7.254769E-2,-2.2863628E-2,-1.3911553E-1],"split_indices":[2,3,0,3,3,4,4,0,0,0,0,0,0,0,0],"split_type":[0,0,0,0,0,0,0,0,0,0,0,0,0,0,0],"sum_hessian":[2.02E2,9E1,1.12E2,7.2E1,1.8E1,8.2E1,3E1,3.3E1,3.9E1,9E0,9E0,6.2E1,2E1,1.6E1,1.4E1],"tree_param":{"num_deleted":"0","num_feature":"7","num_nodes":"15","size_leaf_vector":"1"}},{"base_weights":[8.9917466E-2,1.9271906E-1,-1.5945334E0,-1.2025826E0,3.999597E-1,3.5934042E-2,-1.8756929E-1,3.5033714E-2,-8.8811435E-2,1.361831E-2,1.03889085E-1],"categories":[],"categories_nodes":[],"categories_segments":[],"categories_sizes":[],"default_left":[0,0,0,0,0,0,0,0,0,0,0],"id":59,"left_children":[1,3,5,7,9,-1,-1,-1,-1,-1,-1],"loss_changes":[3.9260998E1,6.2828094E1,6.90728E1,3.2352615E1,3.893406E1,0E0,0E0,0E0,0E0,0E0,0E0],"parents":[2147483647,0,0,1,1,2,2,3,3,4,4],"right_children":[2,4,6,8,10,-1,-1,-1,-1,-1,-1],"split_conditions":[1.8852295E0,-1.2285545E0,-3.8946274E-1,-1.261066E0,1.284423E0,3.5934042E-2,-1.8756929E-1,3.5033714E-2,-8.8811435E-2,1.361831E-2,1.03889085E-1],"split_indices":[5,1,0,3,5,0,0,0,0,0,0],"split_type":[0,0,0,0,0,0,0,0,0,0,0],"sum_hessian":[2.28E2,2.16E2,1.2E1,2.7E1,1.89E2,6E0,6E0,6E0,2.1E1,1.77E2,1.2E1],"tree_param":{"num_deleted":"0","num_feature":"7","num_nodes":"11","size_leaf_vector":"1"}},{"base_weights":[-9.070801E-2,-1.5380147E-1,1.0772518E-1,1.0421425E-1,-2.1786992E-1,2.1344928E-2,-1.9222548E-2],"categories":[],"categories_nodes":[],"categories_segments":[],"categories_sizes":[],"default_left":[0,0,0,0,0,0,0],"id":60,"left_children":[1,3,-1,-1,5,-1,-1],"loss_changes":[3.1204102E1,3.106686E1,0E0,0E0,2.3235233E1,0E0,0E0],"parents":[2147483647,0,0,1,1,4,4],"right_children":[2,4,-1,-1,6,-1,-1],"split_conditions":[2.2587845E0,-1.981501E0,1.0772518E-1,1.0421425E-1,-1.012603E0,2.1344928E-2,-1.9222548E-2],"split_indices":[4,1,0,0,0,0,0],"split_type":[0,0,0,0,0,0,0],"sum_hessian":[2.24E2,2.19E2,5E0,5E0,2.14E2,4.3E1,1.71E2],"tree_param":{"num_deleted":"0","num_feature":"7","num_nodes":"7","size_leaf_vector":"1"}},{"base_weights":[-6.17508E-2,1.3772379E-2,-1.4142261E-1,-1.2279524E-1,1.2985507E0,9.873114E-3,-2.5824284E-2,1.4747183E-1,8.639941E-4],"categories":[],"categories_nodes":[],"categories_segments":[],"categories_sizes":[],"default_left":[0,0,0,0,0,0,0,0,0],"id":61,"left_children":[1,3,-1,5,7,-1,-1,-1,-1],"loss_changes":[4.7206364E1,3.8295586E1,0E0,2.472147E1,4.288554E1,0E0,0E0,0E0,0E0],"parents":[2147483647,0,0,1,1,3,3,4,4],"right_children":[2,4,-1,6,8,-1,-1,-1,-1],"split_conditions":[1.9723375E0,1.2730787E0,-1.4142261E-1,8.758553E-2,-8.83712E-2,9.873114E-3,-2.5824284E-2,1.4747183E-1,8.639941E-4],"split_indices":[6,6,0,6,2,0,0,0,0],"split_type":[0,0,0,0,0,0,0,0,0],"sum_hessian":[2.18E2,2.13E2,5E0,1.93E2,2E1,1.06E2,8.7E1,8E0,1.2E1],"tree_param":{"num_deleted":"0","num_feature":"7","num_nodes":"9","size_leaf_vector":"1"}},{"base_weights":[-1.0315278E-2,5.2991863E-2,-1.1116349E-1,1.733116E-1,-1.6711422E0,1.5516726E-3,1.0348173E-1,-1.6656502E-1,3.6879603E-2],"categories":[],"categories_nodes":[],"categories_segments":[],"categories_sizes":[],"default_left":[0,0,0,0,0,0,0,0,0],"id":62,"left_children":[1,3,-1,5,7,-1,-1,-1,-1],"loss_changes":[3.0202787E1,4.144508E1,0E0,5.0148457E1,5.5739426E1,0E0,0E0,0E0,0E0],"parents":[2147483647,0,0,1,1,3,3,4,4],"right_children":[2,4,-1,6,8,-1,-1,-1,-1],"split_conditions":[2.2862327E0,1.8852295E0,-1.1116349E-1,1.3278146E0,7.819669E-1,1.5516726E-3,1.0348173E-1,-1.6656502E-1,3.6879603E-2],"split_indices":[2,5,0,5,3,0,0,0,0],"split_type":[0,0,0,0,0,0,0,0,0],"sum_hessian":[2.06E2,2.01E2,5E0,1.89E2,1.2E1,1.77E2,1.2E1,7E0,5E0],"tree_param":{"num_deleted":"0","num_feature":"7","num_nodes":"9","size_leaf_vector":"1"}},{"base_weights":[1.9317219E-2,1.4150794E-1,-1.2126527E-1,-1.6145295E0,2.4292497E-1,1.9725585E-2,-1.7189078E-1,-3.1570122E-3,4.2251922E-2],"categories":[],"categories_nodes":[],"categories_segments":[],"categories_sizes":[],"default_left":[0,0,0,0,0,0,0,0,0],"id":63,"left_children":[1,3,-1,5,7,-1,-1,-1,-1],"loss_changes":[6.2826572E1,3.6037193E1,0E0,4.317154E1,3.6195786E1,0E0,0E0,0E0,0E0],"parents":[2147483647,0,0,1,1,3,3,4,4],"right_children":[2,4,-1,6,8,-1,-1,-1,-1],"split_conditions":[1.7981167E0,-1.7127771E0,-1.2126527E-1,5.20598E-1,3.4891668E-1,1.9725585E-2,-1.7189078E-1,-3.1570122E-3,4.2251922E-2],"split_indices":[6,4,0,1,6,0,0,0,0],"split_type":[0,0,0,0,0,0,0,0,0],"sum_hessian":[2.12E2,2.03E2,9E0,1E1,1.93E2,5E0,5E0,1.28E2,6.5E1],"tree_param":{"num_deleted":"0","num_feature":"7","num_nodes":"9","size_leaf_vector":"1"}},{"base_weights":[9.9686906E-2,-3.6294445E-1,7.158363E-1,-4.2812858E-2,-1.4871532E0,2.345165E0,1.4685988E-1,-5.9905857E-2,1.29586235E-2,-1.0144746E-1,1.0092865E-2,1.6615795E-1,-1.4677875E-2,1.9006444E-2,-7.9383686E-2],"categories":[],"categories_nodes":[],"categories_segments":[],"categories_sizes":[],"default_left":[0,0,0,0,0,0,0,0,0,0,0,0,0,0,0],"id":64,"left_children":[1,3,5,7,9,11,13,-1,-1,-1,-1,-1,-1,-1,-1],"loss_changes":[5.972666E1,4.199882E1,8.184404E1,3.357518E1,2.511568E1,6.1845375E1,2.7513422E1,0E0,0E0,0E0,0E0,0E0,0E0,0E0,0E0],"parents":[2147483647,0,0,1,1,2,2,3,3,4,4,5,5,6,6],"right_children":[2,4,6,8,10,12,14,-1,-1,-1,-1,-1,-1,-1,-1],"split_conditions":[2.6128438E-1,7.011006E-3,-7.4718916E-1,-7.093442E-1,5.0872E-1,-3.3439624E-1,1.8033769E0,-5.9905857E-2,1.29586235E-2,-1.0144746E-1,1.0092865E-2,1.6615795E-1,-1.4677875E-2,1.9006444E-2,-7.9383686E-2],"split_indices":[3,3,4,4,2,2,3,0,0,0,0,0,0,0,0],"split_type":[0,0,0,0,0,0,0,0,0,0,0,0,0,0,0],"sum_hessian":[2.07E2,1.18E2,8.9E1,9.3E1,2.5E1,2.2E1,6.7E1,1.9E1,7.4E1,1.9E1,6E0,1.6E1,6E0,6E1,7E0],"tree_param":{"num_deleted":"0","num_feature":"7","num_nodes":"15","size_leaf_vector":"1"}},{"base_weights":[1.0403744E-1,-1.9349303E-2,1.3638723E0,-3.244198E-1,6.461134E-1,2.5692737E0,-5.8517035E-2,-2.1587385E-2,8.448636E-2,7.972977E-2,-1.24656325E-2,1.9301875E-1,6.837545E-2],"categories":[],"categories_nodes":[],"categories_segments":[],"categories_sizes":[],"default_left":[0,0,0,0,0,0,0,0,0,0,0,0,0],"id":65,"left_children":[1,3,5,7,9,11,-1,-1,-1,-1,-1,-1,-1],"loss_changes":[3.4896973E1,4.0854385E1,6.480127E1,3.014875E1,5.457581E1,1.3829361E1,0E0,0E0,0E0,0E0,0E0,0E0,0E0],"parents":[2147483647,0,0,1,1,2,2,3,3,4,4,5,5],"right_children":[2,4,6,8,10,12,-1,-1,-1,-1,-1,-1,-1],"split_conditions":[1.3942136E0,5.7448107E-1,-4.600294E-1,1.4021604E0,1.1084219E0,1.5900136E0,-5.8517035E-2,-2.1587385E-2,8.448636E-2,7.972977E-2,-1.24656325E-2,1.9301875E-1,6.837545E-2],"split_indices":[3,2,2,6,2,3,0,0,0,0,0,0,0],"split_type":[0,0,0,0,0,0,0,0,0,0,0,0,0],"sum_hessian":[2.19E2,2E2,1.9E1,1.38E2,6.2E1,1.3E1,6E0,1.32E2,6E0,3E1,3.2E1,5E0,8E0],"tree_param":{"num_deleted":"0","num_feature":"7","num_nodes":"13","size_leaf_vector":"1"}},{"base_weights":[-1.2335234E-1,-1.6327137E-1,-1.2672603E-3,-8.0102816E-2,1.311149E-1,4.8881203E-2,-1.2739404E-2],"categories":[],"categories_nodes":[],"categories_segments":[],"categories_sizes":[],"default_left":[0,0,0,0,0,0,0],"id":66,"left_children":[1,-1,3,5,-1,-1,-1],"loss_changes":[8.198742E1,0E0,4.258013E1,3.795014E1,0E0,0E0,0E0],"parents":[2147483647,0,0,2,2,3,3],"right_children":[2,-1,4,6,-1,-1,-1],"split_conditions":[-1.7829217E0,-1.6327137E-1,1.7938317E0,-1.112162E0,1.311149E-1,4.8881203E-2,-1.2739404E-2],"split_indices":[1,0,4,6,0,0,0],"split_type":[0,0,0,0,0,0,0],"sum_hessian":[2.17E2,7E0,2.1E2,2.05E2,5E0,2.8E1,1.77E2],"tree_param":{"num_deleted":"0","num_feature":"7","num_nodes":"7","size_leaf_vector":"1"}},{"base_weights":[7.775088E-2,-1.048057E-1,1.7028344E-1,1.4175384E-1,9.133062E-2,-2.1543584E-3,7.010874E-2],"categories":[],"categories_nodes":[],"categories_segments":[],"categories_sizes":[],"default_left":[0,0,0,0,0,0,0],"id":67,"left_children":[1,-1,3,-1,5,-1,-1],"loss_changes":[4.4452347E1,0E0,4.3722744E1,0E0,3.7918324E1,0E0,0E0],"parents":[2147483647,0,0,2,2,4,4],"right_children":[2,-1,4,-1,6,-1,-1],"split_conditions":[-1.7026197E0,-1.048057E-1,-1.8698109E0,1.4175384E-1,1.3278146E0,-2.1543584E-3,7.010874E-2],"split_indices":[2,0,5,0,5,0,0],"split_type":[0,0,0,0,0,0,0],"sum_hessian":[2.23E2,8E0,2.15E2,5E0,2.1E2,1.91E2,1.9E1],"tree_param":{"num_deleted":"0","num_feature":"7","num_nodes":"7","size_leaf_vector":"1"}},{"base_weights":[5.578231E-2,5.466463E-1,-2.1286763E-1,-1.1374644E-1,1.8657658E0,-3.313495E-2,-1.5876508E0,-1.7496097E-1,1.3848545E-2,-7.188744E-4,1.321771E-1,-9.636523E-2,5.733185E-3,-2.2027476E-2,-1.2513953E-1],"categories":[],"categories_nodes":[],"categories_segments":[],"categories_sizes":[],"default_left":[0,0,0,0,0,0,0,0,0,0,0,0,0,0,0],"id":68,"left_children":[1,3,5,7,9,11,13,-1,-1,-1,-1,-1,-1,-1,-1],"loss_changes":[3.0877228E1,7.339259E1,3.620102E1,7.665503E1,4.229785E1,3.8641376E1,1.5271618E1,0E0,0E0,0E0,0E0,0E0,0E0,0E0,0E0],"parents":[2147483647,0,0,1,1,2,2,3,3,4,4,5,5,6,6],"right_children":[2,4,6,8,10,12,14,-1,-1,-1,-1,-1,-1,-1,-1],"split_conditions":[-3.3439624E-1,-6.494606E-1,1.1518972E0,-1.6731039E0,-3.9617634E-1,-1.2285545E0,2.3367764E-1,-1.7496097E-1,1.3848545E-2,-7.188744E-4,1.321771E-1,-9.636523E-2,5.733185E-3,-2.2027476E-2,-1.2513953E-1],"split_indices":[2,2,3,3,1,1,0,0,0,0,0,0,0,0,0],"split_type":[0,0,0,0,0,0,0,0,0,0,0,0,0,0,0],"sum_hessian":[2.31E2,8.2E1,1.49E2,5.5E1,2.7E1,1.33E2,1.6E1,5E0,5E1,8E0,1.9E1,9E0,1.24E2,8E0,8E0],"tree_param":{"num_deleted":"0","num_feature":"7","num_nodes":"15","size_leaf_vector":"1"}},{"base_weights":[-7.7614084E-2,-0E0,-8.042588E-2,-3.066269E-1,4.6207106E-1,-1.2050873E-3,-9.470909E-2,8.2841374E-2,-1.1999155E-2],"categories":[],"categories_nodes":[],"categories_segments":[],"categories_sizes":[],"default_left":[0,0,0,0,0,0,0,0,0],"id":69,"left_children":[1,3,-1,5,7,-1,-1,-1,-1],"loss_changes":[2.4614283E1,2.8457201E1,0E0,5.3266624E1,6.820873E1,0E0,0E0,0E0,0E0],"parents":[2147483647,0,0,1,1,3,3,4,4],"right_children":[2,4,-1,6,8,-1,-1,-1,-1],"split_conditions":[1.6223214E0,2.6128438E-1,-8.042588E-2,1.1509105E0,-3.6779478E-1,-1.2050873E-3,-9.470909E-2,8.2841374E-2,-1.1999155E-2],"split_indices":[3,3,0,5,5,0,0,0,0],"split_type":[0,0,0,0,0,0,0,0,0],"sum_hessian":[2.08E2,1.99E2,9E0,1.2E2,7.9E1,1.03E2,1.7E1,2.9E1,5E1],"tree_param":{"num_deleted":"0","num_feature":"7","num_nodes":"9","size_leaf_vector":"1"}},{"base_weights":[1.365814E-2,-1.8865365E-1,1.7620022E0,6.011247E-1,-3.3033636E-1,3.276782E-2,2.1497178E0,6.4544074E-2,-5.8641143E-2,-2.177796E-2,1.09290265E-1,1.8290477E-1,5.8735967E-2],"categories":[],"categories_nodes":[],"categories_segments":[],"categories_sizes":[],"default_left":[0,0,0,0,0,0,0,0,0,0,0,0,0],"id":70,"left_children":[1,3,5,7,9,-1,11,-1,-1,-1,-1,-1,-1],"loss_changes":[8.176511E1,2.3002256E1,7.4861603E0,3.950436E1,4.6409138E1,0E0,1.8287682E1,0E0,0E0,0E0,0E0,0E0,0E0],"parents":[2147483647,0,0,1,1,2,2,3,3,4,4,6,6],"right_children":[2,4,6,8,10,-1,12,-1,-1,-1,-1,-1,-1],"split_conditions":[1.308825E0,-9.93569E-1,-9.688527E-1,1.4370074E0,1.772206E0,3.276782E-2,-4.271287E-1,6.4544074E-2,-5.8641143E-2,-2.177796E-2,1.09290265E-1,1.8290477E-1,5.8735967E-2],"split_indices":[3,1,4,4,4,0,4,0,0,0,0,0,0],"split_type":[0,0,0,0,0,0,0,0,0,0,0,0,0],"sum_hessian":[2.27E2,2.04E2,2.3E1,3E1,1.74E2,7E0,1.6E1,2.2E1,8E0,1.68E2,6E0,5E0,1.1E1],"tree_param":{"num_deleted":"0","num_feature":"7","num_nodes":"13","size_leaf_vector":"1"}},{"base_weights":[2.0005403E-1,1.149515E0,8.761551E-2,-4.0138805E-1,2.7823625E0,1.654371E-1,-9.606517E-2,-6.242779E-2,1.5533413E-2,7.377293E-2,1.771103E-1,-1.6414728E-3,4.3980982E-2],"categories":[],"categories_nodes":[],"categories_segments":[],"categories_sizes":[],"default_left":[0,0,0,0,0,0,0,0,0,0,0,0,0],"id":71,"left_children":[1,3,5,7,9,11,-1,-1,-1,-1,-1,-1,-1],"loss_changes":[2.2019745E1,5.8019836E1,2.9456678E1,8.095603E0,3.188263E0,2.6789593E1,0E0,0E0,0E0,0E0,0E0,0E0,0E0],"parents":[2147483647,0,0,1,1,2,2,3,3,4,4,5,5],"right_children":[2,4,6,8,10,12,-1,-1,-1,-1,-1,-1,-1],"split_conditions":[-1.2668297E0,2.7306545E-1,1.627441E0,-5.179964E-1,-7.0103294E-1,8.532296E-1,-9.606517E-2,-6.242779E-2,1.5533413E-2,7.377293E-2,1.771103E-1,-1.6414728E-3,4.3980982E-2],"split_indices":[2,5,3,5,0,2,0,0,0,0,0,0,0],"split_type":[0,0,0,0,0,0,0,0,0,0,0,0,0],"sum_hessian":[2.12E2,2.1E1,1.91E2,1.1E1,1E1,1.85E2,6E0,5E0,6E0,5E0,5E0,1.45E2,4E1],"tree_param":{"num_deleted":"0","num_feature":"7","num_nodes":"13","size_leaf_vector":"1"}},{"base_weights":[1.9288358E-1,-7.921943E-2,2.6801062E-1,-5.3424206E-2,1.0625247E0,6.875511E-3,-7.710322E-2,2.9748803E-2,1.5866058E-1],"categories":[],"categories_nodes":[],"categories_segments":[],"categories_sizes":[],"default_left":[0,0,0,0,0,0,0,0,0],"id":72,"left_children":[1,-1,3,5,7,-1,-1,-1,-1],"loss_changes":[2.9808708E1,0E0,5.5979744E1,4.4970387E1,5.8399376E1,0E0,0E0,0E0,0E0],"parents":[2147483647,0,0,2,2,3,3,4,4],"right_children":[2,-1,4,6,8,-1,-1,-1,-1],"split_conditions":[-1.806849E0,-7.921943E-2,5.6693316E-1,1.1084219E0,1.1342475E0,6.875511E-3,-7.710322E-2,2.9748803E-2,1.5866058E-1],"split_indices":[4,0,1,2,4,0,0,0,0],"split_type":[0,0,0,0,0,0,0,0,0],"sum_hessian":[2.24E2,8E0,2.16E2,1.54E2,6.2E1,1.37E2,1.7E1,5.2E1,1E1],"tree_param":{"num_deleted":"0","num_feature":"7","num_nodes":"9","size_leaf_vector":"1"}},{"base_weights":[-5.217929E-2,-1.7140664E0,6.0227595E-2,-4.1276935E-2,-1.3389234E-1,1.4959063E-1,-8.14719E-2,4.322691E-4,9.627059E-2],"categories":[],"categories_nodes":[],"categories_segments":[],"categories_sizes":[],"default_left":[0,0,0,0,0,0,0,0,0],"id":73,"left_children":[1,3,5,-1,-1,7,-1,-1,-1],"loss_changes":[4.1280582E1,8.026478E0,3.0155529E1,0E0,0E0,4.7573273E1,0E0,0E0,0E0],"parents":[2147483647,0,0,1,1,2,2,5,5],"right_children":[2,4,6,-1,-1,8,-1,-1,-1],"split_conditions":[-1.6174389E0,-5.041973E-1,1.627441E0,-4.1276935E-2,-1.3389234E-1,1.308825E0,-8.14719E-2,4.322691E-4,9.627059E-2],"split_indices":[1,2,3,0,0,3,0,0,0],"split_type":[0,0,0,0,0,0,0,0,0],"sum_hessian":[2.15E2,1.3E1,2.02E2,8E0,5E0,1.93E2,9E0,1.8E2,1.3E1],"tree_param":{"num_deleted":"0","num_feature":"7","num_nodes":"9","size_leaf_vector":"1"}},{"base_weights":[1.4764091E-1,-2.044053E-2,1.3995137E0,7.127421E-1,-2.551269E-1,7.598011E-1,1.5236463E-1,-1.4722248E-2,6.2058102E-2,1.094054E-2,-3.510841E-2,7.4208975E-2,-4.1477643E-2],"categories":[],"categories_nodes":[],"categories_segments":[],"categories_sizes":[],"default_left":[0,0,0,0,0,0,0,0,0,0,0,0,0],"id":74,"left_children":[1,3,5,7,9,11,-1,-1,-1,-1,-1,-1,-1],"loss_changes":[4.8061874E1,3.4194557E1,2.4241947E1,2.638526E1,3.2599518E1,2.5735683E1,0E0,0E0,0E0,0E0,0E0,0E0,0E0],"parents":[2147483647,0,0,1,1,2,2,3,3,4,4,5,5],"right_children":[2,4,6,8,10,12,-1,-1,-1,-1,-1,-1,-1],"split_conditions":[1.3148222E0,-7.9584706E-1,8.598376E-1,-5.452478E-1,-8.837846E-2,7.0103294E-1,1.5236463E-1,-1.4722248E-2,6.2058102E-2,1.094054E-2,-3.510841E-2,7.4208975E-2,-4.1477643E-2],"split_indices":[4,4,1,0,1,0,0,0,0,0,0,0,0],"split_type":[0,0,0,0,0,0,0,0,0,0,0,0,0],"sum_hessian":[2.24E2,1.98E2,2.6E1,4.7E1,1.51E2,2E1,6E0,1.6E1,3.1E1,7.3E1,7.8E1,1.4E1,6E0],"tree_param":{"num_deleted":"0","num_feature":"7","num_nodes":"13","size_leaf_vector":"1"}},{"base_weights":[2.8864225E-2,-4.8853893E-2,1.5562437E-1,1.9119693E-1,-9.143519E-1,-6.28808E-2,1.47336945E-2,-4.0038996E-3,-1.0892363E-1],"categories":[],"categories_nodes":[],"categories_segments":[],"categories_sizes":[],"default_left":[0,0,0,0,0,0,0,0,0],"id":75,"left_children":[1,3,-1,5,7,-1,-1,-1,-1],"loss_changes":[5.8481728E1,4.8737534E1,0E0,2.7174324E1,5.248204E1,0E0,0E0,0E0,0E0],"parents":[2147483647,0,0,1,1,3,3,4,4],"right_children":[2,4,-1,6,8,-1,-1,-1,-1],"split_conditions":[2.0857787E0,7.4035937E-1,1.5562437E-1,-1.7863656E0,1.6649704E-1,-6.28808E-2,1.47336945E-2,-4.0038996E-3,-1.0892363E-1],"split_indices":[4,5,0,5,4,0,0,0,0],"split_type":[0,0,0,0,0,0,0,0,0],"sum_hessian":[2.36E2,2.31E2,5E0,1.81E2,5E1,1.1E1,1.7E2,3.1E1,1.9E1],"tree_param":{"num_deleted":"0","num_feature":"7","num_nodes":"9","size_leaf_vector":"1"}},{"base_weights":[-7.820667E-4,-1.5661253E0,9.1976084E-2,-3.225361E-2,-1.224921E-1,2.3962389E-1,-8.7952805E-1,3.999257E-3,6.254418E-2,-7.029986E-2,-6.272434E-3],"categories":[],"categories_nodes":[],"categories_segments":[],"categories_sizes":[],"default_left":[0,0,0,0,0,0,0,0,0,0,0],"id":76,"left_children":[1,3,5,-1,-1,7,9,-1,-1,-1,-1],"loss_changes":[3.369595E1,7.4535637E0,3.058706E1,0E0,0E0,2.9423086E1,1.0173882E1,0E0,0E0,0E0,0E0],"parents":[2147483647,0,0,1,1,2,2,5,5,6,6],"right_children":[2,4,6,-1,-1,8,10,-1,-1,-1,-1],"split_conditions":[-1.7127771E0,-1.8392875E0,1.253189E0,-3.225361E-2,-1.224921E-1,1.2209644E0,2.3291594E-1,3.999257E-3,6.254418E-2,-7.029986E-2,-6.272434E-3],"split_indices":[4,4,4,0,0,3,2,0,0,0,0],"split_type":[0,0,0,0,0,0,0,0,0,0,0],"sum_hessian":[2.25E2,1.2E1,2.13E2,7E0,5E0,1.86E2,2.7E1,1.62E2,2.4E1,1.5E1,1.2E1],"tree_param":{"num_deleted":"0","num_feature":"7","num_nodes":"11","size_leaf_vector":"1"}},{"base_weights":[2.621837E-1,6.708127E-2,2.126323E0,-2.9799166E-1,7.453013E-1,1.3233908E-1,1.9372845E-2,1.5924284E-3,-9.941129E-2,4.8160132E-2,-8.099317E-2],"categories":[],"categories_nodes":[],"categories_segments":[],"categories_sizes":[],"default_left":[0,0,0,0,0,0,0,0,0,0,0],"id":77,"left_children":[1,3,5,7,9,-1,-1,-1,-1,-1,-1],"loss_changes":[7.659206E1,4.8727707E1,1.555751E1,7.1844925E1,3.6792637E1,0E0,0E0,0E0,0E0,0E0,0E0],"parents":[2147483647,0,0,1,1,2,2,3,3,4,4],"right_children":[2,4,6,8,10,-1,-1,-1,-1,-1,-1],"split_conditions":[1.3278146E0,4.1226968E-1,7.4249727E-1,1.802393E-1,1.7981167E0,1.3233908E-1,1.9372845E-2,1.5924284E-3,-9.941129E-2,4.8160132E-2,-8.099317E-2],"split_indices":[5,6,6,6,6,0,0,0,0,0,0],"split_type":[0,0,0,0,0,0,0,0,0,0,0],"sum_hessian":[2.13E2,1.94E2,1.9E1,1.26E2,6.8E1,1.4E1,5E0,1.06E2,2E1,6.3E1,5E0],"tree_param":{"num_deleted":"0","num_feature":"7","num_nodes":"11","size_leaf_vector":"1"}},{"base_weights":[6.362731E-2,1.10876836E-1,-9.577657E-3,8.1749636E-1,-2.3777136E-1,-2.026828E-2,6.600338E-2,-1.478914E-1,-4.4388254E-3],"categories":[],"categories_nodes":[],"categories_segments":[],"categories_sizes":[],"default_left":[0,0,0,0,0,0,0,0,0],"id":78,"left_children":[1,-1,3,5,7,-1,-1,-1,-1],"loss_changes":[3.3606655E1,0E0,3.7651134E1,2.7419197E1,6.2247475E1,0E0,0E0,0E0,0E0],"parents":[2147483647,0,0,2,2,3,3,4,4],"right_children":[2,-1,4,6,8,-1,-1,-1,-1],"split_conditions":[-1.7538196E0,1.10876836E-1,-7.015761E-1,-1.6194749E0,-5.6138796E-1,-2.026828E-2,6.600338E-2,-1.478914E-1,-4.4388254E-3],"split_indices":[3,0,5,5,5,0,0,0,0],"split_type":[0,0,0,0,0,0,0,0,0],"sum_hessian":[2.05E2,6E0,1.99E2,4.2E1,1.57E2,1.2E1,3E1,7E0,1.5E2],"tree_param":{"num_deleted":"0","num_feature":"7","num_nodes":"9","size_leaf_vector":"1"}},{"base_weights":[-6.521207E-2,9.011008E-1,-2.2600831E-1,-9.174256E-2,1.6969003E-1,-6.5048075E-1,4.977446E-1,-1.0399659E-1,3.5145424E-2,-1.5075129E-2,-7.2124965E-2,2.445988E-3,5.5668093E-2],"categories":[],"categories_nodes":[],"categories_segments":[],"categories_sizes":[],"default_left":[0,0,0,0,0,0,0,0,0,0,0,0,0],"id":79,"left_children":[1,3,5,7,-1,9,11,-1,-1,-1,-1,-1,-1],"loss_changes":[3.3894215E1,7.868305E1,5.8463432E1,3.848859E1,0E0,3.1860737E1,1.8705698E1,0E0,0E0,0E0,0E0,0E0,0E0],"parents":[2147483647,0,0,1,1,2,2,3,3,5,5,6,6],"right_children":[2,4,6,8,-1,10,12,-1,-1,-1,-1,-1,-1],"split_conditions":[-1.0499492E0,-1.2013291E0,3.435315E-1,-1.0006446E0,1.6969003E-1,-7.017536E-2,5.0872E-1,-1.0399659E-1,3.5145424E-2,-1.5075129E-2,-7.2124965E-2,2.445988E-3,5.5668093E-2],"split_indices":[4,4,1,2,0,1,2,0,0,0,0,0,0],"split_type":[0,0,0,0,0,0,0,0,0,0,0,0,0],"sum_hessian":[2.18E2,3E1,1.88E2,2.2E1,8E0,1.19E2,6.9E1,6E0,1.6E1,8.4E1,3.5E1,4.1E1,2.8E1],"tree_param":{"num_deleted":"0","num_feature":"7","num_nodes":"13","size_leaf_vector":"1"}},{"base_weights":[-6.33142E-2,4.456226E-2,-1.18080035E-1,1.1968988E-1,-1.2169353E-1,5.4105874E-2,-1.5204947E-3],"categories":[],"categories_nodes":[],"categories_segments":[],"categories_sizes":[],"default_left":[0,0,0,0,0,0,0],"id":80,"left_children":[1,3,-1,5,-1,-1,-1],"loss_changes":[5.531272E1,3.8049763E1,0E0,3.0028633E1,0E0,0E0,0E0],"parents":[2147483647,0,0,1,1,3,3],"right_children":[2,4,-1,6,-1,-1,-1],"split_conditions":[1.7981167E0,2.1429324E0,-1.18080035E-1,-1.0572226E0,-1.2169353E-1,5.4105874E-2,-1.5204947E-3],"split_indices":[6,2,0,3,0,0,0],"split_type":[0,0,0,0,0,0,0],"sum_hessian":[2.17E2,2.08E2,9E0,2.03E2,5E0,2.7E1,1.76E2],"tree_param":{"num_deleted":"0","num_feature":"7","num_nodes":"7","size_leaf_vector":"1"}},{"base_weights":[-1.311391E-1,-1.1047856E-2,-1.2889662E-1,-1.16246186E-1,1.02201186E-1,9.721029E-3,-1.1983826E-1],"categories":[],"categories_nodes":[],"categories_segments":[],"categories_sizes":[],"default_left":[0,0,0,0,0,0,0],"id":81,"left_children":[1,3,-1,-1,5,-1,-1],"loss_changes":[6.2733818E1,5.611622E1,0E0,0E0,4.5455444E1,0E0,0E0],"parents":[2147483647,0,0,1,1,4,4],"right_children":[2,4,-1,-1,6,-1,-1],"split_conditions":[1.8852295E0,-1.6731039E0,-1.2889662E-1,-1.16246186E-1,2.1429324E0,9.721029E-3,-1.1983826E-1],"split_indices":[5,3,0,0,2,0,0],"split_type":[0,0,0,0,0,0,0],"sum_hessian":[2.17E2,2.08E2,9E0,9E0,1.99E2,1.93E2,6E0],"tree_param":{"num_deleted":"0","num_feature":"7","num_nodes":"7","size_leaf_vector":"1"}},{"base_weights":[-3.295207E-2,-1.6056454E-1,1.3448379E0,-5.1545806E-2,-1.8043927E0,3.6472517E-1,1.5804712E-1,8.430638E-3,-4.9678065E-2,-1.3015555E-1,-2.442447E-2,9.831657E-2,-8.7410204E-2],"categories":[],"categories_nodes":[],"categories_segments":[],"categories_sizes":[],"default_left":[0,0,0,0,0,0,0,0,0,0,0,0,0],"id":82,"left_children":[1,3,5,7,9,11,-1,-1,-1,-1,-1,-1,-1],"loss_changes":[3.742578E1,3.4462215E1,2.9124058E1,3.9362453E1,9.795036E0,4.7539665E1,0E0,0E0,0E0,0E0,0E0,0E0,0E0],"parents":[2147483647,0,0,1,1,2,2,3,3,4,4,5,5],"right_children":[2,4,6,8,10,12,-1,-1,-1,-1,-1,-1,-1],"split_conditions":[1.3278146E0,1.1075189E0,7.0103294E-1,7.8206074E-1,-1.4464259E-1,-2.3367764E-1,1.5804712E-1,8.430638E-3,-4.9678065E-2,-1.3015555E-1,-2.442447E-2,9.831657E-2,-8.7410204E-2],"split_indices":[5,5,0,1,1,0,0,0,0,0,0,0,0],"split_type":[0,0,0,0,0,0,0,0,0,0,0,0,0],"sum_hessian":[2.14E2,1.97E2,1.7E1,1.86E2,1.1E1,1.2E1,5E0,1.51E2,3.5E1,6E0,5E0,7E0,5E0],"tree_param":{"num_deleted":"0","num_feature":"7","num_nodes":"13","size_leaf_vector":"1"}},{"base_weights":[-1.4118376E-2,-1.18590474E-1,9.531779E-2,1.5054373E0,-1.7729305E-2,1.4744608E-1,-6.542617E-2,6.0421037E-3,-7.112688E-2],"categories":[],"categories_nodes":[],"categories_segments":[],"categories_sizes":[],"default_left":[0,0,0,0,0,0,0,0,0],"id":83,"left_children":[1,-1,3,5,7,-1,-1,-1,-1],"loss_changes":[5.8127995E1,0E0,3.4406033E1,6.9669464E1,3.897733E1,0E0,0E0,0E0,0E0],"parents":[2147483647,0,0,2,2,3,3,4,4],"right_children":[2,-1,4,6,8,-1,-1,-1,-1],"split_conditions":[-1.7026197E0,-1.18590474E-1,-1.5977063E0,8.7621653E-1,1.4424139E0,1.4744608E-1,-6.542617E-2,6.0421037E-3,-7.112688E-2],"split_indices":[2,0,3,2,4,0,0,0,0],"split_type":[0,0,0,0,0,0,0,0,0],"sum_hessian":[2.19E2,9E0,2.1E2,1.5E1,1.95E2,1E1,5E0,1.78E2,1.7E1],"tree_param":{"num_deleted":"0","num_feature":"7","num_nodes":"9","size_leaf_vector":"1"}},{"base_weights":[2.207222E-2,1.2134842E-1,-1.6423419E0,1.933429E-2,8.636495E-2,-4.0683747E-4,-1.3685201E-1,-1.3338192E-2,2.0326035E-2],"categories":[],"categories_nodes":[],"categories_segments":[],"categories_sizes":[],"default_left":[0,0,0,0,0,0,0,0,0],"id":84,"left_children":[1,3,5,7,-1,-1,-1,-1,-1],"loss_changes":[3.5295162E1,3.2842197E1,2.0072681E1,2.177912E1,0E0,0E0,0E0,0E0,0E0],"parents":[2147483647,0,0,1,1,2,2,3,3],"right_children":[2,4,6,8,-1,-1,-1,-1,-1],"split_conditions":[1.7749572E0,1.2619606E0,-5.744534E-1,2.6128438E-1,8.636495E-2,-4.0683747E-4,-1.3685201E-1,-1.3338192E-2,2.0326035E-2],"split_indices":[1,1,6,3,0,0,0,0,0],"split_type":[0,0,0,0,0,0,0,0,0],"sum_hessian":[2.16E2,2.05E2,1.1E1,1.94E2,1.1E1,5E0,6E0,1.11E2,8.3E1],"tree_param":{"num_deleted":"0","num_feature":"7","num_nodes":"9","size_leaf_vector":"1"}},{"base_weights":[-8.628315E-2,5.4147524E-1,-5.291617E-1,-5.08537E-1,9.539149E-1,-3.6973268E-1,-1.6741431E0,-7.084975E-2,7.115016E-2,9.754184E-2,2.0391751E-2,2.2698455E-2,-3.229541E-2,-1.1446624E-1,-3.302433E-2],"categories":[],"categories_nodes":[],"categories_segments":[],"categories_sizes":[],"default_left":[0,0,0,0,0,0,0,0,0,0,0,0,0,0,0],"id":85,"left_children":[1,3,5,7,9,11,13,-1,-1,-1,-1,-1,-1,-1,-1],"loss_changes":[5.6718575E1,3.708539E1,2.0264267E1,4.412674E1,3.1233387E1,2.473022E1,5.743183E0,0E0,0E0,0E0,0E0,0E0,0E0,0E0,0E0],"parents":[2147483647,0,0,1,1,2,2,3,3,4,4,5,5,6,6],"right_children":[2,4,6,8,10,12,14,-1,-1,-1,-1,-1,-1,-1,-1],"split_conditions":[-1.98948E-1,-3.4109226E-1,1.1333517E0,4.2600554E-1,-9.213386E-1,-5.0798297E-1,1.5491277E0,-7.084975E-2,7.115016E-2,9.754184E-2,2.0391751E-2,2.2698455E-2,-3.229541E-2,-1.1446624E-1,-3.302433E-2],"split_indices":[2,5,3,4,2,5,3,0,0,0,0,0,0,0,0],"split_type":[0,0,0,0,0,0,0,0,0,0,0,0,0,0,0],"sum_hessian":[2.02E2,8.3E1,1.19E2,2.3E1,6E1,1.06E2,1.3E1,1.6E1,7E0,2E1,4E1,2.6E1,8E1,7E0,6E0],"tree_param":{"num_deleted":"0","num_feature":"7","num_nodes":"15","size_leaf_vector":"1"}},{"base_weights":[1.0116045E-1,1.0300338E-1,2.8838594E-2,-8.062482E-2,1.0700762E-1,1.2388765E-2,-4.791842E-2],"categories":[],"categories_nodes":[],"categories_segments":[],"categories_sizes":[],"default_left":[0,0,0,0,0,0,0],"id":86,"left_children":[1,-1,3,-1,5,-1,-1],"loss_changes":[3.1764E1,0E0,2.8287657E1,0E0,3.227579E1,0E0,0E0],"parents":[2147483647,0,0,2,2,4,4],"right_children":[2,-1,4,-1,6,-1,-1],"split_conditions":[-1.832179E0,1.0300338E-1,-1.806849E0,-8.062482E-2,1.4424139E0,1.2388765E-2,-4.791842E-2],"split_indices":[2,0,4,0,4,0,0],"split_type":[0,0,0,0,0,0,0],"sum_hessian":[2.31E2,7E0,2.24E2,9E0,2.15E2,1.91E2,2.4E1],"tree_param":{"num_deleted":"0","num_feature":"7","num_nodes":"7","size_leaf_vector":"1"}},{"base_weights":[1.5787034E-1,-1.8048606E0,2.9424465E-1,-1.8469076E-1,5.5410265E-4,1.2391132E-1,2.2440478E-1,6.2348037E-3,9.358635E-2],"categories":[],"categories_nodes":[],"categories_segments":[],"categories_sizes":[],"default_left":[0,0,0,0,0,0,0,0,0],"id":87,"left_children":[1,3,5,-1,-1,-1,7,-1,-1],"loss_changes":[5.7859306E1,4.990556E1,2.920848E1,0E0,0E0,0E0,3.1454613E1,0E0,0E0],"parents":[2147483647,0,0,1,1,2,2,6,6],"right_children":[2,4,6,-1,-1,-1,8,-1,-1],"split_conditions":[-1.5264235E0,-4.045107E-1,-1.3692148E0,-1.8469076E-1,5.5410265E-4,1.2391132E-1,1.6997598E0,6.2348037E-3,9.358635E-2],"split_indices":[1,5,1,0,0,0,4,0,0],"split_type":[0,0,0,0,0,0,0,0,0],"sum_hessian":[2.16E2,1.3E1,2.03E2,6E0,7E0,5E0,1.98E2,1.88E2,1E1],"tree_param":{"num_deleted":"0","num_feature":"7","num_nodes":"9","size_leaf_vector":"1"}},{"base_weights":[-2.507585E-1,-9.123776E-2,-1.7070642E-1,-9.477904E-2,-1.15880795E-1,-1.1154152E-2,1.07016616E-1],"categories":[],"categories_nodes":[],"categories_segments":[],"categories_sizes":[],"default_left":[0,0,0,0,0,0,0],"id":88,"left_children":[1,-1,3,-1,5,-1,-1],"loss_changes":[2.5781132E1,0E0,1.8255478E1,0E0,4.8134945E1,0E0,0E0],"parents":[2147483647,0,0,2,2,4,4],"right_children":[2,-1,4,-1,6,-1,-1],"split_conditions":[-1.677159E0,-9.123776E-2,-1.9980493E0,-9.477904E-2,1.7938317E0,-1.1154152E-2,1.07016616E-1],"split_indices":[3,0,1,0,4,0,0],"split_type":[0,0,0,0,0,0,0],"sum_hessian":[2.14E2,9E0,2.05E2,5E0,2E2,1.92E2,8E0],"tree_param":{"num_deleted":"0","num_feature":"7","num_nodes":"7","size_leaf_vector":"1"}},{"base_weights":[-9.670248E-2,-1.6200941E0,-8.490325E-3,-1.1819943E-1,-3.3979975E-2,1.0357267E-1,-1.01747625E-1,-0E0,-1.1905078E-1],"categories":[],"categories_nodes":[],"categories_segments":[],"categories_sizes":[],"default_left":[0,0,0,0,0,0,0,0,0],"id":89,"left_children":[1,3,5,-1,-1,-1,7,-1,-1],"loss_changes":[2.9407822E1,5.267187E0,4.0735474E1,0E0,0E0,0E0,4.8890488E1,0E0,0E0],"parents":[2147483647,0,0,1,1,2,2,6,6],"right_children":[2,4,6,-1,-1,-1,8,-1,-1],"split_conditions":[-1.7746475E0,-5.0702468E-2,-1.3692148E0,-1.1819943E-1,-3.3979975E-2,1.0357267E-1,1.8852295E0,-0E0,-1.1905078E-1],"split_indices":[1,5,1,0,0,0,5,0,0],"split_type":[0,0,0,0,0,0,0,0,0],"sum_hessian":[2.24E2,1.1E1,2.13E2,5E0,6E0,8E0,2.05E2,1.97E2,8E0],"tree_param":{"num_deleted":"0","num_feature":"7","num_nodes":"9","size_leaf_vector":"1"}},{"base_weights":[-1.2448714E-1,-7.322319E-1,7.577647E-2,3.0841258E-1,-1.7274165E0,-1.3662389E-1,8.6467564E-1,-2.414829E-2,7.744344E-2,-2.4901096E-2,-1.2935431E-1,6.6385115E-3,-3.419314E-2,7.688263E-2,-2.5583392E-2],"categories":[],"categories_nodes":[],"categories_segments":[],"categories_sizes":[],"default_left":[0,0,0,0,0,0,0,0,0,0,0,0,0,0,0],"id":90,"left_children":[1,3,5,7,9,11,13,-1,-1,-1,-1,-1,-1,-1,-1],"loss_changes":[2.6551184E1,5.716646E1,2.7627283E1,2.77861E1,2.6761475E1,1.9236479E1,3.371842E1,0E0,0E0,0E0,0E0,0E0,0E0,0E0,0E0],"parents":[2147483647,0,0,1,1,2,2,3,3,4,4,5,5,6,6],"right_children":[2,4,6,8,10,12,14,-1,-1,-1,-1,-1,-1,-1,-1],"split_conditions":[-6.842997E-1,6.9181345E-2,8.08226E-1,-3.0602473E-1,-5.3327394E-1,7.016346E-2,4.4273454E-1,-2.414829E-2,7.744344E-2,-2.4901096E-2,-1.2935431E-1,6.6385115E-3,-3.419314E-2,7.688263E-2,-2.5583392E-2],"split_indices":[3,4,6,4,6,6,3,0,0,0,0,0,0,0,0],"split_type":[0,0,0,0,0,0,0,0,0,0,0,0,0,0,0],"sum_hessian":[2.14E2,5.3E1,1.61E2,2.6E1,2.7E1,1.27E2,3.4E1,1.6E1,1E1,1.2E1,1.5E1,8.5E1,4.2E1,2.3E1,1.1E1],"tree_param":{"num_deleted":"0","num_feature":"7","num_nodes":"15","size_leaf_vector":"1"}},{"base_weights":[-2.4137503E-2,3.6415666E-1,-3.2232714E-1,-5.4638293E-2,9.689864E-1,1.0298177E-1,-5.086662E-1,-9.538862E-2,9.794663E-3,2.2805162E-2,1.5885046E-1,-4.7912076E-2,1.1870853E-2],"categories":[],"categories_nodes":[],"categories_segments":[],"categories_sizes":[],"default_left":[0,0,0,0,0,0,0,0,0,0,0,0,0],"id":91,"left_children":[1,3,5,7,9,-1,11,-1,-1,-1,-1,-1,-1],"loss_changes":[2.522187E1,2.4320282E1,5.5309925E1,2.72287E1,4.090025E1,0E0,3.949671E1,0E0,0E0,0E0,0E0,0E0,0E0],"parents":[2147483647,0,0,1,1,2,2,3,3,4,4,6,6],"right_children":[2,4,6,8,10,-1,12,-1,-1,-1,-1,-1,-1],"split_conditions":[-2.1857817E-1,-6.494606E-1,-1.651798E0,-1.3691388E0,9.7942716E-1,1.0298177E-1,7.0914406E-1,-9.538862E-2,9.794663E-3,2.2805162E-2,1.5885046E-1,-4.7912076E-2,1.1870853E-2],"split_indices":[2,2,3,5,3,0,2,0,0,0,0,0,0],"split_type":[0,0,0,0,0,0,0,0,0,0,0,0,0],"sum_hessian":[2.16E2,9.3E1,1.23E2,5.5E1,3.8E1,8E0,1.15E2,6E0,4.9E1,3.2E1,6E0,7.2E1,4.3E1],"tree_param":{"num_deleted":"0","num_feature":"7","num_nodes":"13","size_leaf_vector":"1"}},{"base_weights":[-8.835597E-2,1.4704389E-2,-1.1417409E-1,-8.6520255E-1,2.508562E-1,8.389463E-2,-8.386137E-2,-8.763494E-2,2.1080265E-2],"categories":[],"categories_nodes":[],"categories_segments":[],"categories_sizes":[],"default_left":[0,0,0,0,0,0,0,0,0],"id":92,"left_children":[1,3,-1,5,7,-1,-1,-1,-1],"loss_changes":[5.0486206E1,4.3338318E1,0E0,9.3676346E1,5.6862873E1,0E0,0E0,0E0,0E0],"parents":[2147483647,0,0,1,1,3,3,4,4],"right_children":[2,4,-1,6,8,-1,-1,-1,-1],"split_conditions":[1.7749572E0,-6.494606E-1,-1.1417409E-1,-1.4519562E0,-1.2285545E0,8.389463E-2,-8.386137E-2,-8.763494E-2,2.1080265E-2],"split_indices":[1,2,0,1,1,0,0,0,0],"split_type":[0,0,0,0,0,0,0,0,0],"sum_hessian":[2.17E2,2.08E2,9E0,4.3E1,1.65E2,1E1,3.3E1,1.2E1,1.53E2],"tree_param":{"num_deleted":"0","num_feature":"7","num_nodes":"9","size_leaf_vector":"1"}},{"base_weights":[-1.2019416E-1,1.1594945E-1,-2.4282603E-1,-1.432748E-1,-1.288338E0,-1.9412769E-2,5.1610112E-2,-5.6141377E-3,-1.2674324E-1],"categories":[],"categories_nodes":[],"categories_segments":[],"categories_sizes":[],"default_left":[0,0,0,0,0,0,0,0,0],"id":93,"left_children":[1,-1,3,5,7,-1,-1,-1,-1],"loss_changes":[6.2639694E1,0E0,2.012417E1,5.3641026E1,2.3313541E1,0E0,0E0,0E0,0E0],"parents":[2147483647,0,0,2,2,3,3,4,4],"right_children":[2,-1,4,6,8,-1,-1,-1,-1],"split_conditions":[-1.6829895E0,1.1594945E-1,1.2823453E0,8.2564807E-1,5.4689485E-1,-1.9412769E-2,5.1610112E-2,-5.6141377E-3,-1.2674324E-1],"split_indices":[2,0,2,6,6,0,0,0,0],"split_type":[0,0,0,0,0,0,0,0,0],"sum_hessian":[2.1E2,9E0,2.01E2,1.85E2,1.6E1,1.54E2,3.1E1,9E0,7E0],"tree_param":{"num_deleted":"0","num_feature":"7","num_nodes":"9","size_leaf_vector":"1"}},{"base_weights":[1.8765783E-1,2.5221685E-1,-1.0583446E-1,1.5007287E-1,1.8208002E0,-6.2633017E-3,3.431446E-2,1.3064502E-1,3.485786E-2],"categories":[],"categories_nodes":[],"categories_segments":[],"categories_sizes":[],"default_left":[0,0,0,0,0,0,0,0,0],"id":94,"left_children":[1,3,-1,5,7,-1,-1,-1,-1],"loss_changes":[3.2925297E1,3.382978E1,0E0,3.092821E1,8.093857E0,0E0,0E0,0E0,0E0],"parents":[2147483647,0,0,1,1,3,3,4,4],"right_children":[2,4,-1,6,8,-1,-1,-1,-1],"split_conditions":[2.2849174E0,1.3930595E0,-1.0583446E-1,4.1226968E-1,-5.452478E-1,-6.2633017E-3,3.431446E-2,1.3064502E-1,3.485786E-2],"split_indices":[2,2,0,6,0,0,0,0,0],"split_type":[0,0,0,0,0,0,0,0,0],"sum_hessian":[2.23E2,2.18E2,5E0,2.06E2,1.2E1,1.36E2,7E1,6E0,6E0],"tree_param":{"num_deleted":"0","num_feature":"7","num_nodes":"9","size_leaf_vector":"1"}},{"base_weights":[-1.4591591E-1,-2.9224113E-1,1.1216606E0,-3.478833E-2,-1.4001662E0,3.6900744E-1,1.3051726E-1,-8.8920176E-2,2.7253882E-3,6.590649E-2,-9.486251E-2,-3.86851E-2,5.0210595E-2],"categories":[],"categories_nodes":[],"categories_segments":[],"categories_sizes":[],"default_left":[0,0,0,0,0,0,0,0,0,0,0,0,0],"id":95,"left_children":[1,3,5,7,9,11,-1,-1,-1,-1,-1,-1,-1],"loss_changes":[3.960547E1,5.428483E1,2.2197275E1,2.5559172E1,5.1434372E1,1.250588E1,0E0,0E0,0E0,0E0,0E0,0E0,0E0],"parents":[2147483647,0,0,1,1,2,2,3,3,4,4,5,5],"right_children":[2,4,6,8,10,12,-1,-1,-1,-1,-1,-1,-1],"split_conditions":[1.2730787E0,7.4035937E-1,8.0044E-1,-1.6731039E0,-1.0713459E0,-7.983537E-1,1.3051726E-1,-8.8920176E-2,2.7253882E-3,6.590649E-2,-9.486251E-2,-3.86851E-2,5.0210595E-2],"split_indices":[6,5,5,3,1,3,0,0,0,0,0,0,0],"split_type":[0,0,0,0,0,0,0,0,0,0,0,0,0],"sum_hessian":[2.13E2,1.92E2,2.1E1,1.57E2,3.5E1,1.5E1,6E0,7E0,1.5E2,5E0,3E1,5E0,1E1],"tree_param":{"num_deleted":"0","num_feature":"7","num_nodes":"13","size_leaf_vector":"1"}},{"base_weights":[1.4282455E-2,6.715536E-2,-9.922162E-2,-1.7875114E-1,7.5319624E-1,-1.8870386E-3,-1.1096914E-1,1.3486348E-1,1.8498767E-2],"categories":[],"categories_nodes":[],"categories_segments":[],"categories_sizes":[],"default_left":[0,0,0,0,0,0,0,0,0],"id":96,"left_children":[1,3,-1,5,7,-1,-1,-1,-1],"loss_changes":[2.4642992E1,4.0235508E1,0E0,4.8856216E1,4.440406E1,0E0,0E0,0E0,0E0],"parents":[2147483647,0,0,1,1,3,3,4,4],"right_children":[2,4,-1,6,8,-1,-1,-1,-1],"split_conditions":[2.2849174E0,5.4689485E-1,-9.922162E-2,4.5978445E-1,-1.4003149E0,-1.8870386E-3,-1.1096914E-1,1.3486348E-1,1.8498767E-2],"split_indices":[2,6,0,6,2,0,0,0,0],"split_type":[0,0,0,0,0,0,0,0,0],"sum_hessian":[2.4E2,2.35E2,5E0,1.73E2,6.2E1,1.63E2,1E1,9E0,5.3E1],"tree_param":{"num_deleted":"0","num_feature":"7","num_nodes":"9","size_leaf_vector":"1"}},{"base_weights":[1.9190572E-1,5.6570485E-2,1.421029E0,1.4312199E-1,-1.5082545E0,6.754369E-1,1.668817E-1,1.5289361E-2,-2.8117869E-2,-1.3259703E-1,-1.4929692E-3,8.280191E-2,-7.392193E-2],"categories":[],"categories_nodes":[],"categories_segments":[],"categories_sizes":[],"default_left":[0,0,0,0,0,0,0,0,0,0,0,0,0],"id":97,"left_children":[1,3,5,7,9,11,-1,-1,-1,-1,-1,-1,-1],"loss_changes":[3.843792E1,2.8517021E1,2.8606232E1,2.3454094E1,1.7178932E1,4.055482E1,0E0,0E0,0E0,0E0,0E0,0E0,0E0],"parents":[2147483647,0,0,1,1,2,2,3,3,4,4,5,5],"right_children":[2,4,6,8,10,12,-1,-1,-1,-1,-1,-1,-1],"split_conditions":[1.284423E0,1.1509105E0,3.153627E-1,7.98609E-1,-4.5078564E-1,-1.1022136E-3,1.668817E-1,1.5289361E-2,-2.8117869E-2,-1.3259703E-1,-1.4929692E-3,8.280191E-2,-7.392193E-2],"split_indices":[5,5,2,1,1,4,0,0,0,0,0,0,0],"split_type":[0,0,0,0,0,0,0,0,0,0,0,0,0],"sum_hessian":[2.35E2,2.13E2,2.2E1,2.03E2,1E1,1.7E1,5E0,1.66E2,3.7E1,5E0,5E0,1.2E1,5E0],"tree_param":{"num_deleted":"0","num_feature":"7","num_nodes":"13","size_leaf_vector":"1"}},{"base_weights":[3.425776E-2,-8.9008325E-1,3.6570615E-1,-5.31933E-1,-1.7916481E-1,2.149984E-1,1.6945038E0,-4.935791E-2,7.727094E-2,1.607493E-2,-7.466584E-2,2.4663722E-2,1.4627205E-1],"categories":[],"categories_nodes":[],"categories_segments":[],"categories_sizes":[],"default_left":[0,0,0,0,0,0,0,0,0,0,0,0,0],"id":98,"left_children":[1,3,5,7,-1,9,11,-1,-1,-1,-1,-1,-1],"loss_changes":[6.2869446E1,4.812336E1,2.9120474E1,4.758392E1,0E0,2.5001337E1,1.9027164E1,0E0,0E0,0E0,0E0,0E0,0E0],"parents":[2147483647,0,0,1,1,2,2,3,3,5,5,6,6],"right_children":[2,4,6,8,-1,10,12,-1,-1,-1,-1,-1,-1],"split_conditions":[-6.659132E-1,1.6634916E0,1.3278146E0,5.4689485E-1,-1.7916481E-1,1.1509105E0,8.56818E-1,-4.935791E-2,7.727094E-2,1.607493E-2,-7.466584E-2,2.4663722E-2,1.4627205E-1],"split_indices":[1,6,5,6,0,5,0,0,0,0,0,0,0],"split_type":[0,0,0,0,0,0,0,0,0,0,0,0,0],"sum_hessian":[2.04E2,5.3E1,1.51E2,4.8E1,5E0,1.37E2,1.4E1,4E1,8E0,1.3E2,7E0,8E0,6E0],"tree_param":{"num_deleted":"0","num_feature":"7","num_nodes":"13","size_leaf_vector":"1"}},{"base_weights":[8.12586E-2,-9.019954E-2,1.4703712E0,1.289803E-1,-1.9287932E-1,2.0908139E0,-0E0,-1.377224E-1,-5.2068685E-3,1.529664E-1,6.194792E-2],"categories":[],"categories_nodes":[],"categories_segments":[],"categories_sizes":[],"default_left":[0,0,0,0,0,0,0,0,0,0,0],"id":99,"left_children":[1,3,5,-1,7,9,-1,-1,-1,-1,-1],"loss_changes":[5.203027E1,5.1938114E1,2.242775E1,0E0,4.056512E1,8.086044E0,0E0,0E0,0E0,0E0,0E0],"parents":[2147483647,0,0,1,1,2,2,4,4,5,5],"right_children":[2,4,6,-1,8,10,-1,-1,-1,-1,-1],"split_conditions":[1.2730787E0,-1.9119937E0,1.7981167E0,1.289803E-1,-1.7258943E0,-2.1268913E-1,-0E0,-1.377224E-1,-5.2068685E-3,1.529664E-1,6.194792E-2],"split_indices":[6,6,6,0,6,2,0,0,0,0,0],"split_type":[0,0,0,0,0,0,0,0,0,0,0],"sum_hessian":[2.14E2,1.91E2,2.3E1,6E0,1.85E2,1.6E1,7E0,5E0,1.8E2,6E0,1E1],"tree_param":{"num_deleted":"0","num_feature":"7","num_nodes":"11","size_leaf_vector":"1"}},{"base_weights":[4.1297056E-2,1.4535996E-1,-9.4236895E-2,6.0053483E-2,8.892115E-2,-1.4540058E-3,7.4657105E-2],"categories":[],"categories_nodes":[],"categories_segments":[],"categories_sizes":[],"default_left":[0,0,0,0,0,0,0],"id":100,"left_children":[1,3,-1,5,-1,-1,-1],"loss_changes":[4.309775E1,2.7950626E1,0E0,2.6194983E1,0E0,0E0,0E0],"parents":[2147483647,0,0,1,1,3,3],"right_children":[2,4,-1,6,-1,-1,-1],"split_conditions":[1.7183388E0,1.3278146E0,-9.4236895E-2,1.7938317E0,8.892115E-2,-1.4540058E-3,7.4657105E-2],"split_indices":[5,5,0,4,0,0,0],"split_type":[0,0,0,0,0,0,0],"sum_hessian":[2.17E2,2.07E2,1E1,1.98E2,9E0,1.87E2,1.1E1],"tree_param":{"num_deleted":"0","num_feature":"7","num_nodes":"7","size_leaf_vector":"1"}},{"base_weights":[4.408511E-2,-9.672854E-2,1.4429538E-1,-0E0,1.3809078E0,-8.399881E-2,6.467145E-3,1.967554E-1,1.52763E-2],"categories":[],"categories_nodes":[],"categories_segments":[],"categories_sizes":[],"default_left":[0,0,0,0,0,0,0,0,0],"id":101,"left_children":[1,-1,3,5,7,-1,-1,-1,-1],"loss_changes":[4.122144E1,0E0,3.5839157E1,3.9534184E1,5.4358948E1,0E0,0E0,0E0,0E0],"parents":[2147483647,0,0,2,2,3,3,4,4],"right_children":[2,-1,4,6,8,-1,-1,-1,-1],"split_conditions":[-1.7746475E0,-9.672854E-2,1.3942136E0,-1.5396892E0,1.5657955E0,-8.399881E-2,6.467145E-3,1.967554E-1,1.52763E-2],"split_indices":[1,0,3,2,3,0,0,0,0],"split_type":[0,0,0,0,0,0,0,0,0],"sum_hessian":[2.1E2,9E0,2.01E2,1.81E2,2E1,1.2E1,1.69E2,5E0,1.5E1],"tree_param":{"num_deleted":"0","num_feature":"7","num_nodes":"9","size_leaf_vector":"1"}},{"base_weights":[-4.534378E-2,-2.7418393E-1,3.1657812E-1,-1.3017505E-1,-1.447945E-1,1.6216885E0,-3.328146E-1,2.7633747E-2,-2.1897446E-2,1.3916676E-1,5.5141557E-2,4.3141402E-2,-4.9898203E-2],"categories":[],"categories_nodes":[],"categories_segments":[],"categories_sizes":[],"default_left":[0,0,0,0,0,0,0,0,0,0,0,0,0],"id":102,"left_children":[1,3,5,-1,7,9,11,-1,-1,-1,-1,-1,-1],"loss_changes":[1.8534966E1,3.9840557E1,7.407166E1,0E0,2.7174225E1,1.2466507E1,4.705494E1,0E0,0E0,0E0,0E0,0E0,0E0],"parents":[2147483647,0,0,1,1,2,2,4,4,5,5,6,6],"right_children":[2,4,6,-1,8,10,12,-1,-1,-1,-1,-1,-1],"split_conditions":[2.6128438E-1,-1.7889925E0,6.8176395E-1,-1.3017505E-1,-1.0572226E0,-4.045107E-1,-3.4109226E-1,2.7633747E-2,-2.1897446E-2,1.3916676E-1,5.5141557E-2,4.3141402E-2,-4.9898203E-2],"split_indices":[3,2,3,0,3,5,5,0,0,0,0,0,0],"split_type":[0,0,0,0,0,0,0,0,0,0,0,0,0],"sum_hessian":[2.22E2,1.37E2,8.5E1,6E0,1.31E2,2.8E1,5.7E1,3.8E1,9.3E1,7E0,2.1E1,2E1,3.7E1],"tree_param":{"num_deleted":"0","num_feature":"7","num_nodes":"13","size_leaf_vector":"1"}},{"base_weights":[9.6591234E-2,-2.8866455E-1,6.8386376E-1,-4.6666928E-2,-1.9333563E0,1.5782684E0,6.438095E-2,-2.0645848E-2,3.7829753E-2,-1.7664649E-1,2.7825681E-2,1.11718595E-1,3.8065977E-2,-8.451228E-2,3.6114298E-2],"categories":[],"categories_nodes":[],"categories_segments":[],"categories_sizes":[],"default_left":[0,0,0,0,0,0,0,0,0,0,0,0,0,0,0],"id":103,"left_children":[1,3,5,7,9,11,13,-1,-1,-1,-1,-1,-1,-1,-1],"loss_changes":[4.7907536E1,4.9467224E1,4.5618805E1,3.309038E1,6.717801E1,1.5025185E1,5.961011E1,0E0,0E0,0E0,0E0,0E0,0E0,0E0,0E0],"parents":[2147483647,0,0,1,1,2,2,3,3,4,4,5,5,6,6],"right_children":[2,4,6,8,10,12,14,-1,-1,-1,-1,-1,-1,-1,-1],"split_conditions":[3.4891668E-1,1.6994444E-1,-7.789254E-2,-1.8958387E-1,3.435315E-1,2.6906425E-1,5.452478E-1,-2.0645848E-2,3.7829753E-2,-1.7664649E-1,2.7825681E-2,1.11718595E-1,3.8065977E-2,-8.451228E-2,3.6114298E-2],"split_indices":[6,6,0,6,1,1,0,0,0,0,0,0,0,0,0],"split_type":[0,0,0,0,0,0,0,0,0,0,0,0,0,0,0],"sum_hessian":[2.09E2,1.26E2,8.3E1,1.11E2,1.5E1,3.3E1,5E1,7.7E1,3.4E1,9E0,6E0,1.7E1,1.6E1,1.3E1,3.7E1],"tree_param":{"num_deleted":"0","num_feature":"7","num_nodes":"15","size_leaf_vector":"1"}},{"base_weights":[2.8359136E-2,4.811715E-1,-2.2728427E-1,1.3953162E0,4.038984E-2,4.6645048E-1,-5.211377E-1,-6.044814E-2,1.0852992E-1,-1.668091E-2,8.472926E-2,4.6805028E-2,-8.714107E-2,-5.5384375E-2,-1.009662E-2],"categories":[],"categories_nodes":[],"categories_segments":[],"categories_sizes":[],"default_left":[0,0,0,0,0,0,0,0,0,0,0,0,0,0,0],"id":104,"left_children":[1,3,5,7,9,11,13,-1,-1,-1,-1,-1,-1,-1,-1],"loss_changes":[2.3966797E1,2.9446161E1,2.6975613E1,5.1562206E1,3.3417305E1,4.16939E1,1.6533884E1,0E0,0E0,0E0,0E0,0E0,0E0,0E0,0E0],"parents":[2147483647,0,0,1,1,2,2,3,3,4,4,5,5,6,6],"right_children":[2,4,6,8,10,12,14,-1,-1,-1,-1,-1,-1,-1,-1],"split_conditions":[-3.1672907E-1,-7.9584706E-1,-5.0798297E-1,-1.6005428E0,1.0531511E0,1.6704929E0,-5.0702468E-2,-6.044814E-2,1.0852992E-1,-1.668091E-2,8.472926E-2,4.6805028E-2,-8.714107E-2,-5.5384375E-2,-1.009662E-2],"split_indices":[2,4,5,2,4,2,5,0,0,0,0,0,0,0,0],"split_type":[0,0,0,0,0,0,0,0,0,0,0,0,0,0,0],"sum_hessian":[2.04E2,7.4E1,1.3E2,2.3E1,5.1E1,3.8E1,9.2E1,5E0,1.8E1,4.2E1,9E0,3.2E1,6E0,3.1E1,6.1E1],"tree_param":{"num_deleted":"0","num_feature":"7","num_nodes":"15","size_leaf_vector":"1"}},{"base_weights":[-9.7496815E-2,-1.2154531E0,1.2286305E-2,-1.2911485E-1,-4.7366064E-2,-2.6172775E-1,4.1588858E-1,-6.475329E-2,4.787144E-2,-1.7823849E-3,-8.4182E-2,1.0302521E-1,8.902618E-3],"categories":[],"categories_nodes":[],"categories_segments":[],"categories_sizes":[],"default_left":[0,0,0,0,0,0,0,0,0,0,0,0,0],"id":105,"left_children":[1,3,5,-1,7,9,11,-1,-1,-1,-1,-1,-1],"loss_changes":[2.7494987E1,3.0494703E1,2.2304468E1,0E0,1.6452938E1,3.7334793E1,3.0588078E1,0E0,0E0,0E0,0E0,0E0,0E0],"parents":[2147483647,0,0,1,1,2,2,4,4,5,5,6,6],"right_children":[2,4,6,-1,8,10,12,-1,-1,-1,-1,-1,-1],"split_conditions":[-1.2305238E0,-2.3367764E-1,1.697746E-1,-1.2911485E-1,3.251593E-1,-6.726073E-4,2.773384E-1,-6.475329E-2,4.787144E-2,-1.7823849E-3,-8.4182E-2,1.0302521E-1,8.902618E-3],"split_indices":[4,0,1,0,6,1,1,0,0,0,0,0,0],"split_type":[0,0,0,0,0,0,0,0,0,0,0,0,0],"sum_hessian":[2.18E2,1.9E1,1.99E2,8E0,1.1E1,1.18E2,8.1E1,5E0,6E0,1.03E2,1.5E1,9E0,7.2E1],"tree_param":{"num_deleted":"0","num_feature":"7","num_nodes":"13","size_leaf_vector":"1"}},{"base_weights":[-6.0067862E-2,3.7584776E-1,-4.0810147E-1,-3.9882544E-2,1.941044E0,2.3397751E-1,-1.3731345E0,-1.3907023E-1,9.4265975E-3,1.477232E-1,3.9892007E-2,-9.7531684E-2,2.1679241E-2,-1.6105123E-1,-4.834422E-2],"categories":[],"categories_nodes":[],"categories_segments":[],"categories_sizes":[],"default_left":[0,0,0,0,0,0,0,0,0,0,0,0,0,0,0],"id":106,"left_children":[1,3,5,7,9,11,13,-1,-1,-1,-1,-1,-1,-1,-1],"loss_changes":[3.233273E1,6.2193745E1,7.462653E1,4.878607E1,1.8937569E1,3.148387E1,3.0825546E1,0E0,0E0,0E0,0E0,0E0,0E0,0E0,0E0],"parents":[2147483647,0,0,1,1,2,2,3,3,4,4,5,5,