{"learner":{"attributes":{"scikit_learn":"{\"_estimator_type\": \"regressor\"}"},"feature_names":["Year","Avg Temperature (°C)","Rainfall (mm)","Population","Renewable Energy (%)","Extreme Weather Events","Forest Area (%)","Country_Code"],"feature_types":["float","float","float","float","float","float","float","float"],"gradient_booster":{"model":{"gbtree_model_param":{"num_parallel_tree":"1","num_trees":"100"},"iteration_indptr":[0,1,2,3,4,5,6,7,8,9,10,11,12,13,14,15,16,17,18,19,20,21,22,23,24,25,26,27,28,29,30,31,32,33,34,35,36,37,38,39,40,41,42,43,44,45,46,47,48,49,50,51,52,53,54,55,56,57,58,59,60,61,62,63,64,65,66,67,68,69,70,71,72,73,74,75,76,77,78,79,80,81,82,83,84,85,86,87,88,89,90,91,92,93,94,95,96,97,98,99,100],"tree_info":[0,0,0,0,0,0,0,0,0,0,0,0,0,0,0,0,0,0,0,0,0,0,0,0,0,0,0,0,0,0,0,0,0,0,0,0,0,0,0,0,0,0,0,0,0,0,0,0,0,0,0,0,0,0,0,0,0,0,0,0,0,0,0,0,0,0,0,0,0,0,0,0,0,0,0,0,0,0,0,0,0,0,0,0,0,0,0,0,0,0,0,0,0,0,0,0,0,0,0,0],"trees":[{"base_weights":[1.4321287E-1,-1.053077E-1,1.9410379E0,4.721644E-1,-1.9143648E0,2.8120697E0,7.4717283E-1,5.8736686E-2,2.2357316E0,-1.5721563E-1,-3.2891402E0,7.508779E-1,4.8202086E-2,1.4375443E0,-2.6424346E-3,2.8119423E0,-3.5784996E-1,4.301955E0,3.1873628E-1,-1.284583E0,1.5988775E0,-5.8252487E-2,-2.3922124E0,2.10909E-2,-8.16949E-3,8.686765E-4,2.6830507E-2,3.952596E-2,-0E0,-3.467067E-2,-1.5130058E-3,7.597336E-2,2.57433E-2,-1.3982528E-2,1.9188778E-2,-2.649022E-2,2.4824069E-4,3.4116223E-2,-0E0,-2.8242972E-2,-0E0],"categories":[],"categories_nodes":[],"categories_segments":[],"categories_sizes":[],"default_left":[0,0,0,0,0,0,0,0,0,0,0,0,0,0,0,0,0,0,0,0,0,0,0,0,0,0,0,0,0,0,0,0,0,0,0,0,0,0,0,0,0],"id":0,"left_children":[1,3,5,7,9,11,13,15,17,19,21,23,-1,25,-1,27,29,31,33,35,37,-1,39,-1,-1,-1,-1,-1,-1,-1,-1,-1,-1,-1,-1,-1,-1,-1,-1,-1,-1],"loss_changes":[9.0180244E1,1.8314612E2,2.0867622E1,9.351751E1,9.896175E1,4.849788E1,9.393143E0,1.262542E2,9.173676E1,3.9318012E1,3.8270523E1,1.8124464E1,0E0,9.730619E0,0E0,4.9389885E1,5.6165688E1,4.5520905E1,3.895241E1,2.4989653E1,2.1564013E1,0E0,1.776857E1,0E0,0E0,0E0,0E0,0E0,0E0,0E0,0E0,0E0,0E0,0E0,0E0,0E0,0E0,0E0,0E0,0E0,0E0],"parents":[2147483647,0,0,1,1,2,2,3,3,4,4,5,5,6,6,7,7,8,8,9,9,10,10,11,11,13,13,15,15,16,16,17,17,18,18,19,19,20,20,22,22],"right_children":[2,4,6,8,10,12,14,16,18,20,22,24,-1,26,-1,28,30,32,34,36,38,-1,40,-1,-1,-1,-1,-1,-1,-1,-1,-1,-1,-1,-1,-1,-1,-1,-1,-1,-1],"split_conditions":[1.3918989E0,6.9256556E-1,1.62501E0,6.2154245E-1,-7.582082E-2,3.8946274E-1,5.452478E-1,-1.0713459E0,2.3367764E-1,5.452478E-1,-6.824615E-1,3.591973E-1,4.8202086E-2,7.0484966E-2,-2.6424346E-3,3.8946274E-1,-1.5625572E0,-4.7298995E-1,9.4754344E-1,9.256767E-1,9.256767E-1,-5.8252487E-2,1.5491277E0,2.10909E-2,-8.16949E-3,8.686765E-4,2.6830507E-2,3.952596E-2,-0E0,-3.467067E-2,-1.5130058E-3,7.597336E-2,2.57433E-2,-1.3982528E-2,1.9188778E-2,-2.649022E-2,2.4824069E-4,3.4116223E-2,-0E0,-2.8242972E-2,-0E0],"split_indices":[7,7,7,1,3,0,0,1,0,0,1,3,0,1,0,0,3,7,1,7,7,0,3,0,0,0,0,0,0,0,0,0,0,0,0,0,0,0,0,0,0],"split_type":[0,0,0,0,0,0,0,0,0,0,0,0,0,0,0,0,0,0,0,0,0,0,0,0,0,0,0,0,0,0,0,0,0,0,0,0,0,0,0,0,0],"sum_hessian":[1.97E2,1.73E2,2.4E1,1.31E2,4.2E1,1.3E1,1.1E1,1.07E2,2.4E1,1.9E1,2.3E1,7E0,6E0,7E0,4E0,1.4E1,9.3E1,1.1E1,1.3E1,1.2E1,7E0,5E0,1.8E1,4E0,3E0,4E0,3E0,1E1,4E0,5E0,8.8E1,3E0,8E0,6E0,7E0,6E0,6E0,3E0,4E0,1.5E1,3E0],"tree_param":{"num_deleted":"0","num_feature":"8","num_nodes":"41","size_leaf_vector":"1"}},{"base_weights":[-4.1569922E-2,-3.5713506E-1,2.473668E0,7.069022E-1,-1.4310098E0,4.9618983E0,-5.633304E-1,-1.9145126E0,1.0498551E0,-1.0105852E0,-3.0469587E0,3.1175321E-2,5.9869856E-2,-2.6307747E-2,1.8039161E-2,1.7742267E-2,-4.9403436E-2,6.961513E-1,3.0773757E0,-7.377008E-1,-5.60937E-2,-3.6111345E0,-1.4985779E-3,1.8612312E-2,-1.9570778E-3,-0E0,4.4223715E-2,1.1289394E-2,-1.1941609E-2,-4.630869E-2,-2.3532892E-2],"categories":[],"categories_nodes":[],"categories_segments":[],"categories_sizes":[],"default_left":[0,0,0,0,0,0,0,0,0,0,0,0,0,0,0,0,0,0,0,0,0,0,0,0,0,0,0,0,0,0,0],"id":1,"left_children":[1,3,5,7,9,11,13,15,17,19,21,-1,-1,-1,-1,-1,-1,23,25,27,-1,29,-1,-1,-1,-1,-1,-1,-1,-1,-1],"loss_changes":[1.4635423E2,1.9147992E2,1.6070956E2,7.520865E1,5.113147E1,3.3055115E0,4.9694134E1,1.1358304E2,4.8582375E1,7.629212E1,2.293724E1,0E0,0E0,0E0,0E0,0E0,0E0,6.8868774E1,4.724273E1,5.56963E1,0E0,4.8829803E0,0E0,0E0,0E0,0E0,0E0,0E0,0E0,0E0,0E0],"parents":[2147483647,0,0,1,1,2,2,3,3,4,4,5,5,6,6,7,7,8,8,9,9,10,10,17,17,18,18,19,19,21,21],"right_children":[2,4,6,8,10,12,14,16,18,20,22,-1,-1,-1,-1,-1,-1,24,26,28,-1,30,-1,-1,-1,-1,-1,-1,-1,-1,-1],"split_conditions":[1.284423E0,-1.46991415E-2,1.7183388E0,-1.5264235E0,1.1908686E0,-4.0310186E-1,2.6128438E-1,-4.221822E-1,1.2619606E0,1.2288641E0,1.0187011E0,3.1175321E-2,5.9869856E-2,-2.6307747E-2,1.8039161E-2,1.7742267E-2,-4.9403436E-2,7.6015294E-3,1.06174774E-1,-7.182652E-1,-5.60937E-2,-3.1772757E-1,-1.4985779E-3,1.8612312E-2,-1.9570778E-3,-0E0,4.4223715E-2,1.1289394E-2,-1.1941609E-2,-4.630869E-2,-2.3532892E-2],"split_indices":[5,2,5,1,2,2,3,3,1,1,1,0,0,0,0,0,0,1,5,5,0,5,0,0,0,0,0,0,0,0,0],"split_type":[0,0,0,0,0,0,0,0,0,0,0,0,0,0,0,0,0,0,0,0,0,0,0,0,0,0,0,0,0,0,0],"sum_hessian":[1.86E2,1.66E2,2E1,8.3E1,8.3E1,1.1E1,9E0,9E0,7.4E1,6.7E1,1.6E1,5E0,6E0,5E0,4E0,4E0,5E0,6.4E1,1E1,6.4E1,3E0,1.3E1,3E0,2.8E1,3.6E1,3E0,7E0,1.2E1,5.2E1,6E0,7E0],"tree_param":{"num_deleted":"0","num_feature":"8","num_nodes":"31","size_leaf_vector":"1"}},{"base_weights":[3.0131558E-1,-3.7816428E-2,2.516117E0,3.1974834E-1,-2.0262241E0,2.7632463E0,3.5287747E-3,-3.5329735E0,6.204791E-1,-5.9693587E-1,-4.563888E0,1.9421417E-2,4.033165E-2,-1.2793317E-2,-4.320859E-2,-1.1736156E0,9.998298E-1,1.3009919E-2,-1.3363124E0,-6.104628E-2,-2.2938272E-2,1.2919465E-2,-5.995461E-2,2.0341286E-2,2.010699E-3,-0E0,-1.8628102E-2],"categories":[],"categories_nodes":[],"categories_segments":[],"categories_sizes":[],"default_left":[0,0,0,0,0,0,0,0,0,0,0,0,0,0,0,0,0,0,0,0,0,0,0,0,0,0,0],"id":2,"left_children":[1,3,5,7,9,11,-1,13,15,17,19,-1,-1,-1,-1,21,23,-1,25,-1,-1,-1,-1,-1,-1,-1,-1],"loss_changes":[1.3885236E2,1.1401048E2,9.494019E0,1.5286095E2,8.2339806E1,1.2527023E1,0E0,8.504227E0,8.5146515E1,2.4058762E1,1.4329422E1,0E0,0E0,0E0,0E0,2.6418048E2,8.30675E1,0E0,1.0643951E1,0E0,0E0,0E0,0E0,0E0,0E0,0E0,0E0],"parents":[2147483647,0,0,1,1,2,2,3,3,4,4,5,5,7,7,8,8,9,9,10,10,15,15,16,16,18,18],"right_children":[2,4,6,8,10,12,-1,14,16,18,20,-1,-1,-1,-1,22,24,-1,26,-1,-1,-1,-1,-1,-1,-1,-1],"split_conditions":[1.3918989E0,9.256767E-1,7.145031E-1,-1.7127771E0,8.5400626E-2,-4.2273206E-1,3.5287747E-3,-1.1876612E0,-1.1723232E0,-4.921412E-1,-1.8559948E-1,1.9421417E-2,4.033165E-2,-1.2793317E-2,-4.320859E-2,-1.4054344E0,-2.3987885E-1,1.3009919E-2,-9.2019486E-1,-6.104628E-2,-2.2938272E-2,1.2919465E-2,-5.995461E-2,2.0341286E-2,2.010699E-3,-0E0,-1.8628102E-2],"split_indices":[7,7,2,4,4,2,0,2,7,3,2,0,0,0,0,7,7,0,4,0,0,0,0,0,0,0,0],"split_type":[0,0,0,0,0,0,0,0,0,0,0,0,0,0,0,0,0,0,0,0,0,0,0,0,0,0,0],"sum_hessian":[1.81E2,1.57E2,2.4E1,1.33E2,2.4E1,2.1E1,3E0,9E0,1.24E2,1.6E1,8E0,1.4E1,7E0,3E0,6E0,2.1E1,1.03E2,4E0,1.2E1,4E0,4E0,1.4E1,7E0,4.4E1,5.9E1,3E0,9E0],"tree_param":{"num_deleted":"0","num_feature":"8","num_nodes":"27","size_leaf_vector":"1"}},{"base_weights":[2.798423E-1,-3.6185797E-2,4.2662E-1,-8.843065E-2,1.3311229E0,7.219022E-1,-1.0226535E0,-9.116063E-1,2.2788146E0,-2.5521953E-2,1.1928327E0,-1.5592296E-1,-1.8029093E0,2.091383E0,-2.397801E0,3.8218691E0,1.4516159E0,4.69155E-3,2.297554E-2,4.0226607E-3,-3.1517655E-2,-2.7077436E-2,-1.2354833E-2,3.1891815E-2,4.0910123E-3,4.0911842E-4,-6.1305568E-2,4.3395918E-2,1.1411637E-2,7.241345E-3,5.513823E-2],"categories":[],"categories_nodes":[],"categories_segments":[],"categories_sizes":[],"default_left":[0,0,0,0,0,0,0,0,0,0,0,0,0,0,0,0,0,0,0,0,0,0,0,0,0,0,0,0,0,0,0],"id":3,"left_children":[1,-1,3,5,7,9,11,13,15,-1,17,19,21,23,25,27,29,-1,-1,-1,-1,-1,-1,-1,-1,-1,-1,-1,-1,-1,-1],"loss_changes":[1.03151085E2,0E0,8.445842E1,8.659296E1,1.416206E2,9.344608E1,3.4081127E1,8.98428E1,5.130574E1,0E0,3.946556E1,4.7697952E1,8.503326E0,7.7536106E0,1.2910715E2,1.3554993E1,8.485387E1,0E0,0E0,0E0,0E0,0E0,0E0,0E0,0E0,0E0,0E0,0E0,0E0,0E0,0E0],"parents":[2147483647,0,0,2,2,3,3,4,4,5,5,6,6,7,7,8,8,10,10,11,11,12,12,13,13,14,14,15,15,16,16],"right_children":[2,-1,4,6,8,10,12,14,16,-1,18,20,22,24,26,28,30,-1,-1,-1,-1,-1,-1,-1,-1,-1,-1,-1,-1,-1,-1],"split_conditions":[-1.806849E0,-3.6185797E-2,3.498352E-1,-3.6779478E-1,-4.5078564E-1,-1.9532562E0,-7.789254E-2,-1.0250107E0,-5.4174495E-1,-2.5521953E-2,4.0221727E-1,7.241418E-1,-4.4582117E-1,7.789254E-2,1.1509105E0,1.7183388E0,1.0531511E0,4.69155E-3,2.297554E-2,4.0226607E-3,-3.1517655E-2,-2.7077436E-2,-1.2354833E-2,3.1891815E-2,4.0910123E-3,4.0911842E-4,-6.1305568E-2,4.3395918E-2,1.1411637E-2,7.241345E-3,5.513823E-2],"split_indices":[4,0,5,5,1,5,0,1,4,0,4,1,1,0,5,5,4,0,0,0,0,0,0,0,0,0,0,0,0,0,0],"split_type":[0,0,0,0,0,0,0,0,0,0,0,0,0,0,0,0,0,0,0,0,0,0,0,0,0,0,0,0,0,0,0],"sum_hessian":[1.84E2,6E0,1.78E2,1.13E2,6.5E1,6E1,5.3E1,1.9E1,4.6E1,7E0,5.3E1,2.6E1,2.7E1,6E0,1.3E1,1.5E1,3.1E1,3.3E1,2E1,2.2E1,4E0,9E0,1.8E1,3E0,3E0,8E0,5E0,1.2E1,3E0,2.7E1,4E0],"tree_param":{"num_deleted":"0","num_feature":"8","num_nodes":"31","size_leaf_vector":"1"}},{"base_weights":[-3.09535E-2,-4.9861652E-1,1.3438377E0,-6.638927E-1,3.1363897E-2,6.6289216E-1,4.631981E0,-5.1770306E-1,-4.2093605E-2,-9.4391257E-1,1.3960207E0,1.7227305E-2,6.804344E-2,-3.628595E-1,-3.575749E-2,1.5675478E0,-4.9212683E-2,3.2149992E0,5.1330864E-1,-2.899681E-2,-1.8586016E-3,-0E0,2.811255E-2,-0E0,5.418238E-2,-5.2985814E-3,1.530404E-2],"categories":[],"categories_nodes":[],"categories_segments":[],"categories_sizes":[],"default_left":[0,0,0,0,0,0,0,0,0,0,0,0,0,0,0,0,0,0,0,0,0,0,0,0,0,0,0],"id":4,"left_children":[1,3,5,7,-1,9,11,13,-1,15,17,-1,-1,19,-1,21,-1,23,25,-1,-1,-1,-1,-1,-1,-1,-1],"loss_changes":[1.3097084E2,9.078833E1,1.0848077E2,7.063415E1,0E0,5.2353725E1,3.9331467E1,6.2889076E1,0E0,1.4206201E2,4.4418392E1,0E0,0E0,5.7935635E1,0E0,1.467794E1,0E0,6.3271088E1,2.42175E1,0E0,0E0,0E0,0E0,0E0,0E0,0E0,0E0],"parents":[2147483647,0,0,1,1,2,2,3,3,5,5,6,6,7,7,9,9,10,10,13,13,15,15,17,17,18,18],"right_children":[2,4,6,8,-1,10,12,14,-1,16,18,-1,-1,20,-1,22,-1,24,26,-1,-1,-1,-1,-1,-1,-1,-1],"split_conditions":[6.044176E-1,1.6357435E0,8.598376E-1,1.9404398E0,3.1363897E-2,-3.8946274E-1,1.1342475E0,4.9088266E-1,-4.2093605E-2,1.0098997E0,2.3367764E-1,1.7227305E-2,6.804344E-2,-1.806849E0,-3.575749E-2,9.1042143E-1,-4.9212683E-2,1.166686E0,-1.4464259E-1,-2.899681E-2,-1.8586016E-3,-0E0,2.811255E-2,-0E0,5.418238E-2,-5.2985814E-3,1.530404E-2],"split_indices":[4,0,1,1,0,0,4,4,0,4,0,0,0,4,0,4,0,4,1,0,0,0,0,0,0,0,0],"split_type":[0,0,0,0,0,0,0,0,0,0,0,0,0,0,0,0,0,0,0,0,0,0,0,0,0,0,0],"sum_hessian":[2.04E2,1.53E2,5.1E1,1.47E2,6E0,4.3E1,8E0,1.42E2,5E0,1.3E1,3E1,4E0,4E0,1.36E2,6E0,8E0,5E0,9E0,2.1E1,8E0,1.28E2,4E0,4E0,4E0,5E0,1E1,1.1E1],"tree_param":{"num_deleted":"0","num_feature":"8","num_nodes":"27","size_leaf_vector":"1"}},{"base_weights":[3.4039695E-2,2.499519E-1,-5.6775793E-2,-9.323226E-2,3.8821626E0,-3.0374864E-1,2.1518269E0,6.354747E-2,-0E0,-2.932661E0,-1.5626653E-1,4.781184E-2,-1.3707148E-1,2.6700942E-2,-2.7262589E-2,-5.9401333E-2,-4.5442476E-4,1.3738803E-2,-5.656994E-3,-3.0788321E-2,3.3790596E-2],"categories":[],"categories_nodes":[],"categories_segments":[],"categories_sizes":[],"default_left":[0,0,0,0,0,0,0,0,0,0,0,0,0,0,0,0,0,0,0,0,0],"id":5,"left_children":[1,3,-1,5,7,9,11,-1,13,15,17,-1,19,-1,-1,-1,-1,-1,-1,-1,-1],"loss_changes":[2.2034247E2,2.2398018E2,0E0,7.480713E1,1.500333E2,5.425799E1,8.6219284E1,0E0,5.096662E1,5.9003685E1,8.822909E1,0E0,8.2478676E1,0E0,0E0,0E0,0E0,0E0,0E0,0E0,0E0],"parents":[2147483647,0,0,1,1,3,3,4,4,5,5,6,6,8,8,9,9,10,10,12,12],"right_children":[2,4,-1,6,8,10,12,-1,14,16,18,-1,20,-1,-1,-1,-1,-1,-1,-1,-1],"split_conditions":[1.9723375E0,1.2730787E0,-5.6775793E-2,1.284423E0,-1.9718824E-1,-1.6731039E0,1.7183388E0,6.354747E-2,1.8272157E-1,-1.5396892E0,-8.4176433E-1,4.781184E-2,2.6128438E-1,2.6700942E-2,-2.7262589E-2,-5.9401333E-2,-4.5442476E-4,1.3738803E-2,-5.656994E-3,-3.0788321E-2,3.3790596E-2],"split_indices":[6,6,0,5,3,3,5,0,2,2,5,0,3,0,0,0,0,0,0,0,0],"split_type":[0,0,0,0,0,0,0,0,0,0,0,0,0,0,0,0,0,0,0,0,0],"sum_hessian":[1.82E2,1.76E2,6E0,1.61E2,1.5E1,1.48E2,1.3E1,9E0,6E0,7E0,1.41E2,6E0,7E0,3E0,3E0,3E0,4E0,2.9E1,1.12E2,4E0,3E0],"tree_param":{"num_deleted":"0","num_feature":"8","num_nodes":"21","size_leaf_vector":"1"}},{"base_weights":[1.9718696E-1,1.1177052E0,-4.460894E-1,1.431436E0,-1.7725432E0,-6.3859105E-1,3.0701779E-2,5.5046357E-2,1.1300056E0,1.5121517E-2,-4.3525785E-2,1.0585767E0,-1.1097059E0,-2.4925295E-2,1.4610453E0,1.8512535E0,-3.223276E-2,-2.322547E0,-6.870164E-1,3.741328E-2,8.502562E-3,2.5343258E-2,-0E0,-1.3255916E-2,-3.5343908E-2,-1.0956095E-3,-1.8186433E-2],"categories":[],"categories_nodes":[],"categories_segments":[],"categories_sizes":[],"default_left":[0,0,0,0,0,0,0,0,0,0,0,0,0,0,0,0,0,0,0,0,0,0,0,0,0,0,0],"id":6,"left_children":[1,3,5,7,9,11,-1,-1,13,-1,-1,15,17,-1,19,21,-1,23,25,-1,-1,-1,-1,-1,-1,-1,-1],"loss_changes":[1.1135645E2,7.12014E1,7.266788E1,7.681412E1,6.9691025E1,8.419261E1,0E0,0E0,8.053636E1,0E0,0E0,7.7979355E1,3.8486687E1,0E0,7.947333E1,2.6301476E1,0E0,1.7564598E1,3.8813683E1,0E0,0E0,0E0,0E0,0E0,0E0,0E0,0E0],"parents":[2147483647,0,0,1,1,2,2,3,3,4,4,5,5,8,8,11,11,12,12,14,14,15,15,17,17,18,18],"right_children":[2,4,6,8,10,12,-1,-1,14,-1,-1,16,18,-1,20,22,-1,24,26,-1,-1,-1,-1,-1,-1,-1,-1],"split_conditions":[-1.98948E-1,1.8852295E0,1.3278146E0,-1.6829895E0,-7.0103294E-1,-7.182652E-1,3.0701779E-2,5.5046357E-2,-1.3691388E0,1.5121517E-2,-4.3525785E-2,1.012603E0,-5.363385E-1,-2.4925295E-2,-9.85072E-1,1.2345458E0,-3.223276E-2,4.370698E-1,7.0103294E-1,3.741328E-2,8.502562E-3,2.5343258E-2,-0E0,-1.3255916E-2,-3.5343908E-2,-1.0956095E-3,-1.8186433E-2],"split_indices":[2,5,5,2,0,5,0,0,5,0,0,0,4,0,4,2,0,2,0,0,0,0,0,0,0,0,0],"split_type":[0,0,0,0,0,0,0,0,0,0,0,0,0,0,0,0,0,0,0,0,0,0,0,0,0,0,0],"sum_hessian":[1.86E2,7.7E1,1.09E2,7E1,7E0,1.04E2,5E0,4E0,6.6E1,3E0,4E0,2.2E1,8.2E1,5E0,6.1E1,1.9E1,3E0,2E1,6.2E1,1.2E1,4.9E1,1.4E1,5E0,1.2E1,8E0,4.2E1,2E1],"tree_param":{"num_deleted":"0","num_feature":"8","num_nodes":"27","size_leaf_vector":"1"}},{"base_weights":[-1.9959229E-1,-4.6947336E-1,1.3820525E0,-6.923806E-2,-1.6307824E0,-5.3252023E-1,2.2324548E0,-1.5633614E0,2.8895935E-1,-1.8281736E0,-0E0,9.1209775E-3,-3.0122742E-2,1.0472753E0,3.92559E-2,-1.1698132E-2,-2.5641053E0,-3.322733E-1,1.3931729E0,2.1826634E-1,-2.2531824E0,-1.4153592E-2,2.4070656E0,-2.8316796E-2,1.1717398E-2,-4.7658343E-2,-1.6955743E-2,3.383575E-2,-6.2731835E-3,3.3516448E-3,3.5916623E-2,-1.8372782E-2,2.5283443E-2,-1.4883169E-2,-4.1176233E-2,1.0096383E-2,3.9734423E-2],"categories":[],"categories_nodes":[],"categories_segments":[],"categories_sizes":[],"default_left":[0,0,0,0,0,0,0,0,0,0,0,0,0,0,0,0,0,0,0,0,0,0,0,0,0,0,0,0,0,0,0,0,0,0,0,0,0],"id":7,"left_children":[1,3,5,7,9,11,13,15,17,19,-1,-1,-1,21,-1,23,25,27,29,31,33,-1,35,-1,-1,-1,-1,-1,-1,-1,-1,-1,-1,-1,-1,-1,-1],"loss_changes":[8.115477E1,7.470261E1,4.706866E1,6.7596375E1,1.4965988E1,3.3923447E1,3.21016E1,3.5453217E1,6.954672E1,3.4896614E1,0E0,0E0,0E0,4.4553474E1,0E0,3.8360302E1,1.7226097E1,6.79228E1,8.037101E1,3.3878746E1,3.625035E1,0E0,1.161668E1,0E0,0E0,0E0,0E0,0E0,0E0,0E0,0E0,0E0,0E0,0E0,0E0,0E0,0E0],"parents":[2147483647,0,0,1,1,2,2,3,3,4,4,5,5,6,6,7,7,8,8,9,9,13,13,15,15,16,16,17,17,18,18,19,19,20,20,22,22],"right_children":[2,4,6,8,10,12,14,16,18,20,-1,-1,-1,22,-1,24,26,28,30,32,34,-1,36,-1,-1,-1,-1,-1,-1,-1,-1,-1,-1,-1,-1,-1,-1],"split_conditions":[1.3918989E0,6.9256556E-1,-7.1721286E-1,-1.1723232E0,1.6778558E0,-1.4519562E0,5.9556556E-1,-6.581846E-1,3.1870908E-1,-8.11538E-1,-0E0,9.1209775E-3,-3.0122742E-2,1.3287729E-1,3.92559E-2,-1.6194749E0,-3.0771413E-1,-1.6194749E0,6.3354933E-1,-1.2980572E0,5.8674115E-1,-1.4153592E-2,8.171291E-1,-2.8316796E-2,1.1717398E-2,-4.7658343E-2,-1.6955743E-2,3.383575E-2,-6.2731835E-3,3.3516448E-3,3.5916623E-2,-1.8372782E-2,2.5283443E-2,-1.4883169E-2,-4.1176233E-2,1.0096383E-2,3.9734423E-2],"split_indices":[7,7,1,7,3,1,3,5,1,1,0,0,0,5,0,5,5,5,5,1,3,0,5,0,0,0,0,0,0,0,0,0,0,0,0,0,0],"split_type":[0,0,0,0,0,0,0,0,0,0,0,0,0,0,0,0,0,0,0,0,0,0,0,0,0,0,0,0,0,0,0,0,0,0,0,0,0],"sum_hessian":[1.91E2,1.64E2,2.7E1,1.23E2,4.1E1,8E0,1.9E1,2.4E1,9.9E1,3.7E1,4E0,5E0,3E0,1.2E1,7E0,1E1,1.4E1,6.3E1,3.6E1,6E0,3.1E1,4E0,8E0,3E0,7E0,3E0,1.1E1,4E0,5.9E1,2.5E1,1.1E1,3E0,3E0,2.3E1,8E0,5E0,3E0],"tree_param":{"num_deleted":"0","num_feature":"8","num_nodes":"37","size_leaf_vector":"1"}},{"base_weights":[2.0433299E-3,-2.437551E-1,2.1015933E0,-5.248465E-1,2.5744483E0,-1.6720114E-2,3.5294573E0,3.3059403E-2,-1.6611942E0,4.2163584E-2,1.6529416E0,4.2564716E0,3.5077408E-3,-2.9417333E-1,2.0304296E0,-5.101356E0,-1.011034E0,2.6876273E-2,-0E0,5.5110846E-2,3.15773E-3,1.642089E-2,-4.6321256E-3,4.2439207E-2,5.368071E-3,-2.4493422E-2,-6.374994E-2,-4.0767007E-2,-3.2094903E-3],"categories":[],"categories_nodes":[],"categories_segments":[],"categories_sizes":[],"default_left":[0,0,0,0,0,0,0,0,0,0,0,0,0,0,0,0,0,0,0,0,0,0,0,0,0,0,0,0,0],"id":8,"left_children":[1,3,5,7,9,-1,11,13,15,-1,17,19,-1,21,23,25,27,-1,-1,-1,-1,-1,-1,-1,-1,-1,-1,-1,-1],"loss_changes":[9.5779976E1,1.2735406E2,1.0987789E2,9.580091E1,1.2584953E1,0E0,2.8154968E1,6.7068596E1,1.02023254E2,0E0,1.826345E1,5.015959E1,0E0,2.7185959E1,4.201893E1,8.701187E0,8.4859886E1,0E0,0E0,0E0,0E0,0E0,0E0,0E0,0E0,0E0,0E0,0E0,0E0],"parents":[2147483647,0,0,1,1,2,2,3,3,4,4,6,6,7,7,8,8,10,10,11,11,13,13,14,14,15,15,16,16],"right_children":[2,4,6,8,10,-1,12,14,16,-1,18,20,-1,22,24,26,28,-1,-1,-1,-1,-1,-1,-1,-1,-1,-1,-1,-1],"split_conditions":[1.4953969E0,1.4799584E0,-1.2748897E0,8.5400626E-2,-1.0542743E0,-1.6720114E-2,1.012603E0,-9.084891E-2,-1.5977063E0,4.2163584E-2,-1.749549E-1,9.6494246E-1,3.5077408E-3,-1.5677941E0,-1.1022136E-3,-1.9516945E0,2.8651974E-1,2.6876273E-2,-0E0,5.5110846E-2,3.15773E-3,1.642089E-2,-4.6321256E-3,4.2439207E-2,5.368071E-3,-2.4493422E-2,-6.374994E-2,-4.0767007E-2,-3.2094903E-3],"split_indices":[4,0,1,4,4,0,0,4,3,0,3,3,0,1,4,3,4,0,0,0,0,0,0,0,0,0,0,0,0],"split_type":[0,0,0,0,0,0,0,0,0,0,0,0,0,0,0,0,0,0,0,0,0,0,0,0,0,0,0,0,0],"sum_hessian":[1.81E2,1.62E2,1.9E1,1.48E2,1.4E1,5E0,1.4E1,9.9E1,4.9E1,4E0,1E1,1.1E1,3E0,8.5E1,1.4E1,7E0,4.2E1,6E0,4E0,8E0,3E0,6E0,7.9E1,5E0,9E0,3E0,4E0,7E0,3.5E1],"tree_param":{"num_deleted":"0","num_feature":"8","num_nodes":"29","size_leaf_vector":"1"}},{"base_weights":[-8.885866E-2,8.5435055E-2,-5.4244593E-2,-3.6656862E-1,2.5398576E0,-5.112017E-1,4.5783762E-2,4.2940397E0,1.3889332E0,2.3636448E0,-7.3884565E-1,-0E0,5.710823E-2,3.0921042E-1,3.92739E-2,-0E0,5.8683146E-2,-3.4515005E-2,-5.8538746E-3,1.540154E-2,-8.090139E-3],"categories":[],"categories_nodes":[],"categories_segments":[],"categories_sizes":[],"default_left":[0,0,0,0,0,0,0,0,0,0,0,0,0,0,0,0,0,0,0,0,0],"id":9,"left_children":[1,3,-1,5,7,9,-1,11,13,15,17,-1,-1,19,-1,-1,-1,-1,-1,-1,-1],"loss_changes":[1.9109808E2,2.1730925E2,0E0,1.1403863E2,5.2912354E1,1.0363181E2,0E0,6.516878E1,4.860239E1,9.071863E1,5.6770355E1,0E0,0E0,2.1312977E1,0E0,0E0,0E0,0E0,0E0,0E0,0E0],"parents":[2147483647,0,0,1,1,3,3,4,4,5,5,7,7,8,8,9,9,10,10,13,13],"right_children":[2,4,-1,6,8,10,-1,12,14,16,18,-1,-1,20,-1,-1,-1,-1,-1,-1,-1],"split_conditions":[1.7981167E0,8.953364E-1,-5.4244593E-2,1.772206E0,-2.1268913E-1,-1.4527713E0,4.5783762E-2,-1.5498611E0,2.9733258E-1,4.660131E-1,-1.6103579E0,-0E0,5.710823E-2,-1.749549E-1,3.92739E-2,-0E0,5.8683146E-2,-3.4515005E-2,-5.8538746E-3,1.540154E-2,-8.090139E-3],"split_indices":[6,6,0,4,2,3,0,3,4,4,2,0,0,3,0,0,0,0,0,0,0],"split_type":[0,0,0,0,0,0,0,0,0,0,0,0,0,0,0,0,0,0,0,0,0],"sum_hessian":[1.99E2,1.93E2,6E0,1.63E2,3E1,1.59E2,4E0,1.1E1,1.9E1,1.1E1,1.48E2,3E0,8E0,1.4E1,5E0,7E0,4E0,7E0,1.41E2,7E0,7E0],"tree_param":{"num_deleted":"0","num_feature":"8","num_nodes":"21","size_leaf_vector":"1"}},{"base_weights":[3.436095E-2,-4.8515663E-1,7.81456E-1,-7.4464837E-3,-2.5637028E0,4.2043364E-1,3.9519887E-2,-6.584264E-1,5.0828886E-1,-1.0163402E-3,-3.2071044E0,1.6441293E0,-6.1192185E-1,-6.2637046E-2,-1.8595925E-2,3.3043604E0,-0E0,-3.7016936E-2,-4.142197E-3,2.233411E0,-6.499874E-1,2.5325456E0,-1.1909102E0,-8.981977E-3,1.28074605E-2,5.6528434E-2,3.6650402E-3,7.571655E-3,-3.5041258E-2,2.6504172E-2,-1.5555985E-3,2.6454162E-3,-2.0186692E-2,3.397241E-2,1.020344E-2,-1.6536592E-2,9.182122E-3],"categories":[],"categories_nodes":[],"categories_segments":[],"categories_sizes":[],"default_left":[0,0,0,0,0,0,0,0,0,0,0,0,0,0,0,0,0,0,0,0,0,0,0,0,0,0,0,0,0,0,0,0,0,0,0,0,0],"id":10,"left_children":[1,3,5,7,9,11,-1,13,15,-1,17,19,21,-1,23,25,27,-1,-1,29,31,33,35,-1,-1,-1,-1,-1,-1,-1,-1,-1,-1,-1,-1,-1,-1],"loss_changes":[8.141077E1,1.1905478E2,9.380757E1,3.4058674E1,3.21705E1,1.0070343E2,0E0,1.5684195E2,7.847094E1,0E0,1.9290726E1,5.1652916E1,7.754232E1,0E0,4.762313E1,5.1590546E1,1.2701597E2,0E0,0E0,3.20894E1,1.1408884E1,2.3485947E0,3.711844E1,0E0,0E0,0E0,0E0,0E0,0E0,0E0,0E0,0E0,0E0,0E0,0E0,0E0,0E0],"parents":[2147483647,0,0,1,1,2,2,3,3,4,4,5,5,7,7,8,8,10,10,11,11,12,12,14,14,15,15,16,16,19,19,20,20,21,21,22,22],"right_children":[2,4,6,8,10,12,-1,14,16,-1,18,20,22,-1,24,26,28,-1,-1,30,32,34,36,-1,-1,-1,-1,-1,-1,-1,-1,-1,-1,-1,-1,-1,-1],"split_conditions":[2.6128438E-1,6.0955934E-2,1.1342214E0,-1.1745874E-1,-5.179964E-1,-2.6098472E-1,3.9519887E-2,-1.6731039E0,-1.5977063E0,-1.0163402E-3,5.077385E-1,1.2625189E0,4.4240886E-1,-6.2637046E-2,2.8591743E-1,-5.452478E-1,1.050776E0,-3.7016936E-2,-4.142197E-3,1.4384477E0,2.3367764E-1,-5.452478E-1,1.5243201E0,-8.981977E-3,1.28074605E-2,5.6528434E-2,3.6650402E-3,7.571655E-3,-3.5041258E-2,2.6504172E-2,-1.5555985E-3,2.6454162E-3,-2.0186692E-2,3.397241E-2,1.020344E-2,-1.6536592E-2,9.182122E-3],"split_indices":[3,3,5,5,5,5,0,3,3,0,2,2,3,0,2,0,5,0,0,3,0,0,3,0,0,0,0,0,0,0,0,0,0,0,0,0,0],"split_type":[0,0,0,0,0,0,0,0,0,0,0,0,0,0,0,0,0,0,0,0,0,0,0,0,0,0,0,0,0,0,0,0,0,0,0,0,0],"sum_hessian":[2.08E2,1.22E2,8.6E1,1E2,2.2E1,7.8E1,8E0,4.5E1,5.5E1,5E0,1.7E1,3.6E1,4.2E1,4E0,4.1E1,8E0,4.7E1,1.4E1,3E0,2.9E1,7E0,6E0,3.6E1,2.5E1,1.6E1,4E0,4E0,3.9E1,8E0,2.5E1,4E0,4E0,3E0,3E0,3E0,3E1,6E0],"tree_param":{"num_deleted":"0","num_feature":"8","num_nodes":"37","size_leaf_vector":"1"}},{"base_weights":[6.2963724E-2,1.9363649E-1,-6.548638E-2,4.1471317E-2,4.3527033E-2,-4.5594764E-1,1.2334766E0,-2.2155787E-1,-3.201046E-2,1.6250222E0,-2.1495592E-2,-1.4194752E-2,2.3707261E-4,1.2432624E-2,6.0700398E-2],"categories":[],"categories_nodes":[],"categories_segments":[],"categories_sizes":[],"default_left":[0,0,0,0,0,0,0,0,0,0,0,0,0,0,0],"id":11,"left_children":[1,3,-1,-1,5,7,9,11,-1,13,-1,-1,-1,-1,-1],"loss_changes":[1.5627084E2,1.05211914E2,0E0,0E0,1.0715015E2,7.697237E1,7.208879E1,3.5641155E1,0E0,7.121442E1,0E0,0E0,0E0,0E0,0E0],"parents":[2147483647,0,0,1,1,4,4,5,5,6,6,7,7,9,9],"right_children":[2,4,-1,-1,6,8,10,12,-1,14,-1,-1,-1,-1,-1],"split_conditions":[1.8852271E0,-1.8446811E0,-6.548638E-2,4.1471317E-2,5.4689485E-1,4.6770358E-1,1.6206313E0,-1.1723232E0,-3.201046E-2,1.20639E0,-2.1495592E-2,-1.4194752E-2,2.3707261E-4,1.2432624E-2,6.0700398E-2],"split_indices":[6,6,0,0,6,6,3,7,0,3,0,0,0,0,0],"split_type":[0,0,0,0,0,0,0,0,0,0,0,0,0,0,0],"sum_hessian":[1.87E2,1.84E2,3E0,6E0,1.78E2,1.25E2,5.3E1,1.16E2,9E0,4.8E1,5E0,2E1,9.6E1,4.5E1,3E0],"tree_param":{"num_deleted":"0","num_feature":"8","num_nodes":"15","size_leaf_vector":"1"}},{"base_weights":[-1.4140016E-1,2.770604E0,-4.9610162E-1,5.1627353E-2,1.0031004E0,-2.840217E-1,-5.1493034E-2,-4.2162903E-2,3.2109022E-2,1.562579E0,-6.543005E-1,3.0187428E0,-1.2383614E0,-1.0973231E0,6.3934284E-1,3.7744258E-2,-4.1569708E-4,-2.9545715E-2,-0E0,-4.2323884E-2,-9.223906E-3,-1.1657653E-2,1.5525505E-2],"categories":[],"categories_nodes":[],"categories_segments":[],"categories_sizes":[],"default_left":[0,0,0,0,0,0,0,0,0,0,0,0,0,0,0,0,0,0,0,0,0,0,0],"id":12,"left_children":[1,3,5,-1,7,9,-1,-1,-1,11,13,15,17,19,21,-1,-1,-1,-1,-1,-1,-1,-1],"loss_changes":[1.7658662E2,6.946466E1,1.4630383E2,0E0,1.3828255E2,1.0114084E2,0E0,0E0,0E0,1.0357592E2,7.216136E1,4.1969635E1,1.7518147E1,4.4170982E1,5.321756E1,0E0,0E0,0E0,0E0,0E0,0E0,0E0,0E0],"parents":[2147483647,0,0,1,1,2,2,4,4,5,5,9,9,10,10,11,11,12,12,13,13,14,14],"right_children":[2,4,6,-1,8,10,-1,-1,-1,12,14,16,18,20,22,-1,-1,-1,-1,-1,-1,-1,-1],"split_conditions":[-1.2975903E0,-8.529087E-1,1.8852271E0,5.1627353E-2,-7.017536E-2,-8.4176433E-1,-5.1493034E-2,-4.2162903E-2,3.2109022E-2,8.758553E-2,5.152183E-1,7.241418E-1,-3.3439624E-1,-1.6174389E0,-5.0702468E-2,3.7744258E-2,-4.1569708E-4,-2.9545715E-2,-0E0,-4.2323884E-2,-9.223906E-3,-1.1657653E-2,1.5525505E-2],"split_indices":[2,1,6,0,1,5,0,0,0,6,6,1,2,1,5,0,0,0,0,0,0,0,0],"split_type":[0,0,0,0,0,0,0,0,0,0,0,0,0,0,0,0,0,0,0,0,0,0,0],"sum_hessian":[1.72E2,1.8E1,1.54E2,7E0,1.1E1,1.48E2,6E0,3E0,8E0,2.4E1,1.24E2,1.6E1,8E0,9.3E1,3.1E1,1.3E1,3E0,3E0,5E0,4E0,8.9E1,1E1,2.1E1],"tree_param":{"num_deleted":"0","num_feature":"8","num_nodes":"23","size_leaf_vector":"1"}},{"base_weights":[-1.0048643E-1,9.461514E-2,-3.4147606E0,-4.1329736E-1,1.9069484E0,-4.607311E-3,-5.043338E0,-5.935698E-1,3.0562302E-2,9.2891556E-1,3.8241005E0,-6.6893965E-2,-2.3910882E-2,-3.202341E0,-3.0500445E-1,4.0766362E-2,-2.5428253E-1,-0E0,5.528168E0,-4.7928404E-2,-5.605379E-3,-1.1648966E-3,-2.9287886E-2,-2.851241E-2,2.4368693E-3,2.9162608E-2,6.505912E-2],"categories":[],"categories_nodes":[],"categories_segments":[],"categories_sizes":[],"default_left":[0,0,0,0,0,0,0,0,0,0,0,0,0,0,0,0,0,0,0,0,0,0,0,0,0,0,0],"id":13,"left_children":[1,3,5,7,9,-1,11,13,-1,15,17,-1,-1,19,21,-1,23,-1,25,-1,-1,-1,-1,-1,-1,-1,-1],"loss_changes":[1.22136475E2,1.6159563E2,4.3848213E1,8.319425E1,6.5659805E1,0E0,1.1299469E1,9.3492004E1,0E0,1.0303665E2,7.696867E1,0E0,0E0,4.5825684E1,5.4902237E1,0E0,2.8172478E1,0E0,2.7984924E0,0E0,0E0,0E0,0E0,0E0,0E0,0E0,0E0],"parents":[2147483647,0,0,1,1,2,2,3,3,4,4,6,6,7,7,9,9,10,10,13,13,14,14,16,16,18,18],"right_children":[2,4,6,8,10,-1,12,14,-1,16,18,-1,-1,20,22,-1,24,-1,26,-1,-1,-1,-1,-1,-1,-1,-1],"split_conditions":[1.7183388E0,6.9308305E-1,-1.2668297E0,1.3278146E0,4.6764353E-1,-4.607311E-3,-6.824615E-1,-1.164262E0,3.0562302E-2,-3.574617E-1,1.1342475E0,-6.6893965E-2,-2.3910882E-2,-1.5622638E-1,1.7749572E0,4.0766362E-2,-1.1623614E0,-0E0,2.8002837E-1,-4.7928404E-2,-5.605379E-3,-1.1648966E-3,-2.9287886E-2,-2.851241E-2,2.4368693E-3,2.9162608E-2,6.505912E-2],"split_indices":[5,4,2,5,1,0,1,2,0,2,4,0,0,1,1,0,1,0,2,0,0,0,0,0,0,0,0],"split_type":[0,0,0,0,0,0,0,0,0,0,0,0,0,0,0,0,0,0,0,0,0,0,0,0,0,0,0],"sum_hessian":[1.83E2,1.73E2,1E1,1.35E2,3.8E1,4E0,6E0,1.29E2,6E0,2.6E1,1.2E1,3E0,3E0,1.2E1,1.17E2,7E0,1.9E1,4E0,8E0,7E0,5E0,1.1E2,7E0,3E0,1.6E1,3E0,5E0],"tree_param":{"num_deleted":"0","num_feature":"8","num_nodes":"27","size_leaf_vector":"1"}},{"base_weights":[1.7686172E-1,-2.2791213E-1,2.5856955E0,-9.137925E-2,-5.6245156E-2,6.0513537E-2,1.9446887E0,-3.7412363E-1,2.633959E0,2.9414222E0,-5.8122605E-1,-6.9958735E-1,1.3881785E0,3.8039281E0,-0E0,4.319316E-2,2.2477233E0,-2.89877E-2,1.5336361E-2,-3.3909585E-2,-5.2429703E-3,-4.832021E-3,2.4504943E-2,1.1451257E-2,4.789135E-2,5.2279118E-3,2.9110564E-2],"categories":[],"categories_nodes":[],"categories_segments":[],"categories_sizes":[],"default_left":[0,0,0,0,0,0,0,0,0,0,0,0,0,0,0,0,0,0,0,0,0,0,0,0,0,0,0],"id":14,"left_children":[1,3,5,7,-1,-1,9,11,13,15,17,19,21,23,-1,-1,25,-1,-1,-1,-1,-1,-1,-1,-1,-1,-1],"loss_changes":[1.7279568E2,1.04180786E2,4.2768463E1,1.1112198E2,0E0,0E0,5.9862465E1,7.6367966E1,4.380426E1,4.350052E0,3.5446323E1,4.874186E1,4.3313274E1,1.6208633E1,0E0,0E0,1.0107773E1,0E0,0E0,0E0,0E0,0E0,0E0,0E0,0E0,0E0,0E0],"parents":[2147483647,0,0,1,1,2,2,3,3,6,6,7,7,8,8,9,9,10,10,11,11,12,12,13,13,16,16],"right_children":[2,4,6,8,-1,-1,10,12,14,16,18,20,22,24,-1,-1,26,-1,-1,-1,-1,-1,-1,-1,-1,-1,-1],"split_conditions":[1.3040093E0,1.7981167E0,-1.012603E0,1.2730787E0,-5.6245156E-2,6.0513537E-2,4.5945448E-1,1.3918989E0,1.560543E0,1.4424139E0,3.8946274E-1,-1.806849E0,-3.8946274E-1,-5.452478E-1,-0E0,4.319316E-2,1.6997598E0,-2.89877E-2,1.5336361E-2,-3.3909585E-2,-5.2429703E-3,-4.832021E-3,2.4504943E-2,1.1451257E-2,4.789135E-2,5.2279118E-3,2.9110564E-2],"split_indices":[4,6,0,6,0,0,7,7,6,4,0,4,0,0,0,0,4,0,0,0,0,0,0,0,0,0,0],"split_type":[0,0,0,0,0,0,0,0,0,0,0,0,0,0,0,0,0,0,0,0,0,0,0,0,0,0,0],"sum_hessian":[1.74E2,1.49E2,2.5E1,1.46E2,3E0,3E0,2.2E1,1.33E2,1.3E1,1.6E1,6E0,1.13E2,2E1,9E0,4E0,4E0,1.2E1,3E0,3E0,6E0,1.07E2,7E0,1.3E1,3E0,6E0,4E0,8E0],"tree_param":{"num_deleted":"0","num_feature":"8","num_nodes":"27","size_leaf_vector":"1"}},{"base_weights":[-1.5127823E-1,-6.030167E-1,1.0067265E0,1.6642334E-1,-1.1880742E0,1.3511989E0,-3.526359E-2,-6.7793146E-2,3.1026797E-2,-4.936307E-1,-2.3548553E0,3.9882932E0,7.4130267E-1,2.5525165E0,-4.548494E-1,-1.1339533E0,3.5772197E-2,-5.025219E-2,-1.4462602E0,1.4454855E-2,7.128663E-2,2.084631E0,-1.7510454E-1,-0E0,4.7164414E-2,-8.696985E-3,6.283282E-3,-8.354256E-3,-3.339807E-2,5.621839E-3,-3.3041324E-2,-5.0495123E-3,3.0134954E-2,-3.5299044E-2,7.7294684E-3],"categories":[],"categories_nodes":[],"categories_segments":[],"categories_sizes":[],"default_left":[0,0,0,0,0,0,0,0,0,0,0,0,0,0,0,0,0,0,0,0,0,0,0,0,0,0,0,0,0,0,0,0,0,0,0],"id":15,"left_children":[1,3,5,7,9,11,-1,13,-1,15,17,19,21,23,25,27,-1,-1,29,-1,-1,31,33,-1,-1,-1,-1,-1,-1,-1,-1,-1,-1,-1,-1],"loss_changes":[9.4845245E1,6.0317436E1,7.906413E1,4.1996216E1,5.774521E1,7.018896E1,0E0,5.1728718E1,0E0,1.2600783E2,5.661731E1,5.4149185E1,5.0717957E1,3.550716E1,2.140962E1,2.2416294E1,0E0,0E0,8.3896515E1,0E0,0E0,4.2958E1,7.886345E1,0E0,0E0,0E0,0E0,0E0,0E0,0E0,0E0,0E0,0E0,0E0,0E0],"parents":[2147483647,0,0,1,1,2,2,3,3,4,4,5,5,7,7,9,9,10,10,11,11,12,12,13,13,14,14,15,15,18,18,21,21,22,22],"right_children":[2,4,6,8,10,12,-1,14,-1,16,18,20,22,24,26,28,-1,-1,30,-1,-1,32,34,-1,-1,-1,-1,-1,-1,-1,-1,-1,-1,-1,-1],"split_conditions":[5.199698E-1,-3.2024944E-1,1.9723375E0,1.3942136E0,2.0523496E-2,-1.0572226E0,-3.526359E-2,-1.6501658E0,3.1026797E-2,-9.084891E-2,-1.7532945E-1,1.4021604E0,-7.789254E-2,-1.9420888E0,-4.754643E-1,4.5424107E-1,3.5772197E-2,-5.025219E-2,8.758553E-2,1.4454855E-2,7.128663E-2,8.08226E-1,5.452478E-1,-0E0,4.7164414E-2,-8.696985E-3,6.283282E-3,-8.354256E-3,-3.339807E-2,5.621839E-3,-3.3041324E-2,-5.0495123E-3,3.0134954E-2,-3.5299044E-2,7.7294684E-3],"split_indices":[6,6,6,3,4,3,0,3,0,4,6,6,0,3,6,6,0,0,6,0,0,6,0,0,0,0,0,0,0,0,0,0,0,0,0],"split_type":[0,0,0,0,0,0,0,0,0,0,0,0,0,0,0,0,0,0,0,0,0,0,0,0,0,0,0,0,0,0,0,0,0,0,0],"sum_hessian":[1.81E2,1.31E2,5E1,5.6E1,7.5E1,4.7E1,3E0,5.2E1,4E0,4.8E1,2.7E1,8E0,3.9E1,6E0,4.6E1,4.2E1,6E0,6E0,2.1E1,5E0,3E0,1.6E1,2.3E1,3E0,3E0,3.4E1,1.2E1,3.8E1,4E0,1E1,1.1E1,4E0,1.2E1,5E0,1.8E1],"tree_param":{"num_deleted":"0","num_feature":"8","num_nodes":"35","size_leaf_vector":"1"}},{"base_weights":[-2.0543967E-1,4.6987858E-1,-7.97352E-1,-1.1432433E0,9.518914E-1,9.9822146E-1,-1.4298751E0,1.6357819E-2,-2.0352428E0,-1.4965478E0,1.2861809E0,3.0335212E0,-1.3474878E0,-5.28535E-2,-1.2045552E0,-3.6972747E0,-1.0419477E-1,5.8024297E-3,-3.1677686E-2,1.581849E0,-0E0,-1.4565658E-3,4.0440316E0,-2.8940485E0,2.3152288E-2,-2.0223026E0,-0E0,-5.1354885E-2,-1.0342462E-2,-9.716532E-3,3.5985012E-3,-7.5705633E-3,1.8344171E-2,1.1435058E-2,-2.7037308E-2,7.5527416E-3,6.783332E-2,-0E0,-4.6180356E-2,-2.8278165E-2,-7.0434897E-3,7.778025E-3,-3.0735938E-2],"categories":[],"categories_nodes":[],"categories_segments":[],"categories_sizes":[],"default_left":[0,0,0,0,0,0,0,0,0,0,0,0,0,0,0,0,0,0,0,0,0,0,0,0,0,0,0,0,0,0,0,0,0,0,0,0,0,0,0,0,0,0,0],"id":16,"left_children":[1,3,5,7,9,11,13,-1,15,17,19,21,23,-1,25,27,29,-1,-1,31,33,-1,35,37,-1,39,41,-1,-1,-1,-1,-1,-1,-1,-1,-1,-1,-1,-1,-1,-1,-1,-1],"loss_changes":[7.066728E1,6.3722725E1,1.084729E2,4.7923515E1,5.272599E1,1.2069827E2,5.157129E1,0E0,4.2543125E1,2.9537386E1,2.2888695E1,4.756289E1,6.907206E1,0E0,6.769385E1,1.9899612E1,3.8056753E0,0E0,0E0,2.924083E1,3.5392605E1,0E0,8.449313E1,4.6102524E1,0E0,3.8467957E1,6.5570366E1,0E0,0E0,0E0,0E0,0E0,0E0,0E0,0E0,0E0,0E0,0E0,0E0,0E0,0E0,0E0,0E0],"parents":[2147483647,0,0,1,1,2,2,3,3,4,4,5,5,6,6,8,8,9,9,10,10,11,11,12,12,14,14,15,15,16,16,19,19,20,20,22,22,23,23,25,25,26,26],"right_children":[2,4,6,8,10,12,14,-1,16,18,20,22,24,-1,26,28,30,-1,-1,32,34,-1,36,38,-1,40,42,-1,-1,-1,-1,-1,-1,-1,-1,-1,-1,-1,-1,-1,-1,-1,-1],"split_conditions":[-4.5832604E-2,-7.3210627E-1,-9.39124E-1,-1.012603E0,-1.3241732E0,8.7621653E-1,-1.8491148E0,1.6357819E-2,5.452478E-1,-1.4799584E0,-1.753918E-1,-1.9516945E0,-1.18346E0,-5.28535E-2,7.0914406E-1,-6.5358293E-1,-1.6005428E0,5.8024297E-3,-3.1677686E-2,-1.3820978E0,1.1333517E0,-1.4565658E-3,3.153627E-1,-8.3967006E-1,2.3152288E-2,4.8951906E-1,1.1518972E0,-5.1354885E-2,-1.0342462E-2,-9.716532E-3,3.5985012E-3,-7.5705633E-3,1.8344171E-2,1.1435058E-2,-2.7037308E-2,7.5527416E-3,6.783332E-2,-0E0,-4.6180356E-2,-2.8278165E-2,-7.0434897E-3,7.778025E-3,-3.0735938E-2],"split_indices":[2,1,3,0,0,2,1,0,0,0,2,3,3,0,2,2,2,0,0,3,3,0,2,1,0,3,3,0,0,0,0,0,0,0,0,0,0,0,0,0,0,0,0],"split_type":[0,0,0,0,0,0,0,0,0,0,0,0,0,0,0,0,0,0,0,0,0,0,0,0,0,0,0,0,0,0,0,0,0,0,0,0,0,0,0,0,0,0,0],"sum_hessian":[1.75E2,8.1E1,9.4E1,1.8E1,6.3E1,2.4E1,7E1,4E0,1.4E1,7E0,5.6E1,1.3E1,1.1E1,3E0,6.7E1,7E0,7E0,3E0,4E0,4.6E1,1E1,3E0,1E1,8E0,3E0,4E1,2.7E1,4E0,3E0,3E0,4E0,4E0,4.2E1,7E0,3E0,5E0,5E0,3E0,5E0,2.4E1,1.6E1,2.2E1,5E0],"tree_param":{"num_deleted":"0","num_feature":"8","num_nodes":"43","size_leaf_vector":"1"}},{"base_weights":[-4.983873E-1,-6.91347E-1,1.6389279E0,-4.3290177E-1,-2.5507374E0,8.97402E-2,3.9839856E-2,-6.2185484E-1,1.9308692E0,-5.5714674E-2,-9.2776614E-1,-2.0546027E-2,2.0178625E-2,1.3524244E0,-7.925242E-1,3.8481763E-1,4.6822842E-2,-3.5226427E-2,6.88199E-1,-0E0,2.9945558E-2,-5.8329976E-3,-2.9610163E-2,-3.3821512E-3,1.1266411E-2,3.5606433E-2,-3.6382418E-2],"categories":[],"categories_nodes":[],"categories_segments":[],"categories_sizes":[],"default_left":[0,0,0,0,0,0,0,0,0,0,0,0,0,0,0,0,0,0,0,0,0,0,0,0,0,0,0],"id":17,"left_children":[1,3,5,7,9,11,-1,13,15,-1,17,-1,-1,19,21,23,-1,-1,25,-1,-1,-1,-1,-1,-1,-1,-1],"loss_changes":[7.323517E1,7.551484E1,4.842507E1,6.427773E1,8.651612E1,4.131449E1,0E0,4.5632595E1,3.86972E1,0E0,6.065518E1,0E0,0E0,2.1148102E1,5.253167E1,5.00167E0,0E0,0E0,1.1203306E2,0E0,0E0,0E0,0E0,0E0,0E0,0E0,0E0],"parents":[2147483647,0,0,1,1,2,2,3,3,4,4,5,5,7,7,8,8,10,10,13,13,14,14,15,15,18,18],"right_children":[2,4,6,8,10,12,-1,14,16,-1,18,-1,-1,20,22,24,-1,-1,26,-1,-1,-1,-1,-1,-1,-1,-1],"split_conditions":[1.2730787E0,1.1075189E0,8.0044E-1,1.4953969E0,-4.5078564E-1,1.3297719E-1,3.9839856E-2,-1.456644E0,-5.0702468E-2,-5.5714674E-2,1.3278146E0,-2.0546027E-2,2.0178625E-2,8.598376E-1,9.6881086E-1,-1.2748897E0,4.6822842E-2,-3.5226427E-2,2.1088629E0,-0E0,2.9945558E-2,-5.8329976E-3,-2.9610163E-2,-3.3821512E-3,1.1266411E-2,3.5606433E-2,-3.6382418E-2],"split_indices":[6,5,5,4,1,4,0,6,5,0,5,0,0,1,4,1,0,0,5,0,0,0,0,0,0,0,0],"split_type":[0,0,0,0,0,0,0,0,0,0,0,0,0,0,0,0,0,0,0,0,0,0,0,0,0,0,0],"sum_hessian":[1.78E2,1.64E2,1.4E1,1.45E2,1.9E1,9E0,5E0,1.35E2,1E1,6E0,1.3E1,4E0,5E0,1E1,1.25E2,7E0,3E0,5E0,8E0,6E0,4E0,1.15E2,1E1,3E0,4E0,5E0,3E0],"tree_param":{"num_deleted":"0","num_feature":"8","num_nodes":"27","size_leaf_vector":"1"}},{"base_weights":[-2.5801575E-1,-1.5882105E-2,-5.8379777E-2,-5.3126645E-1,1.3397925E0,-1.02119245E-1,-1.8330243E0,-1.8962773E-2,1.595976E0,-3.7262595E-1,2.34645E0,-4.6589535E-2,-1.300908E0,3.7171466E0,1.0672309E0,-2.0014647E-2,1.907429E-3,3.642701E-2,-1.1036545E-3,1.5669983E-2,-1.864956E-2,5.156478E-2,2.2814678E-2,2.1145907E-3,2.6903162E-2],"categories":[],"categories_nodes":[],"categories_segments":[],"categories_sizes":[],"default_left":[0,0,0,0,0,0,0,0,0,0,0,0,0,0,0,0,0,0,0,0,0,0,0,0,0],"id":18,"left_children":[1,3,-1,5,7,9,11,-1,13,15,17,-1,19,21,23,-1,-1,-1,-1,-1,-1,-1,-1,-1,-1],"loss_changes":[2.4337709E2,1.23565475E2,0E0,7.031589E1,4.142073E1,6.370526E1,3.8376976E1,0E0,4.426301E1,8.413012E1,3.3987514E1,0E0,4.624415E1,4.244438E0,4.890093E1,0E0,0E0,0E0,0E0,0E0,0E0,0E0,0E0,0E0,0E0],"parents":[2147483647,0,0,1,1,3,3,4,4,5,5,6,6,8,8,9,9,10,10,12,12,13,13,14,14],"right_children":[2,4,-1,6,8,10,12,-1,14,16,18,-1,20,22,24,-1,-1,-1,-1,-1,-1,-1,-1,-1,-1],"split_conditions":[1.7981167E0,5.4689485E-1,-5.8379777E-2,1.3747603E-1,-1.8176618E0,1.3125758E0,-7.688149E-1,-1.8962773E-2,-1.1634841E0,-5.633139E-1,2.1429324E0,-4.6589535E-2,-1.0006446E0,8.703324E-2,6.4809424E-1,-2.0014647E-2,1.907429E-3,3.642701E-2,-1.1036545E-3,1.5669983E-2,-1.864956E-2,5.156478E-2,2.2814678E-2,2.1145907E-3,2.6903162E-2],"split_indices":[6,6,0,6,4,2,4,0,4,1,2,0,2,1,2,0,0,0,0,0,0,0,0,0,0],"split_type":[0,0,0,0,0,0,0,0,0,0,0,0,0,0,0,0,0,0,0,0,0,0,0,0,0],"sum_hessian":[1.84E2,1.77E2,7E0,1.29E2,4.8E1,9.8E1,3.1E1,3E0,4.5E1,8.9E1,9E0,4E0,2.7E1,8E0,3.7E1,2.3E1,6.6E1,6E0,3E0,4E0,2.3E1,3E0,5E0,2.5E1,1.2E1],"tree_param":{"num_deleted":"0","num_feature":"8","num_nodes":"25","size_leaf_vector":"1"}},{"base_weights":[2.2178912E-1,3.7698373E-1,-5.7711724E-2,-1.06494755E-1,1.8673847E0,7.001751E-1,-8.26085E-1,1.3209997E0,5.4398417E-2,2.3072167E-1,2.7259333E0,-2.8965864E0,-3.749393E-1,1.8613119E0,-2.0065038E-2,1.3746177E-2,-1.0638252E-2,1.2990832E-2,3.266981E-2,-4.1397586E-2,-1.2767538E-2,7.85192E-3,-1.4172861E-2,-4.6720365E-3,2.1222372E-2],"categories":[],"categories_nodes":[],"categories_segments":[],"categories_sizes":[],"default_left":[0,0,0,0,0,0,0,0,0,0,0,0,0,0,0,0,0,0,0,0,0,0,0,0,0],"id":19,"left_children":[1,3,-1,5,7,9,11,13,-1,15,17,19,21,23,-1,-1,-1,-1,-1,-1,-1,-1,-1,-1,-1],"loss_changes":[1.6636244E2,1.3120387E2,0E0,7.906904E1,7.650729E1,5.7117325E1,6.3907536E1,7.273885E1,0E0,7.8785385E1,2.189827E0,1.7112404E1,7.43487E1,2.3111923E1,0E0,0E0,0E0,0E0,0E0,0E0,0E0,0E0,0E0,0E0,0E0],"parents":[2147483647,0,0,1,1,3,3,4,4,5,5,6,6,7,7,9,9,10,10,11,11,12,12,13,13],"right_children":[2,4,-1,6,8,10,12,14,-1,16,18,20,22,24,-1,-1,-1,-1,-1,-1,-1,-1,-1,-1,-1],"split_conditions":[1.9723375E0,5.4689485E-1,-5.7711724E-2,-3.2024944E-1,1.1957675E0,8.598376E-1,-1.7532945E-1,9.7236586E-1,5.4398417E-2,2.0840148E-2,-4.119907E-1,-1.5622638E-1,1.3747603E-1,-1.2781993E0,-2.0065038E-2,1.3746177E-2,-1.0638252E-2,1.2990832E-2,3.266981E-2,-4.1397586E-2,-1.2767538E-2,7.85192E-3,-1.4172861E-2,-4.6720365E-3,2.1222372E-2],"split_indices":[6,6,0,6,1,1,6,1,0,1,4,1,6,1,0,0,0,0,0,0,0,0,0,0,0],"split_type":[0,0,0,0,0,0,0,0,0,0,0,0,0,0,0,0,0,0,0,0,0,0,0,0,0],"sum_hessian":[1.83E2,1.79E2,4E0,1.35E2,4.4E1,6.3E1,7.2E1,3.9E1,5E0,5.2E1,1.1E1,1.2E1,6E1,3.4E1,5E0,2.8E1,2.4E1,4E0,7E0,6E0,6E0,2.8E1,3.2E1,3E0,3.1E1],"tree_param":{"num_deleted":"0","num_feature":"8","num_nodes":"25","size_leaf_vector":"1"}},{"base_weights":[-2.1636431E-1,-9.1318704E-2,-5.0969712E-2,-6.084304E-1,1.4283723E0,-7.547142E-1,3.6092106E-2,2.796633E0,-3.264129E-1,5.5717736E-1,-1.1116302E0,1.5165147E0,5.8051646E-2,6.4435375E-1,-4.0718444E-2,-5.213757E-3,2.8469874E-2,-2.7183188E-2,-6.1563393E-3,2.7476193E-2,-1.0032041E-2,-2.066608E-2,1.3974047E-2],"categories":[],"categories_nodes":[],"categories_segments":[],"categories_sizes":[],"default_left":[0,0,0,0,0,0,0,0,0,0,0,0,0,0,0,0,0,0,0,0,0,0,0],"id":20,"left_children":[1,3,-1,5,7,9,-1,11,13,15,17,19,-1,21,-1,-1,-1,-1,-1,-1,-1,-1,-1],"loss_changes":[1.09620255E2,1.4460391E2,0E0,8.395816E1,1.1457332E2,6.384176E1,0E0,9.033534E1,7.9276115E1,7.345372E1,8.070038E1,6.3612366E1,0E0,3.4459366E1,0E0,0E0,0E0,0E0,0E0,0E0,0E0,0E0,0E0],"parents":[2147483647,0,0,1,1,3,3,4,4,5,5,7,7,8,8,9,9,10,10,11,11,13,13],"right_children":[2,4,-1,6,8,10,-1,12,14,16,18,20,-1,22,-1,-1,-1,-1,-1,-1,-1,-1,-1],"split_conditions":[1.9723375E0,5.4689485E-1,-5.0969712E-2,1.995706E0,-1.2827936E-1,-1.012603E0,3.6092106E-2,5.849545E-1,1.5051091E0,6.7655796E-1,-6.494606E-1,-4.260474E-1,5.8051646E-2,-1.7127771E0,-4.0718444E-2,-5.213757E-3,2.8469874E-2,-2.7183188E-2,-6.1563393E-3,2.7476193E-2,-1.0032041E-2,-2.066608E-2,1.3974047E-2],"split_indices":[6,6,0,2,2,0,0,4,6,2,2,4,0,4,0,0,0,0,0,0,0,0,0],"split_type":[0,0,0,0,0,0,0,0,0,0,0,0,0,0,0,0,0,0,0,0,0,0,0],"sum_hessian":[1.88E2,1.84E2,4E0,1.38E2,4.6E1,1.34E2,4E0,2.6E1,2E1,2.8E1,1.06E2,1.9E1,7E0,1.6E1,4E0,1.9E1,9E0,2.4E1,8.2E1,1.3E1,6E0,3E0,1.3E1],"tree_param":{"num_deleted":"0","num_feature":"8","num_nodes":"23","size_leaf_vector":"1"}},{"base_weights":[-1.7854053E-1,2.9904502E-2,-5.8183946E-2,2.2338113E-1,-3.5757875E0,-4.5207884E-2,3.5497448E0,-1.0702833E-2,-4.6633095E-2,1.1602365E0,-6.0249025E-1,1.9829024E0,5.1818255E-2,6.127034E-3,3.906233E-2,-0E0,-1.9904193E-2,3.579987E-2,-6.804943E-4],"categories":[],"categories_nodes":[],"categories_segments":[],"categories_sizes":[],"default_left":[0,0,0,0,0,0,0,0,0,0,0,0,0,0,0,0,0,0,0],"id":21,"left_children":[1,3,-1,5,7,9,11,-1,-1,13,15,17,-1,-1,-1,-1,-1,-1,-1],"loss_changes":[2.1454442E2,1.1668832E2,0E0,1.4965973E2,1.4931595E1,1.0156535E2,1.9662903E1,0E0,0E0,6.570178E1,8.6862816E1,2.8200325E1,0E0,0E0,0E0,0E0,0E0,0E0,0E0],"parents":[2147483647,0,0,1,1,3,3,4,4,5,5,6,6,9,9,10,10,11,11],"right_children":[2,4,-1,6,8,10,12,-1,-1,14,16,18,-1,-1,-1,-1,-1,-1,-1],"split_conditions":[1.7743593E0,1.8852295E0,-5.8183946E-2,1.284423E0,-7.789254E-2,-4.2273206E-1,5.452478E-1,-1.0702833E-2,-4.6633095E-2,8.2168853E-1,7.0103294E-1,6.9735825E-1,5.1818255E-2,6.127034E-3,3.906233E-2,-0E0,-1.9904193E-2,3.579987E-2,-6.804943E-4],"split_indices":[6,5,0,5,0,2,0,0,0,6,0,6,0,0,0,0,0,0,0],"split_type":[0,0,0,0,0,0,0,0,0,0,0,0,0,0,0,0,0,0,0],"sum_hessian":[1.77E2,1.71E2,6E0,1.63E2,8E0,1.51E2,1.2E1,3E0,5E0,4.7E1,1.04E2,7E0,5E0,4E1,7E0,7.3E1,3.1E1,4E0,3E0],"tree_param":{"num_deleted":"0","num_feature":"8","num_nodes":"19","size_leaf_vector":"1"}},{"base_weights":[3.431793E-2,2.085546E-1,-4.5456715E-2,-2.171876E-1,2.6602497E0,6.9831955E-1,-1.0300405E0,4.421138E0,1.203454E0,2.8051173E-3,2.4660034E0,7.6977354E-1,-1.3655537E0,8.700553E-3,5.505634E-2,2.1700418E0,-2.1348529E-2,5.9281215E-3,-1.103289E-2,3.265418E-2,1.1217358E-2,-3.4259666E-2,2.3803212E-2,-5.0205167E-2,-1.1445591E-2,3.1384077E-2,-0E0],"categories":[],"categories_nodes":[],"categories_segments":[],"categories_sizes":[],"default_left":[0,0,0,0,0,0,0,0,0,0,0,0,0,0,0,0,0,0,0,0,0,0,0,0,0,0,0],"id":22,"left_children":[1,3,-1,5,7,9,11,13,15,17,19,21,23,-1,-1,25,-1,-1,-1,-1,-1,-1,-1,-1,-1,-1,-1],"loss_changes":[1.4177226E2,1.869609E2,0E0,1.1268936E2,5.969432E1,8.420392E1,4.9732216E1,3.5517273E1,5.236643E1,3.3425617E1,1.4736618E1,8.74998E1,4.62911E1,0E0,0E0,2.4858112E1,0E0,0E0,0E0,0E0,0E0,0E0,0E0,0E0,0E0,0E0,0E0],"parents":[2147483647,0,0,1,1,3,3,4,4,5,5,6,6,7,7,8,8,9,9,10,10,11,11,12,12,15,15],"right_children":[2,4,-1,6,8,10,12,14,16,18,20,22,24,-1,-1,26,-1,-1,-1,-1,-1,-1,-1,-1,-1,-1,-1],"split_conditions":[1.7981167E0,1.1051933E0,-4.5456715E-2,-6.935723E-2,-3.574617E-1,9.1042143E-1,-1.1058267E0,-1.6878971E0,1.560543E0,8.5400626E-2,1.4424139E0,8.077801E-2,-1.6103579E0,8.700553E-3,5.505634E-2,4.4240886E-1,-2.1348529E-2,5.9281215E-3,-1.103289E-2,3.265418E-2,1.1217358E-2,-3.4259666E-2,2.3803212E-2,-5.0205167E-2,-1.1445591E-2,3.1384077E-2,-0E0],"split_indices":[6,6,0,3,2,4,6,2,6,4,4,3,2,0,0,3,0,0,0,0,0,0,0,0,0,0,0],"split_type":[0,0,0,0,0,0,0,0,0,0,0,0,0,0,0,0,0,0,0,0,0,0,0,0,0,0,0],"sum_hessian":[1.82E2,1.76E2,6E0,1.5E2,2.6E1,7E1,8E1,1.1E1,1.5E1,5.1E1,1.9E1,1.2E1,6.8E1,3E0,8E0,1.2E1,3E0,3.4E1,1.7E1,1.1E1,8E0,3E0,9E0,3E0,6.5E1,8E0,4E0],"tree_param":{"num_deleted":"0","num_feature":"8","num_nodes":"27","size_leaf_vector":"1"}},{"base_weights":[2.3974282E-1,-1.4876787E-1,1.4587731E0,-0E0,-3.888947E-2,5.600098E-2,1.0770314E0,-3.126958E-1,1.893148E0,-1.4494154E-2,1.4598832E0,1.5616909E-1,-1.7982465E0,2.6697226E0,-7.6984754E-3,8.9555335E-1,5.2765734E-2,-7.8921835E-4,3.8928974E-2,-3.5858143E-2,-9.644197E-3,2.8628677E-3,3.150296E-2,3.3128064E-2,-1.6099712E-3],"categories":[],"categories_nodes":[],"categories_segments":[],"categories_sizes":[],"default_left":[0,0,0,0,0,0,0,0,0,0,0,0,0,0,0,0,0,0,0,0,0,0,0,0,0],"id":23,"left_children":[1,3,5,7,-1,-1,9,11,13,-1,15,17,19,21,-1,23,-1,-1,-1,-1,-1,-1,-1,-1,-1],"loss_changes":[8.927249E1,8.007198E1,6.223883E1,8.127939E1,0E0,0E0,4.217678E1,8.292737E1,4.3253807E1,0E0,7.223535E1,8.171227E1,3.6200516E1,1.3866402E1,0E0,8.8975815E1,0E0,0E0,0E0,0E0,0E0,0E0,0E0,0E0,0E0],"parents":[2147483647,0,0,1,1,2,2,3,3,6,6,7,7,8,8,10,10,11,11,12,12,13,13,15,15],"right_children":[2,4,6,8,-1,-1,10,12,14,-1,16,18,20,22,-1,24,-1,-1,-1,-1,-1,-1,-1,-1,-1],"split_conditions":[6.9308305E-1,1.7981167E0,-1.6829895E0,1.3918989E0,-3.888947E-2,5.600098E-2,-1.1723232E0,8.5400626E-2,-1.0014931E-1,-1.4494154E-2,2.147412E0,1.4021604E0,2.8651974E-1,-1.5750235E0,-7.6984754E-3,-1.0234678E0,5.2765734E-2,-7.8921835E-4,3.8928974E-2,-3.5858143E-2,-9.644197E-3,2.8628677E-3,3.150296E-2,3.3128064E-2,-1.6099712E-3],"split_indices":[4,6,2,7,0,0,7,4,2,0,4,6,4,2,0,6,0,0,0,0,0,0,0,0,0],"split_type":[0,0,0,0,0,0,0,0,0,0,0,0,0,0,0,0,0,0,0,0,0,0,0,0,0],"sum_hessian":[1.85E2,1.4E2,4.5E1,1.35E2,5E0,3E0,4.2E1,1.16E2,1.9E1,5E0,3.7E1,8.8E1,2.8E1,1.5E1,4E0,3.3E1,4E0,8.3E1,5E0,8E0,2E1,3E0,1.2E1,1E1,2.3E1],"tree_param":{"num_deleted":"0","num_feature":"8","num_nodes":"25","size_leaf_vector":"1"}},{"base_weights":[-1.692882E-1,-4.1819093E-1,1.6319094E0,1.2135273E-1,-1.7527647E0,2.7141588E0,-0E0,-3.3337456E-1,1.2623318E0,-7.678886E-1,-2.1123102E0,6.0284124E-3,3.4661427E-2,-7.5907367E-3,9.448273E-3,-3.2219992E0,6.256164E-2,4.50044E-2,3.1989634E-1,-1.3965008E0,1.1215356E-2,-4.083961E-2,-1.6750141E0,-1.492724E-2,-4.4765472E-2,2.3760889E-2,-4.2953426E-3,8.166349E-3,-2.9172579E-2,-2.2046646E-2,-0E0,-2.2741336E-2,-0E0],"categories":[],"categories_nodes":[],"categories_segments":[],"categories_sizes":[],"default_left":[0,0,0,0,0,0,0,0,0,0,0,0,0,0,0,0,0,0,0,0,0,0,0,0,0,0,0,0,0,0,0,0,0],"id":24,"left_children":[1,3,5,7,9,11,13,15,17,19,21,-1,-1,-1,-1,23,25,-1,27,29,-1,-1,31,-1,-1,-1,-1,-1,-1,-1,-1,-1,-1],"loss_changes":[8.363638E1,1.2162789E2,3.9529495E1,6.2621246E1,1.3483017E1,1.6319885E1,7.1862054E0,9.990381E1,9.974377E1,1.8279951E1,2.0566422E1,0E0,0E0,0E0,0E0,1.3468918E1,8.727342E1,0E0,4.3311073E1,1.40266285E1,0E0,0E0,2.842389E1,0E0,0E0,0E0,0E0,0E0,0E0,0E0,0E0,0E0,0E0],"parents":[2147483647,0,0,1,1,2,2,3,3,4,4,5,5,6,6,7,7,8,8,9,9,10,10,15,15,16,16,18,18,19,19,22,22],"right_children":[2,4,6,8,10,12,14,16,18,20,22,-1,-1,-1,-1,24,26,-1,28,30,-1,-1,32,-1,-1,-1,-1,-1,-1,-1,-1,-1,-1],"split_conditions":[1.3918989E0,6.9256556E-1,-3.206551E-1,5.199698E-1,-2.980759E-1,-1.3772495E0,3.776885E-1,-9.880812E-1,-6.3473797E-1,4.2823622E-1,-1.7532945E-1,6.0284124E-3,3.4661427E-2,-7.5907367E-3,9.448273E-3,-7.0610106E-1,-1.2230299E0,4.50044E-2,1.8852271E0,-5.697019E-1,1.1215356E-2,-4.083961E-2,3.498352E-1,-1.492724E-2,-4.4765472E-2,2.3760889E-2,-4.2953426E-3,8.166349E-3,-2.9172579E-2,-2.2046646E-2,-0E0,-2.2741336E-2,-0E0],"split_indices":[7,7,2,6,6,2,2,2,2,2,6,0,0,0,0,7,6,0,6,6,0,0,5,0,0,0,0,0,0,0,0,0,0],"split_type":[0,0,0,0,0,0,0,0,0,0,0,0,0,0,0,0,0,0,0,0,0,0,0,0,0,0,0,0,0,0,0,0,0],"sum_hessian":[1.88E2,1.66E2,2.2E1,1.18E2,4.8E1,1.3E1,9E0,8.4E1,3.4E1,1.4E1,3.4E1,4E0,9E0,5E0,4E0,1E1,7.4E1,7E0,2.7E1,1.1E1,3E0,5E0,2.9E1,5E0,5E0,1.3E1,6.1E1,2.4E1,3E0,7E0,4E0,2.1E1,8E0],"tree_param":{"num_deleted":"0","num_feature":"8","num_nodes":"33","size_leaf_vector":"1"}},{"base_weights":[-2.2058979E-1,-7.702511E-2,-5.6685895E-2,-3.4856045E-1,2.3739161E0,-5.881835E-1,1.4655037E0,4.324656E0,-3.820476E-1,1.0225701E0,-9.9175394E-1,3.6290884E0,-0E0,5.3493746E-2,1.2253077E-2,-2.2474146E-2,1.7851453E-2,1.5914781E-2,-1.9662146E-2,-3.2429498E-2,-7.7689723E-3,1.0551145E-2,5.0056137E-2,1.3478212E-2,-3.303664E-2],"categories":[],"categories_nodes":[],"categories_segments":[],"categories_sizes":[],"default_left":[0,0,0,0,0,0,0,0,0,0,0,0,0,0,0,0,0,0,0,0,0,0,0,0,0],"id":25,"left_children":[1,3,-1,5,7,9,11,13,15,17,19,21,23,-1,-1,-1,-1,-1,-1,-1,-1,-1,-1,-1,-1],"loss_changes":[1.3677669E2,1.1718319E2,0E0,6.9756355E1,9.885165E1,9.375879E1,5.9044647E1,2.349559E1,3.2787827E1,4.9649654E1,5.0585983E1,1.7872078E1,5.3640976E1,0E0,0E0,0E0,0E0,0E0,0E0,0E0,0E0,0E0,0E0,0E0,0E0],"parents":[2147483647,0,0,1,1,3,3,4,4,5,5,6,6,7,7,8,8,9,9,10,10,11,11,12,12],"right_children":[2,4,-1,6,8,10,12,14,16,18,20,22,24,-1,-1,-1,-1,-1,-1,-1,-1,-1,-1,-1,-1],"split_conditions":[1.9723375E0,1.2730787E0,-5.6685895E-2,1.308825E0,1.6397343E0,-1.0127484E0,1.5657955E0,-1.749549E-1,1.8693888E0,1.9404398E0,-7.185572E-1,1.3942136E0,-3.912048E-2,5.3493746E-2,1.2253077E-2,-2.2474146E-2,1.7851453E-2,1.5914781E-2,-1.9662146E-2,-3.2429498E-2,-7.7689723E-3,1.0551145E-2,5.0056137E-2,1.3478212E-2,-3.303664E-2],"split_indices":[6,6,0,3,6,3,3,3,6,1,3,3,6,0,0,0,0,0,0,0,0,0,0,0,0],"split_type":[0,0,0,0,0,0,0,0,0,0,0,0,0,0,0,0,0,0,0,0,0,0,0,0,0],"sum_hessian":[1.82E2,1.78E2,4E0,1.61E2,1.7E1,1.43E2,1.8E1,1E1,7E0,2.8E1,1.15E2,7E0,1.1E1,7E0,3E0,4E0,3E0,2.4E1,4E0,9E0,1.06E2,3E0,4E0,8E0,3E0],"tree_param":{"num_deleted":"0","num_feature":"8","num_nodes":"25","size_leaf_vector":"1"}},{"base_weights":[3.8240474E-2,2.3780432E-1,-3.6292155E0,-0E0,4.0338783E0,-2.3075717E-3,-5.8980253E-2,-1.0668988E-1,5.1697195E-2,1.744649E-2,4.699927E-2,4.4411484E-2,-3.4463327E-2,1.2345006E-2,-2.3971314E-3],"categories":[],"categories_nodes":[],"categories_segments":[],"categories_sizes":[],"default_left":[0,0,0,0,0,0,0,0,0,0,0,0,0,0,0],"id":26,"left_children":[1,3,5,7,9,-1,-1,11,-1,-1,-1,13,-1,-1,-1],"loss_changes":[1.350017E2,1.6070694E2,6.644006E1,9.543623E1,5.465317E0,0E0,0E0,8.749845E1,0E0,0E0,0E0,5.5075073E1,0E0,0E0,0E0],"parents":[2147483647,0,0,1,1,2,2,3,3,4,4,7,7,11,11],"right_children":[2,4,6,8,10,-1,-1,12,-1,-1,-1,14,-1,-1,-1],"split_conditions":[1.8852295E0,1.3278146E0,-3.8946274E-1,2.1722815E0,-7.0610106E-1,-2.3075717E-3,-5.8980253E-2,1.1509105E0,5.1697195E-2,1.744649E-2,4.699927E-2,-8.4176433E-1,-3.4463327E-2,1.2345006E-2,-2.3971314E-3],"split_indices":[5,5,0,4,7,0,0,5,0,0,0,5,0,0,0],"split_type":[0,0,0,0,0,0,0,0,0,0,0,0,0,0,0],"sum_hessian":[1.88E2,1.79E2,9E0,1.69E2,1E1,4E0,5E0,1.66E2,3E0,3E0,7E0,1.59E2,7E0,3.1E1,1.28E2],"tree_param":{"num_deleted":"0","num_feature":"8","num_nodes":"15","size_leaf_vector":"1"}},{"base_weights":[-3.288286E-1,-2.1282177E-1,-5.21304E-2,-1.3192055E-1,-4.43873E-2,-2.3669356E-1,5.393662E-2,1.5282961E0,-4.1668773E-1,-1.6246919E-2,3.330929E-2,-7.516502E-3,7.6774457E-3],"categories":[],"categories_nodes":[],"categories_segments":[],"categories_sizes":[],"default_left":[0,0,0,0,0,0,0,0,0,0,0,0,0],"id":27,"left_children":[1,3,-1,5,-1,7,-1,9,11,-1,-1,-1,-1],"loss_changes":[1.0932292E2,6.3341866E1,0E0,1.09241486E2,0E0,6.0679405E1,0E0,1.03876495E2,7.029712E1,0E0,0E0,0E0,0E0],"parents":[2147483647,0,0,1,1,3,3,5,5,7,7,8,8],"right_children":[2,4,-1,6,-1,8,-1,10,12,-1,-1,-1,-1],"split_conditions":[1.8852271E0,2.2263458E0,-5.21304E-2,1.7938317E0,-4.43873E-2,-1.5120779E0,5.393662E-2,-6.714992E-1,8.08226E-1,-1.6246919E-2,3.330929E-2,-7.516502E-3,7.6774457E-3],"split_indices":[6,4,0,4,0,6,0,4,6,0,0,0,0],"split_type":[0,0,0,0,0,0,0,0,0,0,0,0,0],"sum_hessian":[2.03E2,1.99E2,4E0,1.96E2,3E0,1.93E2,3E0,1.7E1,1.76E2,6E0,1.1E1,1.38E2,3.8E1],"tree_param":{"num_deleted":"0","num_feature":"8","num_nodes":"13","size_leaf_vector":"1"}},{"base_weights":[5.3010833E-1,2.2851747E-1,2.35451E0,-6.486765E-2,2.3397317E0,-8.048102E-2,3.4637082E0,8.659811E-3,-2.5755731E-2,3.0551102E0,-1.2856942E-2,1.0353516E-2,-2.1081492E-2,3.974245E0,4.222295E-3,-6.516823E-2,3.193524E-2,4.027241E-3,3.5210273E0,2.103995E-2,4.4463325E-2,4.2641952E-4,-3.478518E-2,1.8823704E-2,5.849523E-2],"categories":[],"categories_nodes":[],"categories_segments":[],"categories_sizes":[],"default_left":[0,0,0,0,0,0,0,0,0,0,0,0,0,0,0,0,0,0,0,0,0,0,0,0,0],"id":28,"left_children":[1,3,5,7,9,11,13,15,-1,17,-1,-1,-1,19,-1,21,-1,-1,23,-1,-1,-1,-1,-1,-1],"loss_changes":[1.019654E2,1.0424187E2,7.509613E1,2.9253609E1,5.6901215E1,2.1395716E1,2.3491074E1,3.6268505E1,0E0,1.6993607E1,0E0,0E0,0E0,2.4574127E0,0E0,5.41092E1,0E0,0E0,4.2088898E1,0E0,0E0,0E0,0E0,0E0,0E0],"parents":[2147483647,0,0,1,1,2,2,3,3,4,4,5,5,6,6,7,7,9,9,13,13,15,15,18,18],"right_children":[2,4,6,8,10,12,14,16,-1,18,-1,-1,-1,20,-1,22,-1,-1,24,-1,-1,-1,-1,-1,-1],"split_conditions":[1.3918989E0,1.162671E0,-9.0917283E-1,1.0517976E0,6.9256556E-1,-1.4519562E0,7.98609E-1,9.4754344E-1,-2.5755731E-2,-9.3921214E-1,-1.2856942E-2,1.0353516E-2,-2.1081492E-2,-8.5704976E-1,4.222295E-3,8.4825385E-1,3.193524E-2,4.027241E-3,1.642571E0,2.103995E-2,4.4463325E-2,4.2641952E-4,-3.478518E-2,1.8823704E-2,5.849523E-2],"split_indices":[7,1,1,1,7,1,1,1,0,7,0,0,0,2,0,1,0,0,1,0,0,0,0,0,0],"split_type":[0,0,0,0,0,0,0,0,0,0,0,0,0,0,0,0,0,0,0,0,0,0,0,0,0],"sum_hessian":[1.9E2,1.64E2,2.6E1,1.44E2,2E1,8E0,1.8E1,1.4E2,4E0,1.7E1,3E0,5E0,3E0,1.5E1,3E0,1.37E2,3E0,3E0,1.4E1,4E0,1.1E1,1.33E2,4E0,9E0,5E0],"tree_param":{"num_deleted":"0","num_feature":"8","num_nodes":"25","size_leaf_vector":"1"}},{"base_weights":[-4.5938954E-2,6.1019998E-2,-4.8147544E-2,-3.633394E-1,1.3022463E0,2.6638827E-1,-1.7756205E0,-3.405374E-1,2.8942885E0,3.2505953E0,-4.3184217E-3,-4.052619E0,-1.3421581E0,-4.3191098E-2,4.9233308E-1,1.6338508E0,5.6770824E-2,1.1581933E-2,4.104797E-2,-6.717315E-3,7.677083E-3,-5.403368E-2,-1.8372098E-2,1.4050928E-3,-1.9741433E-2,1.8637562E-2,-2.4510214E-2,3.2348633E-2,1.6475231E-3],"categories":[],"categories_nodes":[],"categories_segments":[],"categories_sizes":[],"default_left":[0,0,0,0,0,0,0,0,0,0,0,0,0,0,0,0,0,0,0,0,0,0,0,0,0,0,0,0,0],"id":29,"left_children":[1,3,-1,5,7,9,11,13,15,17,19,21,23,-1,25,27,-1,-1,-1,-1,-1,-1,-1,-1,-1,-1,-1,-1,-1],"loss_changes":[1.0461882E2,1.0204353E2,0E0,1.2847845E2,1.325079E2,8.2826004E1,3.5806793E1,8.6074066E1,7.749356E1,7.552269E0,4.679297E1,7.2468643E0,3.8047752E1,0E0,8.444678E1,3.984675E1,0E0,0E0,0E0,0E0,0E0,0E0,0E0,0E0,0E0,0E0,0E0,0E0,0E0],"parents":[2147483647,0,0,1,1,3,3,4,4,5,5,6,6,7,7,8,8,9,9,10,10,11,11,12,12,14,14,15,15],"right_children":[2,4,-1,6,8,10,12,14,16,18,20,22,24,-1,26,28,-1,-1,-1,-1,-1,-1,-1,-1,-1,-1,-1,-1,-1],"split_conditions":[1.9723375E0,5.4689485E-1,-4.8147544E-2,7.9666406E-2,3.498352E-1,-1.2488418E0,-1.3691388E0,-1.4527713E0,1.4021604E0,-1.9420888E0,2.6128438E-1,4.4240886E-1,-6.581846E-1,-4.3191098E-2,1.560543E0,3.591973E-1,5.6770824E-2,1.1581933E-2,4.104797E-2,-6.717315E-3,7.677083E-3,-5.403368E-2,-1.8372098E-2,1.4050928E-3,-1.9741433E-2,1.8637562E-2,-2.4510214E-2,3.2348633E-2,1.6475231E-3],"split_indices":[6,6,0,6,5,3,5,3,6,3,3,3,5,0,6,3,0,0,0,0,0,0,0,0,0,0,0,0,0],"split_type":[0,0,0,0,0,0,0,0,0,0,0,0,0,0,0,0,0,0,0,0,0,0,0,0,0,0,0,0,0],"sum_hessian":[1.95E2,1.91E2,4E0,1.42E2,4.9E1,9.8E1,4.4E1,2.4E1,2.5E1,8E0,9E1,6E0,3.8E1,4E0,2E1,1.8E1,7E0,3E0,5E0,4.9E1,4.1E1,3E0,3E0,1.1E1,2.7E1,1.4E1,6E0,8E0,1E1],"tree_param":{"num_deleted":"0","num_feature":"8","num_nodes":"29","size_leaf_vector":"1"}},{"base_weights":[-9.440456E-2,-3.732796E-1,1.8782592E0,-2.3873278E-1,-3.8392168E-2,3.9356153E0,-0E0,-4.760876E-1,2.853431E0,5.1975116E-2,3.8360609E-3,2.3312476E-2,-4.0946096E-2,-3.8023245E-1,-2.6125113E-2,-5.990678E-3,4.4077015E0,1.2158685E-2,-5.2022403E-3,5.6613892E-2,1.8804315E-2],"categories":[],"categories_nodes":[],"categories_segments":[],"categories_sizes":[],"default_left":[0,0,0,0,0,0,0,0,0,0,0,0,0,0,0,0,0,0,0,0,0],"id":30,"left_children":[1,3,5,7,-1,9,11,13,15,-1,-1,-1,-1,17,-1,-1,19,-1,-1,-1,-1],"loss_changes":[9.594293E1,6.797822E1,8.678628E1,1.08759865E2,0E0,4.048581E1,1.1620659E2,2.5283182E1,6.147313E1,0E0,0E0,0E0,0E0,2.9896832E1,0E0,0E0,1.08983E1,0E0,0E0,0E0,0E0],"parents":[2147483647,0,0,1,1,2,2,3,3,5,5,6,6,7,7,8,8,13,13,16,16],"right_children":[2,4,6,8,-1,10,12,14,16,-1,-1,-1,-1,18,-1,-1,20,-1,-1,-1,-1],"split_conditions":[1.284423E0,1.7981167E0,1.7183388E0,1.2730787E0,-3.8392168E-2,6.9256556E-1,-7.789254E-2,1.050776E0,-5.452478E-1,5.1975116E-2,3.8360609E-3,2.3312476E-2,-4.0946096E-2,-1.456644E0,-2.6125113E-2,-5.990678E-3,1.4496752E0,1.2158685E-2,-5.2022403E-3,5.6613892E-2,1.8804315E-2],"split_indices":[5,6,5,6,0,7,0,5,0,0,0,0,0,6,0,0,6,0,0,0,0],"split_type":[0,0,0,0,0,0,0,0,0,0,0,0,0,0,0,0,0,0,0,0,0],"sum_hessian":[1.76E2,1.55E2,2.1E1,1.5E2,5E0,1E1,1.1E1,1.4E2,1E1,7E0,3E0,7E0,4E0,1.35E2,5E0,3E0,7E0,1E1,1.25E2,4E0,3E0],"tree_param":{"num_deleted":"0","num_feature":"8","num_nodes":"21","size_leaf_vector":"1"}},{"base_weights":[-1.2112182E-1,3.2747265E-2,-4.4437885E-2,-3.095542E-1,1.0436542E0,1.3107661E0,-5.6458324E-1,2.8096614E0,6.0277724E-1,1.9683315E0,-1.3149713E-2,-1.888781E-1,-1.4403348E0,4.0162247E-2,2.265388E-3,-2.5428906E-1,1.8919774E0,2.8630044E-2,6.2229676E-4,-1.108141E-2,1.1149633E-2,-2.557253E-2,4.5837797E-3,8.750136E-3,-1.4594922E-2,2.5004882E-3,4.6727523E-2],"categories":[],"categories_nodes":[],"categories_segments":[],"categories_sizes":[],"default_left":[0,0,0,0,0,0,0,0,0,0,0,0,0,0,0,0,0,0,0,0,0,0,0,0,0,0,0],"id":31,"left_children":[1,3,-1,5,7,9,11,13,15,17,-1,19,21,-1,-1,23,25,-1,-1,-1,-1,-1,-1,-1,-1,-1,-1],"loss_changes":[1.25869064E2,6.19708E1,0E0,5.3963417E1,3.1166702E1,3.2162903E1,3.590806E1,2.1794281E1,4.3313118E1,2.1713089E1,0E0,9.829464E1,7.372864E1,0E0,0E0,3.1846395E1,6.526342E1,0E0,0E0,0E0,0E0,0E0,0E0,0E0,0E0,0E0,0E0],"parents":[2147483647,0,0,1,1,3,3,4,4,5,5,6,6,7,7,8,8,9,9,11,11,12,12,15,15,16,16],"right_children":[2,4,-1,6,8,10,12,14,16,18,-1,20,22,-1,-1,24,26,-1,-1,-1,-1,-1,-1,-1,-1,-1,-1],"split_conditions":[1.9723375E0,5.4689485E-1,-4.4437885E-2,-1.2354649E0,7.6071125E-1,-3.912048E-2,6.9256556E-1,8.085464E-1,1.2730787E0,-2.3367764E-1,-1.3149713E-2,4.4240886E-1,1.3918989E0,4.0162247E-2,2.265388E-3,9.2701286E-1,3.8946274E-1,2.8630044E-2,6.2229676E-4,-1.108141E-2,1.1149633E-2,-2.557253E-2,4.5837797E-3,8.750136E-3,-1.4594922E-2,2.5004882E-3,4.6727523E-2],"split_indices":[6,6,0,3,6,6,7,3,6,0,0,3,7,0,0,6,0,0,0,0,0,0,0,0,0,0,0],"split_type":[0,0,0,0,0,0,0,0,0,0,0,0,0,0,0,0,0,0,0,0,0,0,0,0,0,0,0],"sum_hessian":[1.82E2,1.76E2,6E0,1.31E2,4.5E1,1.7E1,1.14E2,8E0,3.7E1,1.4E1,3E0,8.1E1,3.3E1,5E0,3E0,2.2E1,1.5E1,9E0,5E0,4.8E1,3.3E1,2.1E1,1.2E1,1.1E1,1.1E1,1E1,5E0],"tree_param":{"num_deleted":"0","num_feature":"8","num_nodes":"27","size_leaf_vector":"1"}},{"base_weights":[4.593524E-2,1.9151715E0,-1.10905826E-1,-1.4952059E-2,3.705599E0,-2.7767557E-1,1.8636011E0,-0E0,5.269037E-2,-4.050092E-2,-1.8941528E-1,5.919905E-2,3.2751873E-1,-8.016242E-2,-3.118982E-2,-2.675621E-1,1.8416177E-2,4.2871336E-4,-3.0954752E-2,7.159248E-3,-1.7795363E-2],"categories":[],"categories_nodes":[],"categories_segments":[],"categories_sizes":[],"default_left":[0,0,0,0,0,0,0,0,0,0,0,0,0,0,0,0,0,0,0,0,0],"id":32,"left_children":[1,3,5,-1,7,9,11,-1,-1,-1,13,-1,15,17,-1,19,-1,-1,-1,-1,-1],"loss_changes":[5.8639446E1,9.962424E1,5.745072E1,0E0,6.404024E1,5.0480904E1,7.689917E1,0E0,0E0,0E0,4.8686165E1,0E0,1.1281049E1,6.1549133E1,0E0,1.2853169E1,0E0,0E0,0E0,0E0,0E0],"parents":[2147483647,0,0,1,1,2,2,4,4,5,5,6,6,10,10,12,12,13,13,15,15],"right_children":[2,4,6,-1,8,10,12,-1,-1,-1,14,-1,16,18,-1,20,-1,-1,-1,-1,-1],"split_conditions":[-1.5977063E0,-7.3108887E-3,1.4601827E0,-1.4952059E-2,-2.0948677E0,-1.9532562E0,-2.3367764E-1,-0E0,5.269037E-2,-4.050092E-2,1.7183388E0,5.919905E-2,-5.0702468E-2,1.1333517E0,-3.118982E-2,1.012603E0,1.8416177E-2,4.2871336E-4,-3.0954752E-2,7.159248E-3,-1.7795363E-2],"split_indices":[3,5,3,0,3,5,0,0,0,0,5,0,5,3,0,0,0,0,0,0,0],"split_type":[0,0,0,0,0,0,0,0,0,0,0,0,0,0,0,0,0,0,0,0,0],"sum_hessian":[1.93E2,1.5E1,1.78E2,5E0,1E1,1.65E2,1.3E1,3E0,7E0,3E0,1.62E2,3E0,1E1,1.57E2,5E0,7E0,3E0,1.51E2,6E0,4E0,3E0],"tree_param":{"num_deleted":"0","num_feature":"8","num_nodes":"21","size_leaf_vector":"1"}},{"base_weights":[4.8080477E-1,-2.0538492E0,6.6358095E-1,3.3227068E-1,-4.435827E-2,7.469783E-1,-3.3034537E-2,3.4109976E-2,-2.5082095E-2,2.0832627E0,4.885287E-1,-1.305049E-2,2.9096663E0,2.8280513E0,3.0082506E-1,1.1386211E-2,3.974118E-2,-1.873703E-2,4.967E-2,4.7267424E-3,-2.2173962E-2],"categories":[],"categories_nodes":[],"categories_segments":[],"categories_sizes":[],"default_left":[0,0,0,0,0,0,0,0,0,0,0,0,0,0,0,0,0,0,0,0,0],"id":33,"left_children":[1,3,5,7,-1,9,-1,-1,-1,11,13,-1,15,17,19,-1,-1,-1,-1,-1,-1],"loss_changes":[8.708168E1,7.588656E1,5.7401443E1,6.202345E1,0E0,5.7185036E1,0E0,0E0,0E0,8.0506355E1,6.1218445E1,0E0,3.5041565E1,1.13343155E2,5.8283043E1,0E0,0E0,0E0,0E0,0E0,0E0],"parents":[2147483647,0,0,1,1,2,2,3,3,5,5,9,9,10,10,12,12,13,13,14,14],"right_children":[2,4,6,8,-1,10,-1,-1,-1,12,14,-1,16,18,20,-1,-1,-1,-1,-1,-1],"split_conditions":[-1.6174389E0,-1.8688272E-1,2.2862327E0,7.789254E-2,-4.435827E-2,-1.071947E0,-3.3034537E-2,3.4109976E-2,-2.5082095E-2,-1.0940841E0,-1.4003149E0,-1.305049E-2,-5.452478E-1,2.6128438E-1,1.627441E0,1.1386211E-2,3.974118E-2,-1.873703E-2,4.967E-2,4.7267424E-3,-2.2173962E-2],"split_indices":[1,3,2,0,0,3,0,0,0,2,2,0,0,3,3,0,0,0,0,0,0],"split_type":[0,0,0,0,0,0,0,0,0,0,0,0,0,0,0,0,0,0,0,0,0],"sum_hessian":[1.89E2,1.2E1,1.77E2,6E0,6E0,1.74E2,3E0,3E0,3E0,2.7E1,1.47E2,5E0,2.2E1,1E1,1.37E2,9E0,1.3E1,3E0,7E0,1.29E2,8E0],"tree_param":{"num_deleted":"0","num_feature":"8","num_nodes":"21","size_leaf_vector":"1"}},{"base_weights":[-7.4970625E-2,-2.1308532E0,2.1463625E-1,-2.9597456E0,-3.7635192E-1,7.623907E-2,2.3488517E0,-3.485939E0,-1.0639463E-2,1.7351175E-2,-2.6682265E-2,-9.6516967E-1,3.712932E-1,9.610758E-3,4.3048847E-2,-1.7963085E-2,-4.1339884E0,1.5092848E-2,-1.460851E0,2.4477267E0,-1.5790744E-2,-1.9087577E-2,-5.183169E-2,-2.059068E-2,1.7362036E-2,8.62747E-3,2.7644072E-2,4.6187267E-3,-9.929516E-3],"categories":[],"categories_nodes":[],"categories_segments":[],"categories_sizes":[],"default_left":[0,0,0,0,0,0,0,0,0,0,0,0,0,0,0,0,0,0,0,0,0,0,0,0,0,0,0,0,0],"id":34,"left_children":[1,3,5,7,9,11,13,15,-1,-1,-1,17,19,-1,-1,-1,21,-1,23,25,27,-1,-1,-1,-1,-1,-1,-1,-1],"loss_changes":[1.1318657E2,3.0282822E1,4.5778267E1,9.057846E0,4.438135E1,4.705882E1,1.8453472E1,2.948822E0,0E0,0E0,0E0,4.2143097E1,1.00107376E2,0E0,0E0,0E0,5.4713745E0,0E0,5.6617527E1,4.968025E0,4.8602673E1,0E0,0E0,0E0,0E0,0E0,0E0,0E0,0E0],"parents":[2147483647,0,0,1,1,2,2,3,3,4,4,5,5,6,6,7,7,11,11,12,12,16,16,18,18,19,19,20,20],"right_children":[2,4,6,8,10,12,14,16,-1,-1,-1,18,20,-1,-1,-1,22,-1,24,26,28,-1,-1,-1,-1,-1,-1,-1,-1],"split_conditions":[-1.1723232E0,2.0287116E-1,1.6357435E0,8.56818E-1,-1.4054344E0,-6.5358293E-1,4.0641493E-1,-8.56818E-1,-1.0639463E-2,1.7351175E-2,-2.6682265E-2,-1.832179E0,-3.4617433E-1,9.610758E-3,4.3048847E-2,-1.7963085E-2,-1.4054344E0,1.5092848E-2,1.3918989E0,-6.268859E-1,6.9256556E-1,-1.9087577E-2,-5.183169E-2,-2.059068E-2,1.7362036E-2,8.62747E-3,2.7644072E-2,4.6187267E-3,-9.929516E-3],"split_indices":[7,1,0,0,7,2,1,0,0,0,0,2,2,0,0,0,7,0,7,2,7,0,0,0,0,0,0,0,0],"split_type":[0,0,0,0,0,0,0,0,0,0,0,0,0,0,0,0,0,0,0,0,0,0,0,0,0,0,0,0,0],"sum_hessian":[1.86E2,2.3E1,1.63E2,1.5E1,8E0,1.54E2,9E0,1.1E1,4E0,4E0,4E0,3.3E1,1.21E2,6E0,3E0,4E0,7E0,5E0,2.8E1,1.9E1,1.02E2,3E0,4E0,2.4E1,4E0,4E0,1.5E1,6.8E1,3.4E1],"tree_param":{"num_deleted":"0","num_feature":"8","num_nodes":"29","size_leaf_vector":"1"}},{"base_weights":[4.303829E-2,-2.857358E-1,1.0499601E0,-9.1658705E-1,4.2709115E-1,1.4674737E0,-2.8804457E-2,-2.6234183E-1,-2.4365013E0,1.8795561E0,-5.642084E-1,3.4193652E0,6.378744E-1,-9.8021376E-1,1.6828295E0,-0E0,-2.9238706E0,1.3081353E0,4.432581E-2,8.1550497E-1,-1.376904E0,5.2597255E-2,1.1621307E0,-1.1595006E-2,9.5675623E-1,-6.253234E-3,-2.9999409E-2,2.462754E-2,3.796337E-3,-2.2036187E-2,-5.410146E-2,3.3255864E-2,9.507693E-4,-1.7033776E-2,1.9514306E-2,6.597885E-3,-2.2194305E-2,3.4511123E-2,-1.0071551E-2,2.0722765E-2,-4.5857724E-4],"categories":[],"categories_nodes":[],"categories_segments":[],"categories_sizes":[],"default_left":[0,0,0,0,0,0,0,0,0,0,0,0,0,0,0,0,0,0,0,0,0,0,0,0,0,0,0,0,0,0,0,0,0,0,0,0,0,0,0,0,0],"id":35,"left_children":[1,3,5,7,9,11,-1,13,15,17,19,21,23,25,27,-1,29,31,-1,33,35,-1,37,-1,39,-1,-1,-1,-1,-1,-1,-1,-1,-1,-1,-1,-1,-1,-1,-1,-1],"loss_changes":[6.364816E1,6.476575E1,7.864795E1,7.305291E1,9.759413E1,6.529121E1,0E0,7.622507E1,2.4584717E1,3.1478493E1,4.5413673E1,4.244847E1,1.8406168E1,2.4466423E1,1.1427856E1,0E0,1.9554062E1,5.393247E1,0E0,4.3398384E1,4.6048996E1,0E0,3.6457317E1,0E0,3.2830933E1,0E0,0E0,0E0,0E0,0E0,0E0,0E0,0E0,0E0,0E0,0E0,0E0,0E0,0E0,0E0,0E0],"parents":[2147483647,0,0,1,1,2,2,3,3,4,4,5,5,7,7,8,8,9,9,10,10,11,11,12,12,13,13,14,14,16,16,17,17,19,19,20,20,22,22,24,24],"right_children":[2,4,6,8,10,12,-1,14,16,18,20,22,24,26,28,-1,30,32,-1,34,36,-1,38,-1,40,-1,-1,-1,-1,-1,-1,-1,-1,-1,-1,-1,-1,-1,-1,-1,-1],"split_conditions":[6.0982406E-1,2.577128E-1,2.2263458E0,-4.2878754E-2,-5.9148407E-1,-9.39124E-1,-2.8804457E-2,-3.2400942E-1,-6.581846E-1,9.940332E-1,-2.6098472E-1,-7.182652E-1,-1.2289507E0,-4.215332E-1,-1.0492673E-1,-0E0,-1.3085647E-1,-4.045107E-1,4.432581E-2,-9.852903E-1,5.9556556E-1,5.2597255E-2,-1.7538196E0,-1.1595006E-2,1.3287729E-1,-6.253234E-3,-2.9999409E-2,2.462754E-2,3.796337E-3,-2.2036187E-2,-5.410146E-2,3.3255864E-2,9.507693E-4,-1.7033776E-2,1.9514306E-2,6.597885E-3,-2.2194305E-2,3.4511123E-2,-1.0071551E-2,2.0722765E-2,-4.5857724E-4],"split_indices":[4,3,4,3,4,3,0,3,5,5,5,5,5,3,1,0,4,5,0,5,3,0,3,0,5,0,0,0,0,0,0,0,0,0,0,0,0,0,0,0,0],"split_type":[0,0,0,0,0,0,0,0,0,0,0,0,0,0,0,0,0,0,0,0,0,0,0,0,0,0,0,0,0,0,0,0,0,0,0,0,0,0,0,0,0],"sum_hessian":[1.89E2,1.42E2,4.7E1,7.6E1,6.6E1,4.3E1,4E0,5.4E1,2.2E1,2.7E1,3.9E1,1.2E1,3.1E1,4E1,1.4E1,4E0,1.8E1,2.3E1,4E0,1.4E1,2.5E1,6E0,6E0,4E0,2.7E1,3.5E1,5E0,8E0,6E0,1.5E1,3E0,8E0,1.5E1,4E0,1E1,7E0,1.8E1,3E0,3E0,1.3E1,1.4E1],"tree_param":{"num_deleted":"0","num_feature":"8","num_nodes":"41","size_leaf_vector":"1"}},{"base_weights":[4.1769326E-2,1.7640112E-1,-5.081044E-2,-7.2058566E-2,2.521432E0,1.1109977E0,-7.8672725E-1,3.5085602E0,-0E0,4.1357763E-2,7.2170293E-1,-4.82287E-2,-4.9742573E-1,1.6997726E0,5.4743104E-2,4.0306454E-3,3.3420205E-2,-1.0825781E-2,1.0908864E-2,4.224614E-3,2.813491E-2],"categories":[],"categories_nodes":[],"categories_segments":[],"categories_sizes":[],"default_left":[0,0,0,0,0,0,0,0,0,0,0,0,0,0,0,0,0,0,0,0,0],"id":36,"left_children":[1,3,-1,5,7,9,11,13,-1,-1,15,-1,17,19,-1,-1,-1,-1,-1,-1,-1],"loss_changes":[1.214126E2,1.06542465E2,0E0,1.3665991E2,4.26166E1,6.48907E1,1.11997894E2,3.2618668E1,0E0,0E0,4.108528E1,0E0,8.934034E1,6.8389893E0,0E0,0E0,0E0,0E0,0E0,0E0,0E0],"parents":[2147483647,0,0,1,1,3,3,4,4,5,5,6,6,7,7,10,10,12,12,13,13],"right_children":[2,4,-1,6,8,10,12,14,-1,-1,16,-1,18,20,-1,-1,-1,-1,-1,-1,-1],"split_conditions":[1.8852271E0,1.2730787E0,-5.081044E-2,-3.352958E-1,1.6397343E0,-1.6501658E0,-1.4061254E0,1.4021604E0,-0E0,4.1357763E-2,1.5491277E0,-4.82287E-2,5.4689485E-1,-3.8946274E-1,5.4743104E-2,4.0306454E-3,3.3420205E-2,-1.0825781E-2,1.0908864E-2,4.224614E-3,2.813491E-2],"split_indices":[6,6,0,6,6,3,3,6,0,0,3,0,6,0,0,0,0,0,0,0,0],"split_type":[0,0,0,0,0,0,0,0,0,0,0,0,0,0,0,0,0,0,0,0,0],"sum_hessian":[1.82E2,1.78E2,4E0,1.61E2,1.7E1,6E1,1.01E2,1.2E1,5E0,6E0,5.4E1,6E0,9.5E1,7E0,5E0,4.9E1,5E0,7E1,2.5E1,4E0,3E0],"tree_param":{"num_deleted":"0","num_feature":"8","num_nodes":"21","size_leaf_vector":"1"}},{"base_weights":[-3.4073725E-1,-8.194942E-1,1.1844759E0,-1.0803975E0,8.160039E-1,-2.0470006E0,1.8416449E0,-6.0437024E-1,-2.150056E0,2.9697798E-2,9.9875264E-2,4.742565E-3,-4.002756E-2,4.984439E0,8.709814E-1,-3.4082193E0,-3.2696587E-1,-1.3014942E0,-4.1748572E-2,-7.694271E-1,2.5325507E-2,5.9384022E-2,2.4875762E-2,-1.020705E0,2.9320605E0,-9.933913E-3,-4.685505E-2,-1.3721374E-2,1.94636E-3,2.3655745E-3,-1.9898374E-2,-1.5538842E-2,4.012712E-3,2.2461917E-2,-2.3416337E-2,1.4356245E-2,4.0996924E-2],"categories":[],"categories_nodes":[],"categories_segments":[],"categories_sizes":[],"default_left":[0,0,0,0,0,0,0,0,0,0,0,0,0,0,0,0,0,0,0,0,0,0,0,0,0,0,0,0,0,0,0,0,0,0,0,0,0],"id":37,"left_children":[1,3,5,7,9,11,13,15,17,-1,19,-1,-1,21,23,25,27,29,-1,31,-1,-1,-1,33,35,-1,-1,-1,-1,-1,-1,-1,-1,-1,-1,-1,-1],"loss_changes":[1.3703404E2,6.1937637E1,9.618091E1,5.998958E1,2.6858463E1,4.1459885E1,1.0637122E2,6.376512E1,5.6238205E1,0E0,3.551576E1,0E0,0E0,4.434204E0,1.1842575E2,1.5127045E1,4.519669E1,3.1103085E1,0E0,1.2025547E1,0E0,0E0,0E0,6.961307E1,1.6857536E1,0E0,0E0,0E0,0E0,0E0,0E0,0E0,0E0,0E0,0E0,0E0,0E0],"parents":[2147483647,0,0,1,1,2,2,3,3,4,4,5,5,6,6,7,7,8,8,10,10,13,13,14,14,15,15,16,16,17,17,19,19,23,23,24,24],"right_children":[2,4,6,8,10,12,14,16,18,-1,20,-1,-1,22,24,26,28,30,-1,32,-1,-1,-1,34,36,-1,-1,-1,-1,-1,-1,-1,-1,-1,-1,-1,-1],"split_conditions":[6.9308305E-1,1.3918989E0,-1.1723232E0,6.9256556E-1,-4.045107E-1,-1.4054344E0,-7.182652E-1,-1.7127771E0,7.5227386E-1,2.9697798E-2,8.171291E-1,4.742565E-3,-4.002756E-2,2.2634336E-1,1.2566011E-2,-5.5503976E-1,-9.3921214E-1,-8.120663E-1,-4.1748572E-2,7.0484966E-2,2.5325507E-2,5.9384022E-2,2.4875762E-2,1.06174774E-1,2.7306545E-1,-9.933913E-3,-4.685505E-2,-1.3721374E-2,1.94636E-3,2.3655745E-3,-1.9898374E-2,-1.5538842E-2,4.012712E-3,2.2461917E-2,-2.3416337E-2,1.4356245E-2,4.0996924E-2],"split_indices":[4,7,7,7,5,7,5,4,1,0,5,0,0,7,1,1,7,4,0,1,0,0,0,5,5,0,0,0,0,0,0,0,0,0,0,0,0],"split_type":[0,0,0,0,0,0,0,0,0,0,0,0,0,0,0,0,0,0,0,0,0,0,0,0,0,0,0,0,0,0,0,0,0,0,0,0,0],"sum_hessian":[1.87E2,1.43E2,4.4E1,1.24E2,1.9E1,7E0,3.7E1,8.7E1,3.7E1,4E0,1.5E1,3E0,4E0,8E0,2.9E1,7E0,8E1,2.7E1,1E1,1.1E1,4E0,5E0,3E0,1.5E1,1.4E1,3E0,4E0,2.7E1,5.3E1,8E0,1.9E1,7E0,4E0,4E0,1.1E1,7E0,7E0],"tree_param":{"num_deleted":"0","num_feature":"8","num_nodes":"37","size_leaf_vector":"1"}},{"base_weights":[3.5289815E-1,4.5362258E-1,-4.7789745E-2,1.9255555E-1,1.5720547E0,6.554072E-1,-8.480892E-1,6.265317E-1,2.9455893E0,2.995078E-1,1.7996521E0,-4.706704E-2,-5.048893E-1,2.3275037E0,-1.9942197E0,4.329506E-2,2.0297558E0,7.3131695E-3,-1.8605286E-2,2.4095751E-2,-0E0,-3.9380672E-4,-2.6033718E-2,5.20204E-2,1.1632532E-2,-7.639094E-4,-2.851545E-2,3.149177E-2,-5.3420477E-4],"categories":[],"categories_nodes":[],"categories_segments":[],"categories_sizes":[],"default_left":[0,0,0,0,0,0,0,0,0,0,0,0,0,0,0,0,0,0,0,0,0,0,0,0,0,0,0,0,0],"id":38,"left_children":[1,3,-1,5,7,9,11,13,15,17,19,-1,21,23,25,-1,27,-1,-1,-1,-1,-1,-1,-1,-1,-1,-1,-1,-1],"loss_changes":[9.471207E1,5.2539375E1,0E0,7.3539024E1,4.0310577E1,4.1001976E1,5.517907E1,9.8497284E1,6.3572235E0,7.650079E1,2.8062668E1,0E0,3.9799473E1,3.5789253E1,1.0938877E1,0E0,2.5333416E1,0E0,0E0,0E0,0E0,0E0,0E0,0E0,0E0,0E0,0E0,0E0,0E0],"parents":[2147483647,0,0,1,1,3,3,4,4,5,5,6,6,7,7,8,8,9,9,10,10,12,12,13,13,14,14,16,16],"right_children":[2,4,-1,6,8,10,12,14,16,18,20,-1,22,24,26,-1,28,-1,-1,-1,-1,-1,-1,-1,-1,-1,-1,-1,-1],"split_conditions":[2.004014E0,8.953364E-1,-4.7789745E-2,1.802393E-1,6.4809424E-1,-1.7057797E-1,2.0637242E-1,-4.5832604E-2,-1.012603E0,-3.0837077E-1,4.505361E-1,-4.706704E-2,7.60548E-1,1.061638E0,1.8272157E-1,4.329506E-2,1.5051091E0,7.3131695E-3,-1.8605286E-2,2.4095751E-2,-0E0,-3.9380672E-4,-2.6033718E-2,5.20204E-2,1.1632532E-2,-7.639094E-4,-2.851545E-2,3.149177E-2,-5.3420477E-4],"split_indices":[6,6,0,6,2,6,6,2,0,6,2,0,1,6,2,0,6,0,0,0,0,0,0,0,0,0,0,0,0],"split_type":[0,0,0,0,0,0,0,0,0,0,0,0,0,0,0,0,0,0,0,0,0,0,0,0,0,0,0,0,0],"sum_hessian":[1.89E2,1.86E2,3E0,1.52E2,3.4E1,1.06E2,4.6E1,2.1E1,1.3E1,8.2E1,2.4E1,3E0,4.3E1,1.3E1,8E0,4E0,9E0,6.9E1,1.3E1,1.8E1,6E0,3.6E1,7E0,3E0,1E1,3E0,5E0,6E0,3E0],"tree_param":{"num_deleted":"0","num_feature":"8","num_nodes":"29","size_leaf_vector":"1"}},{"base_weights":[-5.2663766E-2,1.5837127E-1,-3.7205367E0,-1.3757685E0,4.5387962E-1,-5.7133853E-2,-6.4921733E-3,1.6661368E-1,-3.347652E0,9.530569E-1,-3.2532492E-1,-2.2310201E-2,9.760408E-1,-4.3955095E-2,-1.00703845E-2,3.7000227E0,5.4054433E-1,-1.9861264E0,1.7238796E0,2.9848678E-2,-0E0,5.742936E-2,1.1581156E-3,2.5907627E-3,3.2680552E-2,-2.3296185E-2,6.1261803E-3,4.1576405E-3,3.2284148E-2],"categories":[],"categories_nodes":[],"categories_segments":[],"categories_sizes":[],"default_left":[0,0,0,0,0,0,0,0,0,0,0,0,0,0,0,0,0,0,0,0,0,0,0,0,0,0,0,0,0],"id":39,"left_children":[1,3,5,7,9,-1,-1,11,13,15,17,-1,19,-1,-1,21,23,25,27,-1,-1,-1,-1,-1,-1,-1,-1,-1,-1],"loss_changes":[1.350582E2,7.2153175E1,4.9929184E1,8.1015564E1,5.348699E1,0E0,0E0,2.7974096E1,2.0589478E1,8.937808E1,1.8064856E2,0E0,2.022749E1,0E0,0E0,7.0692154E1,5.247602E1,2.8763702E1,4.1935165E1,0E0,0E0,0E0,0E0,0E0,0E0,0E0,0E0,0E0,0E0],"parents":[2147483647,0,0,1,1,2,2,3,3,4,4,7,7,8,8,9,9,10,10,12,12,15,15,16,16,17,17,18,18],"right_children":[2,4,6,8,10,-1,-1,12,14,16,18,-1,20,-1,-1,22,24,26,28,-1,-1,-1,-1,-1,-1,-1,-1,-1,-1],"split_conditions":[1.8852295E0,-1.1723232E0,-6.767742E-3,-1.4054344E0,6.9256556E-1,-5.7133853E-2,-6.4921733E-3,-8.56818E-1,-5.0702468E-2,-8.951693E-1,1.3918989E0,-2.2310201E-2,-9.141373E-1,-4.3955095E-2,-1.00703845E-2,5.452478E-1,1.284423E0,1.6357435E0,-4.5352947E-2,2.9848678E-2,-0E0,5.742936E-2,1.1581156E-3,2.5907627E-3,3.2680552E-2,-2.3296185E-2,6.1261803E-3,4.1576405E-3,3.2284148E-2],"split_indices":[5,7,7,7,7,0,0,0,5,5,7,0,1,0,0,0,5,0,1,0,0,0,0,0,0,0,0,0,0],"split_type":[0,0,0,0,0,0,0,0,0,0,0,0,0,0,0,0,0,0,0,0,0,0,0,0,0,0,0,0,0],"sum_hessian":[1.69E2,1.6E2,9E0,2.5E1,1.35E2,5E0,4E0,1.4E1,1.1E1,8.3E1,5.2E1,3E0,1.1E1,7E0,4E0,1E1,7.3E1,2.9E1,2.3E1,3E0,8E0,6E0,4E0,6.7E1,6E0,2.6E1,3E0,1.3E1,1E1],"tree_param":{"num_deleted":"0","num_feature":"8","num_nodes":"29","size_leaf_vector":"1"}},{"base_weights":[5.704974E-2,-2.4759007E-1,1.0583394E0,2.1233894E-2,-1.732491E0,2.5241249E0,-5.274823E-1,-1.0439549E-1,2.2898185E0,-2.898431E0,5.038255E-1,7.186866E-2,1.5712193E0,7.329056E-1,-1.4434466E0,-2.6207528E0,4.4479102E-2,3.204187E-2,7.626187E-3,-3.7079565E-2,-1.054847E-2,2.141216E-2,-1.3876516E-2,1.3900831E-1,3.298845E0,2.3661401E-2,-7.5954064E-3,-2.1180828E0,3.0820083E-3,-0E0,-4.9531776E-2,4.037411E-2,-1.6854999E-3,2.0503035E-2,-8.837026E-3,8.557559E-3,4.3718245E-2,-2.9544441E-2,-6.382987E-3],"categories":[],"categories_nodes":[],"categories_segments":[],"categories_sizes":[],"default_left":[0,0,0,0,0,0,0,0,0,0,0,0,0,0,0,0,0,0,0,0,0,0,0,0,0,0,0,0,0,0,0,0,0,0,0,0,0,0,0],"id":40,"left_children":[1,3,5,7,9,11,13,15,17,19,21,-1,23,25,27,29,31,-1,-1,-1,-1,-1,-1,33,35,-1,-1,37,-1,-1,-1,-1,-1,-1,-1,-1,-1,-1,-1],"loss_changes":[5.5390095E1,5.6217304E1,1.0145253E2,3.5222546E1,5.918409E1,8.556674E1,2.490614E1,4.3655632E1,3.8881645E0,1.4921738E1,2.5467348E1,0E0,4.4582195E1,2.3224066E1,1.690784E1,4.122465E1,9.224732E1,0E0,0E0,0E0,0E0,0E0,0E0,2.4551607E1,1.51835785E1,0E0,0E0,7.2218704E0,0E0,0E0,0E0,0E0,0E0,0E0,0E0,0E0,0E0,0E0,0E0],"parents":[2147483647,0,0,1,1,2,2,3,3,4,4,5,5,6,6,7,7,8,8,9,9,10,10,12,12,13,13,14,14,15,15,16,16,23,23,24,24,27,27],"right_children":[2,4,6,8,10,12,14,16,18,20,22,-1,24,26,28,30,32,-1,-1,-1,-1,-1,-1,34,36,-1,-1,38,-1,-1,-1,-1,-1,-1,-1,-1,-1,-1,-1],"split_conditions":[5.4689485E-1,1.6836062E-1,-4.5832604E-2,1.995706E0,3.271408E-1,-4.7298995E-1,-5.202884E-1,-1.6174389E0,-1.5279162E0,1.3667807E-1,4.4613078E-1,7.186866E-2,-7.054066E-1,1.1084219E0,1.056402E0,-3.206551E-1,-1.3692148E0,3.204187E-2,7.626187E-3,-3.7079565E-2,-1.054847E-2,2.141216E-2,-1.3876516E-2,-1.6829895E0,4.7317386E-2,2.3661401E-2,-7.5954064E-3,1.2730787E0,3.0820083E-3,-0E0,-4.9531776E-2,4.037411E-2,-1.6854999E-3,2.0503035E-2,-8.837026E-3,8.557559E-3,4.3718245E-2,-2.9544441E-2,-6.382987E-3],"split_indices":[6,6,2,2,2,7,1,1,6,1,1,0,2,2,2,2,1,0,0,0,0,0,0,2,1,0,0,6,0,0,0,0,0,0,0,0,0,0,0],"split_type":[0,0,0,0,0,0,0,0,0,0,0,0,0,0,0,0,0,0,0,0,0,0,0,0,0,0,0,0,0,0,0,0,0,0,0,0,0,0,0],"sum_hessian":[1.78E2,1.36E2,4.2E1,1.15E2,2.1E1,2.2E1,2E1,1.09E2,6E0,1.4E1,7E0,3E0,1.9E1,8E0,1.2E1,6E0,1.03E2,3E0,3E0,9E0,5E0,4E0,3E0,1.1E1,8E0,4E0,4E0,9E0,3E0,3E0,3E0,5E0,9.8E1,4E0,7E0,3E0,5E0,5E0,4E0],"tree_param":{"num_deleted":"0","num_feature":"8","num_nodes":"39","size_leaf_vector":"1"}},{"base_weights":[-6.361359E-2,-5.008734E-1,6.256632E-1,-5.0153416E-2,-3.0917963E-1,-5.062721E-2,2.391147E0,5.934349E-1,-8.862896E-1,-6.69905E-1,2.363146E0,1.0355332E0,5.0774276E-2,2.2012784E-1,1.8126323E0,1.0617103E-1,-1.8124344E0,-0E0,-5.13315E-2,5.2195467E-2,7.392825E-1,2.3822892E0,-1.2030031E-2,1.3511128E-2,-5.3642564E-3,3.3050835E-2,2.4493288E-3,5.3321077E-3,-3.344628E-2,-1.6232955E-3,-2.4818458E-2,1.8327462E-2,-6.192885E-3,2.9415244E-2,-8.334926E-3,3.6366414E-2,3.6227088E-3],"categories":[],"categories_nodes":[],"categories_segments":[],"categories_sizes":[],"default_left":[0,0,0,0,0,0,0,0,0,0,0,0,0,0,0,0,0,0,0,0,0,0,0,0,0,0,0,0,0,0,0,0,0,0,0,0,0],"id":41,"left_children":[1,3,5,-1,7,9,11,13,15,17,19,21,-1,23,25,27,29,31,-1,-1,33,35,-1,-1,-1,-1,-1,-1,-1,-1,-1,-1,-1,-1,-1,-1,-1],"loss_changes":[5.6844486E1,9.4718704E1,8.8964584E1,0E0,5.915796E1,7.757509E1,6.591009E1,1.7566105E1,6.568425E1,1.2584794E2,4.0815063E1,4.6326286E1,0E0,3.0697021E1,1.8272514E1,4.7446835E1,3.7472244E1,4.2840378E1,0E0,0E0,2.931114E1,1.9413612E1,0E0,0E0,0E0,0E0,0E0,0E0,0E0,0E0,0E0,0E0,0E0,0E0,0E0,0E0,0E0],"parents":[2147483647,0,0,1,1,2,2,4,4,5,5,6,6,7,7,8,8,9,9,10,10,11,11,13,13,14,14,15,15,16,16,17,17,20,20,21,21],"right_children":[2,4,6,-1,8,10,12,14,16,18,20,22,-1,24,26,28,30,32,-1,-1,34,36,-1,-1,-1,-1,-1,-1,-1,-1,-1,-1,-1,-1,-1,-1,-1],"split_conditions":[3.498352E-1,-1.4061254E0,8.56818E-1,-5.0153416E-2,-7.582082E-2,8.085464E-1,1.284423E0,-3.7430477E-1,-3.4109226E-1,1.8852295E0,-1.5475413E0,-1.749549E-1,5.0774276E-2,-7.7820486E-1,-1.8688272E-1,1.6223214E0,-8.83712E-2,-1.2354649E0,-5.13315E-2,5.2195467E-2,1.1872368E0,9.940332E-1,-1.2030031E-2,1.3511128E-2,-5.3642564E-3,3.3050835E-2,2.4493288E-3,5.3321077E-3,-3.344628E-2,-1.6232955E-3,-2.4818458E-2,1.8327462E-2,-6.192885E-3,2.9415244E-2,-8.334926E-3,3.6366414E-2,3.6227088E-3],"split_indices":[5,3,0,0,3,3,5,3,5,5,2,3,0,3,3,3,2,3,0,0,3,5,0,0,0,0,0,0,0,0,0,0,0,0,0,0,0],"split_type":[0,0,0,0,0,0,0,0,0,0,0,0,0,0,0,0,0,0,0,0,0,0,0,0,0,0,0,0,0,0,0,0,0,0,0,0,0],"sum_hessian":[1.88E2,1.16E2,7.2E1,4E0,1.12E2,5.2E1,2E1,4.3E1,6.9E1,4.2E1,1E1,1.4E1,6E0,3.4E1,9E0,3.3E1,3.6E1,3.7E1,5E0,3E0,7E0,9E0,5E0,1.4E1,2E1,4E0,5E0,3E1,3E0,1.1E1,2.5E1,9E0,2.8E1,3E0,4E0,5E0,4E0],"tree_param":{"num_deleted":"0","num_feature":"8","num_nodes":"37","size_leaf_vector":"1"}},{"base_weights":[-0E0,-5.989668E-1,4.499945E-1,7.4989635E-1,-1.4809186E0,1.3036145E0,-8.389794E-2,-1.0183703E0,1.7247856E0,-3.7319417E0,-7.814952E-1,-1.1468269E-1,2.0374217E0,1.3744408E0,-8.9376026E-1,-4.6418905E-2,1.0903E0,4.4423256E-2,9.195671E-1,-4.513443E0,-1.0151607E-2,3.5228753E-1,-1.3820734E0,1.8064963E-2,-1.0278221E0,1.5432998E0,5.0606772E-2,7.135083E-1,3.2908097E-2,-2.7672532E0,-1.0437804E-1,2.5729587E-2,-6.8601826E-3,-1.7965311E-3,2.2116622E-2,-1.7145015E-2,-5.7024565E-2,1.946004E-2,-1.9609366E-2,-1.8185697E-2,7.3175025E-3,-2.6338909E-2,4.898667E-3,-9.444528E-3,2.074613E-2,1.2801656E-2,-9.6944375E-3,-3.923644E-2,-1.8746193E-2,-7.523102E-3,3.6445826E-2],"categories":[],"categories_nodes":[],"categories_segments":[],"categories_sizes":[],"default_left":[0,0,0,0,0,0,0,0,0,0,0,0,0,0,0,0,0,0,0,0,0,0,0,0,0,0,0,0,0,0,0,0,0,0,0,0,0,0,0,0,0,0,0,0,0,0,0,0,0,0,0],"id":42,"left_children":[1,3,5,7,9,11,13,15,17,19,21,23,25,27,29,-1,31,-1,33,35,-1,37,39,-1,41,43,-1,45,-1,47,49,-1,-1,-1,-1,-1,-1,-1,-1,-1,-1,-1,-1,-1,-1,-1,-1,-1,-1,-1,-1],"loss_changes":[5.1568512E1,9.943097E1,5.0722336E1,5.7610233E1,7.353642E1,4.6271713E1,7.867359E1,9.395143E1,3.964218E1,1.6596893E1,2.8169771E1,2.5587116E1,3.2065872E1,2.4586555E1,6.1316185E1,0E0,2.2522041E1,0E0,2.7085873E1,1.5982437E1,0E0,5.1662483E1,2.6203114E1,0E0,2.8383034E1,3.5815144E1,0E0,1.8573902E1,0E0,3.4269867E0,7.499443E1,0E0,0E0,0E0,0E0,0E0,0E0,0E0,0E0,0E0,0E0,0E0,0E0,0E0,0E0,0E0,0E0,0E0,0E0,0E0,0E0],"parents":[2147483647,0,0,1,1,2,2,3,3,4,4,5,5,6,6,7,7,8,8,9,9,10,10,11,11,12,12,13,13,14,14,16,16,18,18,19,19,21,21,22,22,24,24,25,25,27,27,29,29,30,30],"right_children":[2,4,6,8,10,12,14,16,18,20,22,24,26,28,30,-1,32,-1,34,36,-1,38,40,-1,42,44,-1,46,-1,48,50,-1,-1,-1,-1,-1,-1,-1,-1,-1,-1,-1,-1,-1,-1,-1,-1,-1,-1,-1,-1],"split_conditions":[-2.3367764E-1,-2.3987885E-1,-6.5872826E-2,-1.1723232E0,-5.847527E-1,5.452478E-1,-2.6098472E-1,2.1297607E-1,-1.1188029E0,9.256767E-1,1.3287729E-1,-4.7298995E-1,1.284423E0,1.3918989E0,2.6128438E-1,-4.6418905E-2,-1.012603E0,4.4423256E-2,4.06578E-1,4.5945448E-1,-1.0151607E-2,-8.56818E-1,1.3918989E0,1.8064963E-2,9.256767E-1,-1.205897E0,5.0606772E-2,-5.0798297E-1,3.2908097E-2,7.8990154E-2,1.3278146E0,2.5729587E-2,-6.8601826E-3,-1.7965311E-3,2.2116622E-2,-1.7145015E-2,-5.7024565E-2,1.946004E-2,-1.9609366E-2,-1.8185697E-2,7.3175025E-3,-2.6338909E-2,4.898667E-3,-9.444528E-3,2.074613E-2,1.2801656E-2,-9.6944375E-3,-3.923644E-2,-1.8746193E-2,-7.523102E-3,3.6445826E-2],"split_indices":[0,7,3,7,5,0,5,3,5,7,5,7,5,7,3,0,0,0,5,7,0,0,7,0,7,3,0,5,0,3,5,0,0,0,0,0,0,0,0,0,0,0,0,0,0,0,0,0,0,0,0],"split_type":[0,0,0,0,0,0,0,0,0,0,0,0,0,0,0,0,0,0,0,0,0,0,0,0,0,0,0,0,0,0,0,0,0,0,0,0,0,0,0,0,0,0,0,0,0,0,0,0,0,0,0],"sum_hessian":[1.9E2,8.2E1,1.08E2,3.2E1,5E1,4.2E1,6.6E1,1.1E1,2.1E1,1.1E1,3.9E1,1.4E1,2.8E1,2.3E1,4.3E1,4E0,7E0,4E0,1.7E1,8E0,3E0,1.3E1,2.6E1,4E0,1E1,2.5E1,3E0,1.8E1,5E0,1.2E1,3.1E1,4E0,3E0,9E0,8E0,3E0,5E0,8E0,5E0,2.2E1,4E0,5E0,5E0,4E0,2.1E1,1.4E1,4E0,4E0,8E0,2.7E1,4E0],"tree_param":{"num_deleted":"0","num_feature":"8","num_nodes":"51","size_leaf_vector":"1"}},{"base_weights":[-4.5774648E-1,-3.7703723E-1,-4.038334E-2,-7.139427E-1,8.007068E-1,-9.060118E-1,1.2760952E0,2.5737534E0,-6.836184E-1,-3.3698663E-2,-7.334411E-1,-1.4379266E-1,3.7230086E-2,8.4535843E-1,3.5905235E0,1.6811801E-2,-1.5652044E0,-5.5642235E-3,-3.505262E-2,7.0696543E-3,-1.502797E-2,-0E0,1.6482025E-2,4.3467674E-2,1.1713545E-2,-4.438918E-2,-6.1795637E-3],"categories":[],"categories_nodes":[],"categories_segments":[],"categories_sizes":[],"default_left":[0,0,0,0,0,0,0,0,0,0,0,0,0,0,0,0,0,0,0,0,0,0,0,0,0,0,0],"id":43,"left_children":[1,3,-1,5,7,9,11,13,15,-1,17,19,-1,21,23,-1,25,-1,-1,-1,-1,-1,-1,-1,-1,-1,-1],"loss_changes":[4.4962494E1,6.7851494E1,0E0,5.1235E1,1.0146154E2,4.674656E1,4.3801826E1,2.4800629E1,4.393757E1,0E0,5.163484E1,9.998424E0,0E0,4.148271E0,1.114563E1,0E0,3.5764454E1,0E0,0E0,0E0,0E0,0E0,0E0,0E0,0E0,0E0,0E0],"parents":[2147483647,0,0,1,1,3,3,4,4,5,5,6,6,7,7,8,8,10,10,11,11,13,13,14,14,16,16],"right_children":[2,4,-1,6,8,10,12,14,16,-1,18,20,-1,22,24,-1,26,-1,-1,-1,-1,-1,-1,-1,-1,-1,-1],"split_conditions":[2.2862327E0,5.4689485E-1,-4.038334E-2,1.3125758E0,-8.83712E-2,-1.6588097E0,-3.879022E-1,8.2564807E-1,8.153532E-1,-3.3698663E-2,4.5978445E-1,-4.215332E-1,3.7230086E-2,5.9556556E-1,-3.7779027E-1,1.6811801E-2,-1.18346E0,-5.5642235E-3,-3.505262E-2,7.0696543E-3,-1.502797E-2,-0E0,1.6482025E-2,4.3467674E-2,1.1713545E-2,-4.438918E-2,-6.1795637E-3],"split_indices":[2,6,0,2,2,1,1,6,6,0,6,3,0,3,3,0,3,0,0,0,0,0,0,0,0,0,0],"split_type":[0,0,0,0,0,0,0,0,0,0,0,0,0,0,0,0,0,0,0,0,0,0,0,0,0,0,0],"sum_hessian":[1.73E2,1.7E2,3E0,1.33E2,3.7E1,1.22E2,1.1E1,1.7E1,2E1,7E0,1.15E2,7E0,4E0,7E0,1E1,5E0,1.5E1,1.09E2,6E0,4E0,3E0,4E0,3E0,7E0,3E0,3E0,1.2E1],"tree_param":{"num_deleted":"0","num_feature":"8","num_nodes":"27","size_leaf_vector":"1"}},{"base_weights":[-2.1500297E-2,7.64345E-1,-6.906058E-1,-1.5898453E0,1.2230505E0,-2.5276015E0,-4.4049963E-1,-3.5483158E0,3.370748E-1,-2.5069097E-2,1.4381438E0,-4.91457E-4,-3.8951784E-2,-1.3768028E0,3.520379E-1,-1.6849041E-3,-6.1355244E-2,2.3700291E-2,-1.4583188E-2,3.9921858E0,7.719141E-1,-3.2495442E-1,-2.1544282E0,1.5540085E0,-5.348031E-1,5.9539147E-2,1.5695196E-2,3.9295335E-3,3.1531136E-2,6.88547E-3,-1.128648E-2,-1.1388627E-2,-3.068884E-2,-1.3280504E-2,2.6625821E-2,1.3191668E-2,-1.6466403E-2],"categories":[],"categories_nodes":[],"categories_segments":[],"categories_sizes":[],"default_left":[0,0,0,0,0,0,0,0,0,0,0,0,0,0,0,0,0,0,0,0,0,0,0,0,0,0,0,0,0,0,0,0,0,0,0,0,0],"id":44,"left_children":[1,3,5,7,9,11,13,15,17,-1,19,-1,-1,21,23,-1,-1,-1,-1,25,27,29,31,33,35,-1,-1,-1,-1,-1,-1,-1,-1,-1,-1,-1,-1],"loss_changes":[8.931557E1,8.429614E1,3.8973763E1,5.098197E1,5.328386E1,3.15495E1,6.248668E1,5.0017136E1,2.6364536E1,0E0,1.0004376E2,0E0,0E0,2.8661407E1,4.8869827E1,0E0,0E0,0E0,0E0,4.7211853E1,4.1404682E1,1.5083198E1,1.4011566E1,6.5404564E1,5.3977047E1,0E0,0E0,0E0,0E0,0E0,0E0,0E0,0E0,0E0,0E0,0E0,0E0],"parents":[2147483647,0,0,1,1,2,2,3,3,4,4,5,5,6,6,7,7,8,8,10,10,13,13,14,14,19,19,20,20,21,21,22,22,23,23,24,24],"right_children":[2,4,6,8,10,12,14,16,18,-1,20,-1,-1,22,24,-1,-1,-1,-1,26,28,30,32,34,36,-1,-1,-1,-1,-1,-1,-1,-1,-1,-1,-1,-1],"split_conditions":[-2.1268913E-1,-1.3691388E0,-7.763839E-1,6.9256556E-1,-2.1521509E0,3.945312E-1,3.271408E-1,-5.5166487E-2,-1.9532562E0,-2.5069097E-2,-1.5396892E0,-4.91457E-4,-3.8951784E-2,-2.2727923E-2,9.0505326E-1,-1.6849041E-3,-6.1355244E-2,2.3700291E-2,-1.4583188E-2,-6.767742E-3,1.3918989E0,-2.509713E-1,1.136626E-1,-4.0766555E-1,3.890535E-2,5.9539147E-2,1.5695196E-2,3.9295335E-3,3.1531136E-2,6.88547E-3,-1.128648E-2,-1.1388627E-2,-3.068884E-2,-1.3280504E-2,2.6625821E-2,1.3191668E-2,-1.6466403E-2],"split_indices":[2,5,4,7,2,2,2,4,5,0,2,0,0,4,2,0,0,0,0,7,7,5,2,4,4,0,0,0,0,0,0,0,0,0,0,0,0],"split_type":[0,0,0,0,0,0,0,0,0,0,0,0,0,0,0,0,0,0,0,0,0,0,0,0,0,0,0,0,0,0,0,0,0,0,0,0,0],"sum_hessian":[1.69E2,7.7E1,9.2E1,1.2E1,6.5E1,1E1,8.2E1,6E0,6E0,3E0,6.2E1,4E0,6E0,3.8E1,4.4E1,3E0,3E0,3E0,3E0,1.2E1,5E1,1.7E1,2.1E1,1.9E1,2.5E1,6E0,6E0,4.4E1,6E0,7E0,1E1,1.1E1,1E1,5E0,1.4E1,9E0,1.6E1],"tree_param":{"num_deleted":"0","num_feature":"8","num_nodes":"37","size_leaf_vector":"1"}},{"base_weights":[-4.1392494E-2,8.791978E-1,-7.6980376E-1,2.4595818E-1,5.0936813E0,3.646204E-2,-1.8434565E0,-3.5767663E-1,2.2692213E0,2.4210189E-2,5.9871394E-2,-3.8753307E-1,2.471467E0,-2.8718002E0,-9.5213366E-1,-1.8168879E0,4.476848E-1,1.2145332E0,3.482287E-2,-3.9551165E-2,-7.304321E-2,3.476989E-2,2.5257983E-3,-1.987545E0,-4.1975368E-2,2.9615121E-2,-2.1439707E0,-4.7112055E-2,-7.870346E-3,-0E0,2.6544383E-2,2.9981997E-2,6.8255205E-5,-2.7433005E-3,1.9808535E-2,-2.8650323E-2,-4.2846706E-3,-4.461425E-2,-1.2818651E-2],"categories":[],"categories_nodes":[],"categories_segments":[],"categories_sizes":[],"default_left":[0,0,0,0,0,0,0,0,0,0,0,0,0,0,0,0,0,0,0,0,0,0,0,0,0,0,0,0,0,0,0,0,0,0,0,0,0,0,0],"id":45,"left_children":[1,3,5,7,9,11,13,15,17,-1,-1,19,21,23,25,27,29,31,-1,-1,33,-1,-1,35,-1,-1,37,-1,-1,-1,-1,-1,-1,-1,-1,-1,-1,-1,-1],"loss_changes":[1.1389034E2,1.928579E2,8.451013E1,8.231331E1,7.0295258E0,5.883027E1,3.284723E1,6.1123116E1,1.3019295E1,0E0,0E0,4.7998947E1,1.47960205E1,1.1330872E1,1.1197121E2,4.7791183E1,3.2239532E1,1.7449146E1,0E0,0E0,1.6549053E1,0E0,0E0,1.3193611E1,0E0,0E0,2.8358223E1,0E0,0E0,0E0,0E0,0E0,0E0,0E0,0E0,0E0,0E0,0E0,0E0],"parents":[2147483647,0,0,1,1,2,2,3,3,4,4,5,5,6,6,7,7,8,8,11,11,12,12,13,13,14,14,15,15,16,16,17,17,20,20,23,23,26,26],"right_children":[2,4,6,8,10,12,14,16,18,-1,-1,20,22,24,26,28,30,32,-1,-1,34,-1,-1,36,-1,-1,38,-1,-1,-1,-1,-1,-1,-1,-1,-1,-1,-1,-1],"split_conditions":[-2.1268913E-1,1.2596161E0,1.6836062E-1,1.3918989E0,1.4021604E0,1.3930595E0,6.1350584E-1,-9.978963E-1,-6.36701E-1,2.4210189E-2,5.9871394E-2,-1.7258943E0,-1.8166475E-1,3.2125175E-1,7.315225E-1,-1.6731039E0,9.5297265E-1,-6.6135806E-1,3.482287E-2,-3.9551165E-2,1.0342378E-1,3.476989E-2,2.5257983E-3,1.4458013E-1,-4.1975368E-2,2.9615121E-2,-1.18346E0,-4.7112055E-2,-7.870346E-3,-0E0,2.6544383E-2,2.9981997E-2,6.8255205E-5,-2.7433005E-3,1.9808535E-2,-2.8650323E-2,-4.2846706E-3,-4.461425E-2,-1.2818651E-2],"split_indices":[2,6,6,7,6,2,2,2,2,0,0,6,6,2,2,3,3,3,0,0,6,0,0,2,0,0,3,0,0,0,0,0,0,0,0,0,0,0,0],"split_type":[0,0,0,0,0,0,0,0,0,0,0,0,0,0,0,0,0,0,0,0,0,0,0,0,0,0,0,0,0,0,0,0,0,0,0,0,0,0,0],"sum_hessian":[1.69E2,7.4E1,9.5E1,6.5E1,9E0,5.4E1,4.1E1,5E1,1.5E1,3E0,6E0,4.6E1,8E0,1.8E1,2.3E1,1.8E1,3.2E1,9E0,6E0,3E0,4.3E1,5E0,3E0,1.2E1,6E0,5E0,1.8E1,4E0,1.4E1,2.7E1,5E0,3E0,6E0,4E1,3E0,7E0,5E0,4E0,1.4E1],"tree_param":{"num_deleted":"0","num_feature":"8","num_nodes":"39","size_leaf_vector":"1"}},{"base_weights":[-3.7384115E-2,-4.5608476E-1,1.122766E0,-4.0872525E-3,-1.6587968E0,3.9256923E0,5.1104903E-1,-2.5891194E0,2.1786848E-1,-3.9164193E-2,-1.0436635E0,5.006324E-2,2.1866502E-2,-4.932997E-1,1.3333863E0,-3.728836E-2,-1.425476E-3,-8.135382E-2,1.6954452E0,1.0095949E0,-2.4568472E0,2.471156E-2,-1.4652584E0,4.6631582E-2,4.795059E-1,2.4157662E-2,-2.4506338E-3,3.7190724E-2,5.6695202E-3,-1.7683802E-2,2.085186E-2,-4.485631E-2,-1.6735403E-2,-0E0,-3.7377354E-2,1.6733153E-2,-3.3676657E-3],"categories":[],"categories_nodes":[],"categories_segments":[],"categories_sizes":[],"default_left":[0,0,0,0,0,0,0,0,0,0,0,0,0,0,0,0,0,0,0,0,0,0,0,0,0,0,0,0,0,0,0,0,0,0,0,0,0],"id":46,"left_children":[1,3,5,7,9,11,13,15,17,-1,19,-1,-1,21,23,-1,-1,25,27,29,31,-1,33,-1,35,-1,-1,-1,-1,-1,-1,-1,-1,-1,-1,-1,-1],"loss_changes":[9.11543E1,7.4169106E1,7.943273E1,6.146397E1,4.507393E1,3.3072357E0,3.5444374E1,1.9564236E1,4.3463768E1,0E0,9.1187225E1,0E0,0E0,5.4109123E1,6.055517E1,0E0,0E0,3.0216295E1,3.2339924E1,3.951008E1,1.9486855E1,0E0,4.570742E1,0E0,2.0620548E1,0E0,0E0,0E0,0E0,0E0,0E0,0E0,0E0,0E0,0E0,0E0,0E0],"parents":[2147483647,0,0,1,1,2,2,3,3,4,4,5,5,6,6,7,7,8,8,10,10,13,13,14,14,17,17,18,18,19,19,20,20,22,22,24,24],"right_children":[2,4,6,8,10,12,14,16,18,-1,20,-1,-1,22,24,-1,-1,26,28,30,32,-1,34,-1,36,-1,-1,-1,-1,-1,-1,-1,-1,-1,-1,-1,-1],"split_conditions":[6.9308305E-1,4.4311777E-2,9.2880327E-1,-1.7127771E0,-7.245542E-1,-1.071947E0,-3.9415738E-1,2.3348676E-1,1.3241732E0,-3.9164193E-2,6.0955934E-2,5.006324E-2,2.1866502E-2,-1.7538196E0,-1.2975903E0,-3.728836E-2,-1.425476E-3,-1.3743348E0,-1.0542743E0,1.4379004E-1,-7.0103294E-1,2.471156E-2,6.9667894E-1,4.6631582E-2,1.2423761E0,2.4157662E-2,-2.4506338E-3,3.7190724E-2,5.6695202E-3,-1.7683802E-2,2.085186E-2,-4.485631E-2,-1.6735403E-2,-0E0,-3.7377354E-2,1.6733153E-2,-3.3676657E-3],"split_indices":[4,4,4,4,3,3,3,3,0,0,3,0,0,3,2,0,0,4,4,4,0,0,2,0,4,0,0,0,0,0,0,0,0,0,0,0,0],"split_type":[0,0,0,0,0,0,0,0,0,0,0,0,0,0,0,0,0,0,0,0,0,0,0,0,0,0,0,0,0,0,0,0,0,0,0,0,0],"sum_hessian":[1.88E2,1.39E2,4.9E1,1.02E2,3.7E1,8E0,4.1E1,8E0,9.4E1,7E0,3E1,4E0,4E0,1.8E1,2.3E1,5E0,3E0,7.8E1,1.6E1,1.2E1,1.8E1,4E0,1.4E1,4E0,1.9E1,4E0,7.4E1,5E0,1.1E1,3E0,9E0,4E0,1.4E1,9E0,5E0,8E0,1.1E1],"tree_param":{"num_deleted":"0","num_feature":"8","num_nodes":"37","size_leaf_vector":"1"}},{"base_weights":[2.793214E-1,-2.0132467E-1,1.5217239E0,1.4432286E-1,-1.38752E0,-2.6470015E-2,1.9055299E0,2.266542E0,-1.2947287E-1,-2.5066261E0,-0E0,3.6757452E0,8.038871E-1,-0E0,4.3583035E-2,-5.239373E-1,8.40002E-1,-4.7221668E-2,-1.6012002E0,3.0691532E-2,-2.3282847E0,2.397211E-2,4.9212437E-2,1.3509115E0,-2.4061378E-2,-5.621199E-3,5.6292E-3,-8.966354E-4,-2.0392252E-2,-3.4686868E-4,1.7576536E-2,1.0672116E-2,-2.886174E-2,-4.6754265E-3,-3.1189129E-2,2.3228684E-2,4.5898124E-3],"categories":[],"categories_nodes":[],"categories_segments":[],"categories_sizes":[],"default_left":[0,0,0,0,0,0,0,0,0,0,0,0,0,0,0,0,0,0,0,0,0,0,0,0,0,0,0,0,0,0,0,0,0,0,0,0,0],"id":47,"left_children":[1,3,5,7,9,-1,11,13,15,17,19,21,23,25,-1,27,29,-1,31,-1,33,-1,-1,35,-1,-1,-1,-1,-1,-1,-1,-1,-1,-1,-1,-1,-1],"loss_changes":[1.14634605E2,5.7309074E1,8.737953E1,6.358505E1,4.931137E1,0E0,9.057512E1,5.9251114E1,3.5660576E1,2.5001213E1,1.0730579E2,1.6242538E1,5.588281E1,2.215002E0,0E0,4.2198044E1,2.3023933E1,0E0,4.9648384E1,0E0,8.189251E0,0E0,0E0,2.0525314E1,0E0,0E0,0E0,0E0,0E0,0E0,0E0,0E0,0E0,0E0,0E0,0E0,0E0],"parents":[2147483647,0,0,1,1,2,2,3,3,4,4,6,6,7,7,8,8,9,9,10,10,11,11,12,12,13,13,15,15,16,16,18,18,20,20,23,23],"right_children":[2,4,6,8,10,-1,12,14,16,18,20,22,24,26,-1,28,30,-1,32,-1,34,-1,-1,36,-1,-1,-1,-1,-1,-1,-1,-1,-1,-1,-1,-1,-1],"split_conditions":[5.4689485E-1,1.6836062E-1,-1.8176618E0,-1.3800575E0,4.1226968E-1,-2.6470015E-2,-1.749549E-1,4.660131E-1,-1.5790737E-1,-5.5039525E-1,4.6770358E-1,1.2358588E0,1.7981167E0,-1.8209238E0,4.3583035E-2,-3.2024944E-1,2.3367764E-1,-4.7221668E-2,2.1825111E-1,3.0691532E-2,-1.1247462E-1,2.397211E-2,4.9212437E-2,-6.6609275E-1,-2.4061378E-2,-5.621199E-3,5.6292E-3,-8.966354E-4,-2.0392252E-2,-3.4686868E-4,1.7576536E-2,1.0672116E-2,-2.886174E-2,-4.6754265E-3,-3.1189129E-2,2.3228684E-2,4.5898124E-3],"split_indices":[6,6,4,3,6,0,3,4,6,4,6,6,6,6,0,6,0,0,6,0,4,0,0,4,0,0,0,0,0,0,0,0,0,0,0,0,0],"split_type":[0,0,0,0,0,0,0,0,0,0,0,0,0,0,0,0,0,0,0,0,0,0,0,0,0,0,0,0,0,0,0,0,0,0,0,0,0],"sum_hessian":[1.89E2,1.36E2,5.3E1,1.05E2,3.1E1,4E0,4.9E1,1.2E1,9.3E1,1.7E1,1.4E1,1.8E1,3.1E1,6E0,6E0,6.7E1,2.6E1,4E0,1.3E1,6E0,8E0,1E1,8E0,2.7E1,4E0,3E0,3E0,5.3E1,1.4E1,1.3E1,1.3E1,4E0,9E0,3E0,5E0,1.2E1,1.5E1],"tree_param":{"num_deleted":"0","num_feature":"8","num_nodes":"37","size_leaf_vector":"1"}},{"base_weights":[-1.5664765E-1,-4.3304378E-1,8.234955E-1,-3.4603234E-2,-2.6634607E-1,-2.2743666E-1,2.483315E0,-5.188041E-1,1.3994187E0,6.2190086E-1,-4.482334E-2,3.2002382E0,-0E0,-1.583968E0,-1.1942682E-1,3.3065896E-2,7.8108413E-3,1.661166E0,-3.2665636E-2,3.9072177E0,5.3840256E-3,-2.5565814E-2,-4.4380305E-3,2.406638E-3,-1.5249114E-2,1.6814955E-2,-5.6416574E-3,6.052661E-3,3.2476682E-2,4.8023853E-2,2.1567669E-2],"categories":[],"categories_nodes":[],"categories_segments":[],"categories_sizes":[],"default_left":[0,0,0,0,0,0,0,0,0,0,0,0,0,0,0,0,0,0,0,0,0,0,0,0,0,0,0,0,0,0,0],"id":48,"left_children":[1,3,5,-1,7,9,11,13,15,17,-1,19,-1,21,23,-1,25,27,-1,29,-1,-1,-1,-1,-1,-1,-1,-1,-1,-1,-1],"loss_changes":[5.166669E1,7.176091E1,7.4929115E1,0E0,5.982926E1,9.7407234E1,2.6265976E1,5.159E1,4.577231E1,8.7992386E1,0E0,1.8025848E1,0E0,3.3581795E1,4.8282166E1,0E0,1.2600698E1,2.4479992E1,0E0,2.7480316E0,0E0,0E0,0E0,0E0,0E0,0E0,0E0,0E0,0E0,0E0,0E0],"parents":[2147483647,0,0,1,1,2,2,4,4,5,5,6,6,7,7,8,8,9,9,11,11,13,13,14,14,16,16,17,17,19,19],"right_children":[2,4,6,-1,8,10,12,14,16,18,-1,20,-1,22,24,-1,26,28,-1,30,-1,-1,-1,-1,-1,-1,-1,-1,-1,-1,-1],"split_conditions":[6.9308305E-1,-1.6174389E0,1.697746E-1,-3.4603234E-2,1.1693203E0,-7.8449495E-2,2.2634336E-1,-6.801495E-1,1.5657955E0,7.553251E-1,-4.482334E-2,9.6494246E-1,-0E0,-6.767742E-3,6.150997E-1,3.3065896E-2,-9.55508E-1,-6.708777E-1,-3.2665636E-2,-7.0610106E-1,5.3840256E-3,-2.5565814E-2,-4.4380305E-3,2.406638E-3,-1.5249114E-2,1.6814955E-2,-5.6416574E-3,6.052661E-3,3.2476682E-2,4.8023853E-2,2.1567669E-2],"split_indices":[4,1,1,0,3,1,7,4,3,3,0,3,0,7,3,0,1,1,0,7,0,0,0,0,0,0,0,0,0,0,0],"split_type":[0,0,0,0,0,0,0,0,0,0,0,0,0,0,0,0,0,0,0,0,0,0,0,0,0,0,0,0,0,0,0],"sum_hessian":[1.91E2,1.5E2,4.1E1,7E0,1.43E2,2.5E1,1.6E1,1.25E2,1.8E1,2.1E1,4E0,1.2E1,4E0,3.3E1,9.2E1,7E0,1.1E1,1.7E1,4E0,9E0,3E0,1.7E1,1.6E1,7.3E1,1.9E1,3E0,8E0,1.1E1,6E0,5E0,4E0],"tree_param":{"num_deleted":"0","num_feature":"8","num_nodes":"31","size_leaf_vector":"1"}},{"base_weights":[-1.2236747E-1,-3.0903238E-1,1.2587087E0,-2.5286705E0,-1.8657708E-1,2.4038177E0,-3.3665955E-2,-3.8830508E-2,-6.7110495E-3,-3.1956387E-1,4.3255743E-2,1.6719499E0,5.0158296E-2,4.4202888E-1,-7.9108727E-1,2.9504378E0,-2.8472142E-2,3.1532493E-4,2.5388233E-2,-4.7283024E-3,-2.7269162E-2,1.6208129E-2,4.911903E-2],"categories":[],"categories_nodes":[],"categories_segments":[],"categories_sizes":[],"default_left":[0,0,0,0,0,0,0,0,0,0,0,0,0,0,0,0,0,0,0,0,0,0,0],"id":49,"left_children":[1,3,5,7,9,11,-1,-1,-1,13,-1,15,-1,17,19,21,-1,-1,-1,-1,-1,-1,-1],"loss_changes":[4.9128815E1,4.3663666E1,1.222543E2,1.5527599E1,9.479438E1,2.4484596E1,0E0,0E0,0E0,5.7801754E1,0E0,9.385778E1,0E0,4.9463577E1,5.745664E1,2.20868E1,0E0,0E0,0E0,0E0,0E0,0E0,0E0],"parents":[2147483647,0,0,1,1,2,2,3,3,4,4,5,5,9,9,11,11,13,13,14,14,15,15],"right_children":[2,4,6,8,10,12,-1,-1,-1,14,-1,16,-1,18,20,22,-1,-1,-1,-1,-1,-1,-1],"split_conditions":[1.1645867E0,-1.7829217E0,1.8852271E0,-8.690449E-1,2.1722815E0,1.7743593E0,-3.3665955E-2,-3.8830508E-2,-6.7110495E-3,-3.2024944E-1,4.3255743E-2,1.6397343E0,5.0158296E-2,8.7307626E-1,8.7307626E-1,1.4021604E0,-2.8472142E-2,3.1532493E-4,2.5388233E-2,-4.7283024E-3,-2.7269162E-2,1.6208129E-2,4.911903E-2],"split_indices":[6,1,6,6,4,6,0,0,0,6,0,6,0,1,1,6,0,0,0,0,0,0,0],"split_type":[0,0,0,0,0,0,0,0,0,0,0,0,0,0,0,0,0,0,0,0,0,0,0],"sum_hessian":[1.93E2,1.71E2,2.2E1,8E0,1.63E2,1.8E1,4E0,4E0,4E0,1.59E2,4E0,1.5E1,3E0,6E1,9.9E1,1.2E1,3E0,5.1E1,9E0,8.6E1,1.3E1,8E0,4E0],"tree_param":{"num_deleted":"0","num_feature":"8","num_nodes":"23","size_leaf_vector":"1"}},{"base_weights":[8.349502E-2,-2.088947E-1,3.2861493E0,4.0930116E-1,-8.529323E-1,1.5626943E0,5.3984184E-2,7.892712E-1,-1.950042E0,-1.0008972E0,2.3441164E-2,2.8104266E-2,-6.920508E-3,2.8037542E-1,2.9665716E0,-3.962589E-2,4.2388085E-3,-4.3128222E-2,-8.2975745E-1,2.4038386E-2,-1.9558447E-3,4.4759266E-2,1.8242515E-3,6.368371E-3,-1.1507677E-2],"categories":[],"categories_nodes":[],"categories_segments":[],"categories_sizes":[],"default_left":[0,0,0,0,0,0,0,0,0,0,0,0,0,0,0,0,0,0,0,0,0,0,0,0,0],"id":50,"left_children":[1,3,5,7,9,11,-1,13,15,17,-1,-1,-1,19,21,-1,-1,-1,23,-1,-1,-1,-1,-1,-1],"loss_changes":[1.7338129E2,6.690873E1,4.5247055E1,7.536132E1,3.8856575E1,2.9817379E1,0E0,7.7776566E1,5.9321297E1,3.812887E1,0E0,0E0,0E0,6.3589676E1,5.166397E1,0E0,0E0,0E0,3.6895935E1,0E0,0E0,0E0,0E0,0E0,0E0],"parents":[2147483647,0,0,1,1,2,2,3,3,4,4,5,5,7,7,8,8,9,9,13,13,14,14,18,18],"right_children":[2,4,6,8,10,12,-1,14,16,18,-1,-1,-1,20,22,-1,-1,-1,24,-1,-1,-1,-1,-1,-1],"split_conditions":[1.3148222E0,-7.724089E-2,2.8002837E-1,7.6120406E-1,1.3278146E0,-3.6776754E-1,5.3984184E-2,1.0539815E0,-6.494606E-1,-1.8090502E0,2.3441164E-2,2.8104266E-2,-6.920508E-3,-1.1472648E0,1.8033769E0,-3.962589E-2,4.2388085E-3,-4.3128222E-2,-8.684668E-1,2.4038386E-2,-1.9558447E-3,4.4759266E-2,1.8242515E-3,6.368371E-3,-1.1507677E-2],"split_indices":[4,2,2,4,5,2,0,3,2,3,0,0,0,4,3,0,0,0,5,0,0,0,0,0,0],"split_type":[0,0,0,0,0,0,0,0,0,0,0,0,0,0,0,0,0,0,0,0,0,0,0,0,0],"sum_hessian":[1.81E2,1.66E2,1.5E1,8.4E1,8.2E1,9E0,6E0,7.3E1,1.1E1,7.9E1,3E0,6E0,3E0,6E1,1.3E1,6E0,5E0,3E0,7.6E1,1.1E1,4.9E1,8E0,5E0,1.3E1,6.3E1],"tree_param":{"num_deleted":"0","num_feature":"8","num_nodes":"25","size_leaf_vector":"1"}},{"base_weights":[6.543496E-2,-2.9657156E0,1.7869394E-1,-8.3889235E-3,-4.383151E-2,7.4315107E-1,-4.137416E-1,1.13805465E-1,1.3976792E0,-1.7271227E0,5.2720326E-1,2.6227102E0,-2.3940797E-1,1.0062917E0,3.5147507E0,-3.3470118E0,-1.2676889E0,-4.1490562E-2,8.798488E-1,4.8273033E-3,4.102303E-2,1.3426257E-2,-9.685146E-3,1.2822083E-2,-1.729165E-2,1.531941E-2,4.7097385E-2,-1.783464E-2,-4.593429E-2,-0E0,-1.6422901E-2,1.2221669E-2,-3.4102652E-2],"categories":[],"categories_nodes":[],"categories_segments":[],"categories_sizes":[],"default_left":[0,0,0,0,0,0,0,0,0,0,0,0,0,0,0,0,0,0,0,0,0,0,0,0,0,0,0,0,0,0,0,0,0],"id":51,"left_children":[1,3,5,-1,-1,7,9,11,13,15,17,19,21,23,25,27,29,-1,31,-1,-1,-1,-1,-1,-1,-1,-1,-1,-1,-1,-1,-1,-1],"loss_changes":[6.219095E1,1.2534588E1,6.151196E1,0E0,0E0,3.7335835E1,1.11025185E2,4.6563103E1,3.1411606E1,2.1172508E1,8.3482765E1,1.500576E1,5.045207E1,3.0474548E1,5.552124E0,4.1432495E0,1.436768E1,0E0,7.112217E1,0E0,0E0,0E0,0E0,0E0,0E0,0E0,0E0,0E0,0E0,0E0,0E0,0E0,0E0],"parents":[2147483647,0,0,1,1,2,2,5,5,6,6,7,7,8,8,9,9,10,10,11,11,12,12,13,13,14,14,15,15,16,16,18,18],"right_children":[2,4,6,-1,-1,8,10,12,14,16,18,20,22,24,26,28,30,-1,32,-1,-1,-1,-1,-1,-1,-1,-1,-1,-1,-1,-1,-1,-1],"split_conditions":[-1.8176618E0,-2.3987885E-1,6.1612345E-2,-8.3889235E-3,-4.383151E-2,2.2634336E-1,6.0982406E-1,-1.0086929E0,1.284423E0,-7.182652E-1,-1.7863656E0,4.06578E-1,-4.045107E-1,1.050776E0,-1.6005428E0,-6.767742E-3,-3.1772757E-1,-4.1490562E-2,1.7183388E0,4.8273033E-3,4.102303E-2,1.3426257E-2,-9.685146E-3,1.2822083E-2,-1.729165E-2,1.531941E-2,4.7097385E-2,-1.783464E-2,-4.593429E-2,-0E0,-1.6422901E-2,1.2221669E-2,-3.4102652E-2],"split_indices":[4,7,4,0,0,7,4,2,5,5,5,5,5,5,2,7,5,0,5,0,0,0,0,0,0,0,0,0,0,0,0,0,0],"split_type":[0,0,0,0,0,0,0,0,0,0,0,0,0,0,0,0,0,0,0,0,0,0,0,0,0,0,0,0,0,0,0,0,0],"sum_hessian":[1.88E2,6E0,1.82E2,3E0,3E0,9.4E1,8.8E1,4.9E1,4.5E1,3.7E1,5.1E1,6E0,4.3E1,3.9E1,6E0,7E0,3E1,3E0,4.8E1,3E0,3E0,1.3E1,3E1,3.6E1,3E0,3E0,3E0,4E0,3E0,7E0,2.3E1,4.5E1,3E0],"tree_param":{"num_deleted":"0","num_feature":"8","num_nodes":"33","size_leaf_vector":"1"}},{"base_weights":[-0E0,5.8931607E-1,-5.712333E-1,1.0959638E-1,3.1052227E0,-3.672449E-2,-3.567034E-1,-2.9621325E0,4.7024554E-1,1.6746582E0,4.3631647E-2,-2.265496E-1,-3.0879425E-2,-3.815543E-2,-1.1560143E-2,3.0454624E0,-1.063661E-1,2.7700314E-2,-0E0,-4.2163953E-1,3.9514292E-2,1.327559E-2,4.3752532E-2,-9.498851E-3,1.804462E-2,-6.213712E-3,1.7154524E-2],"categories":[],"categories_nodes":[],"categories_segments":[],"categories_sizes":[],"default_left":[0,0,0,0,0,0,0,0,0,0,0,0,0,0,0,0,0,0,0,0,0,0,0,0,0,0,0],"id":52,"left_children":[1,3,5,7,9,-1,11,13,15,17,-1,19,-1,-1,-1,21,23,-1,-1,25,-1,-1,-1,-1,-1,-1,-1],"loss_changes":[5.957171E1,1.0101448E2,5.5525818E1,7.962908E1,1.4602921E1,0E0,2.6729362E1,4.3832397E0,1.0184692E2,1.3495232E1,0E0,6.4547485E1,0E0,0E0,0E0,1.9948639E1,8.784663E1,0E0,0E0,3.337306E1,0E0,0E0,0E0,0E0,0E0,0E0,0E0],"parents":[2147483647,0,0,1,1,2,2,3,3,4,4,6,6,7,7,8,8,9,9,11,11,15,15,16,16,19,19],"right_children":[2,4,6,8,10,-1,12,14,16,18,-1,20,-1,-1,-1,22,24,-1,-1,26,-1,-1,-1,-1,-1,-1,-1],"split_conditions":[-1.46991415E-2,9.8991024E-1,-1.806849E0,-1.7026197E0,3.8946274E-1,-3.672449E-2,1.950618E0,-4.3351665E-1,-9.85072E-1,-7.789254E-2,4.3631647E-2,1.6424516E0,-3.0879425E-2,-3.815543E-2,-1.1560143E-2,-1.2013291E0,6.552381E-1,2.7700314E-2,-0E0,1.4799584E0,3.9514292E-2,1.327559E-2,4.3752532E-2,-9.498851E-3,1.804462E-2,-6.213712E-3,1.7154524E-2],"split_indices":[2,3,4,2,0,0,4,3,4,0,0,4,0,0,0,4,4,0,0,0,0,0,0,0,0,0,0],